2685 10
の 0.250584 0.320077 0.010520 -0.143640 -0.249796 0.207169 -0.010093 0.072711 0.460936 0.263673
えー -0.101078 0.108575 -0.054262 -0.089186 -0.186976 -0.000430 -0.152734 -0.101680 0.019225 0.034822
を 0.131016 0.518628 -0.415567 -0.138233 0.141227 0.397241 0.322029 -0.183518 -0.087630 0.812612
て -0.424219 0.189608 0.125563 0.842823 0.568372 0.110148 1.034917 0.485437 0.496953 -0.371383
する 0.373702 0.562183 0.594641 -0.499846 -0.239116 0.413245 -0.497098 -0.593090 0.403064 -0.798797
が 0.595607 0.477832 -0.055124 0.184799 -0.069722 -0.030787 0.368915 -0.064709 0.186850 0.477777
ます -0.064877 -0.418956 0.070306 0.266737 1.424424 -0.650176 -0.223507 -0.653072 0.187216 0.463989
は 0.163691 0.663701 -0.156718 -0.311492 0.066718 -0.121383 0.140999 -0.030277 -0.071627 0.416643
に 0.831451 -0.154651 0.132055 0.005280 0.094623 0.086667 -0.056312 0.582320 0.514765 0.380081
で 0.214177 0.334372 0.051004 -0.111019 0.008066 -0.084373 0.141958 0.242189 0.121714 -0.009934
と 0.402865 -0.075520 -0.306449 0.202108 0.101515 0.428936 0.399985 0.320580 0.115342 0.313434
だ 0.831108 -0.061538 0.028717 -0.037932 0.228337 -0.280508 -0.311332 0.225443 0.263564 0.067620
た -0.067822 0.176641 -0.057621 0.190040 0.126125 0.160446 0.744244 0.260131 -0.221632 0.158107
です -0.406839 -0.063199 -0.469570 -1.059741 1.144825 -0.320460 -0.239821 -0.230592 0.331827 -0.666619
ま 0.207487 0.568085 0.335073 0.358361 -0.413277 -0.976184 0.415873 -0.210008 -0.389645 -0.074348
え 0.040199 0.158801 0.151812 0.053300 -0.000129 -0.052772 -0.074401 -0.054321 0.022328 0.131974
ー -0.161653 -0.326756 -0.827297 -0.940714 0.571078 0.115060 -0.359964 0.404648 0.417469 0.184273
ん 0.192261 -0.121195 -0.108627 0.380246 -0.295613 -0.652480 0.621060 -0.057261 -0.436943 0.160537
こと -0.675533 -0.534274 -0.838256 0.725712 -0.080273 0.287469 0.338679 -0.927696 0.570110 -0.124892
という 0.706802 0.126835 -0.132111 0.269858 -0.070351 0.083290 -0.251460 0.753076 -0.435429 -0.269798
この 0.078287 0.071137 0.002694 -0.241998 -0.121848 -0.086161 -0.259435 0.417323 -0.073811 -0.083549
ある 0.022738 0.003372 -0.559125 -0.700917 -0.571767 0.449532 0.014419 -0.338826 -0.299102 -0.506636
いる 0.564163 -0.595417 0.062522 -0.867159 -0.445368 0.196244 -0.093314 -0.692865 -0.751406 0.182219
一 -0.301211 -0.209598 0.177978 -0.133235 -0.376676 -0.346938 -0.154393 0.071101 0.356440 0.176801
二 -0.337654 -0.371458 0.255229 -0.329427 -0.364706 -0.278153 -0.019519 0.035518 0.230789 0.173353
なる -0.135453 0.437279 0.197574 -0.624697 -0.613873 0.209212 0.023991 -0.841458 -0.571099 -0.800615
検索 -0.043177 0.184729 -0.064054 0.368346 -0.082450 0.148302 -0.450419 -0.277832 -0.224254 0.385269
その -0.047424 0.107266 -0.055632 -0.327013 -0.131084 -0.022138 -0.192198 0.015692 0.022637 0.057301
音声 -0.548745 0.505413 -0.062938 -0.290347 0.299610 0.284062 -0.572916 0.560812 0.245463 -0.405248
も 0.294616 0.238354 -0.178665 -0.161283 0.056768 0.011019 0.145929 -0.085035 -0.120786 0.460772
えーっと -0.122086 0.298560 0.247960 0.032610 -0.157081 -0.498023 0.249537 -0.048243 -0.427966 0.056543
認識 0.042504 0.367764 0.332926 0.477866 -0.279050 -0.156084 -0.456463 -0.438603 -0.500257 0.812165
これ -0.433638 -0.428756 0.072871 -0.100011 -0.235677 -0.255598 -0.193822 0.364170 -0.174090 -0.575965
れる 0.161392 -0.403599 -0.406654 0.232563 0.177848 0.342646 0.234393 -0.167798 -0.501857 0.432947
よう -1.160184 0.288907 -1.001683 0.528473 -0.228028 0.215992 0.642304 -0.787443 -0.158012 -0.257572
ない 0.231087 -0.223346 -0.583886 0.208701 0.024446 -0.220482 0.039570 -0.357362 0.189974 -0.167762
結果 -0.675845 -0.039851 0.136998 0.223062 0.195015 -0.066679 -0.162902 -0.138339 0.145277 -0.345390
か 0.365915 0.141190 -0.552246 0.506388 -0.025166 -0.438901 0.079411 -0.471525 0.113606 -0.263419
行なう 0.109674 0.139767 1.097414 -0.183717 -0.332665 0.557510 -0.756608 -0.356795 0.212706 -1.197489
えーと -0.071949 0.164274 0.013677 -0.060046 -0.194884 -0.338582 0.160160 0.079954 -0.177972 -0.020283
から 0.397464 0.285167 0.164571 0.038059 -0.064837 -0.008432 0.152535 0.170202 0.065866 0.601505
もの -0.180872 -0.243655 -0.290296 0.500190 -0.247663 -0.144216 -0.160207 -0.707227 0.309881 -0.398092
モデル -0.138668 0.038618 -0.180013 0.531082 -0.053172 0.009329 -0.740373 -0.118240 0.325115 -0.237329
十 -0.255602 -0.447885 0.585881 0.114736 -0.749705 -0.139694 0.405667 -0.311316 0.743930 0.573467
あのー -0.009100 0.090710 -0.186926 -0.096178 -0.004090 -0.267536 0.054838 0.054973 0.025442 0.043030
いう 0.838372 0.434766 0.081544 0.295707 0.126879 -0.404851 -0.465280 -0.044343 -0.528393 -0.568387
ね 0.493755 -0.065956 0.160038 0.747758 -1.143696 -0.457068 0.352691 0.172854 -0.469882 0.674769
用いる 0.357683 0.039173 0.875325 -0.136803 -0.109058 0.456837 -1.141109 -0.551546 -0.062161 -0.458570
場合 -0.404848 -0.116376 -0.056739 0.400087 0.172569 -0.378547 -0.412158 -0.424540 -0.233923 -0.162608
三 -0.312216 -0.253904 0.335136 -0.354381 -0.415707 -0.319021 0.094821 -0.066583 0.280253 0.098247
方 -0.536826 -0.202955 -0.408580 0.319616 -0.083031 -0.555604 -0.457653 0.091964 -0.217500 -0.399738
単語 -0.313137 -0.019952 -0.096682 0.326934 -0.180544 -0.037935 -0.363663 -0.044801 0.122548 -0.030903
ます. 0.394856 -0.327066 0.074194 1.158539 1.450826 -0.331498 0.446777 -0.651579 0.651890 0.120901
五 -0.390834 -0.429076 0.413117 -0.419141 -0.267510 -0.215396 0.177285 0.047765 0.528525 0.193487
四 -0.180750 -0.284788 0.359812 -0.375977 -0.439467 -0.285325 0.118071 0.061604 0.282207 0.257750
できる 0.623582 0.068364 0.058069 -0.564772 -0.292230 0.425198 -0.355854 -0.044355 0.057403 -0.870282
的 -0.639353 0.661068 -0.867825 -0.194549 -0.799523 0.368420 0.234745 -0.572196 -0.145509 -0.140080
として 0.163191 0.442680 0.093833 -0.136555 0.045217 0.122068 0.000232 0.387537 0.245491 0.338440
こちら -0.318784 -0.166077 0.025044 -0.137179 -0.203144 -0.438991 -0.318661 0.370218 -0.457612 -0.328792
それ -0.454844 -0.479735 0.031368 0.015764 0.038652 -0.274121 -0.297443 -0.155671 -0.061831 -0.432617
って 0.424189 -0.173491 -0.421815 0.201695 -0.034979 0.017676 0.097920 0.348162 0.005982 0.039438
られる -0.593941 0.303790 -0.331034 -0.374585 0.341267 0.956151 0.436343 0.091851 -0.149432 -0.031284
手法 -0.483041 0.341084 -0.091432 0.276231 0.116146 -0.083960 -0.252887 -0.219104 -0.033929 -0.197754
について 0.273308 0.436448 0.153843 0.001036 0.013819 0.051266 0.106075 0.323957 0.164261 0.385353
てる 0.037107 -0.152937 -0.462483 0.430944 0.385156 -0.231030 0.279289 -0.158278 0.038787 -0.015783
ので 0.131838 0.268168 -0.131314 0.021197 -0.209853 0.019817 0.435207 0.220147 -0.088692 -0.145146
後 -0.287134 -0.098818 -0.152441 0.069275 -0.079006 -0.332079 -0.143117 -0.167372 -0.072080 0.108981
あの -0.114683 0.047556 -0.165485 -0.083224 -0.169505 -0.049536 0.030094 0.078647 0.046721 0.082817
使う 0.379646 -0.139282 0.631813 -0.166348 -0.214730 0.151678 -0.703521 -0.446512 0.002802 -0.617724
語 -0.812793 0.532946 0.539436 0.246534 -0.334881 -0.260067 -0.089855 0.106080 0.245681 -0.194584
思う 0.243037 0.483209 0.281637 -0.646257 -0.413924 -0.510684 0.139851 -0.869769 -0.388736 -1.253257
文 -0.261709 -0.071128 -0.030342 0.239205 -0.206726 -0.170275 -0.336748 -0.128129 0.154180 -0.172160
一つ -0.419358 -0.160296 -0.116770 0.135915 -0.076492 -0.520575 -0.321730 0.111615 -0.033356 0.021151
考える 0.615446 -0.020549 0.551425 -0.341576 -0.530512 -0.433386 -0.130145 -0.926205 -0.260205 -1.265250
おる 0.158847 -0.560433 0.118881 -1.185565 -0.590785 0.462270 0.210243 -0.386998 -1.068877 0.275529
まず -0.189169 0.350142 0.390787 -0.202009 0.063004 -0.327892 -0.047557 0.330217 -0.057385 0.118490
評価 -0.360310 0.032674 0.227219 0.100104 -0.019527 0.040724 -0.218531 -0.068983 -0.282590 0.008282
データー -0.320022 0.230061 0.175693 0.358515 -0.140072 -0.161504 -0.404717 -0.083672 0.039794 -0.100356
こう -0.106250 -0.215672 -0.442499 -0.136934 0.069641 -0.004733 0.025366 -0.218513 0.115476 -0.033158
言う 0.432360 0.347975 0.203945 -0.686332 -0.549304 -0.312663 -0.108676 -0.919097 -0.204420 -0.889059
また -0.144524 0.377459 0.373867 -0.138553 0.162236 0.079327 0.253785 0.112780 0.033903 0.009631
発話 -0.239437 -0.079059 -0.101902 0.086766 -0.294847 -0.039314 -0.281346 -0.169458 0.140547 0.063038
方法 -0.334160 -0.078732 -0.165956 0.301689 -0.025661 -0.023517 -0.103653 -0.311958 -0.021203 -0.169985
あー -0.047036 0.085908 -0.102034 0.207450 -0.280080 -0.489604 -0.129831 -0.124685 -0.205767 -0.146889
実験 -0.231418 0.149673 0.323729 0.093731 0.162865 -0.005354 -0.216765 0.044370 -0.368438 0.007298
けども 0.390146 0.025925 -0.015000 0.199836 -0.455152 -0.295408 0.779318 0.260732 -0.173063 0.567506
情報 -0.185559 0.157949 0.047035 0.467965 -0.113739 -0.038407 -0.403841 0.006922 0.067831 -0.102735
けれども 0.221858 0.189882 -0.233162 0.078446 -0.392431 -0.296275 0.751479 0.345572 -0.269314 0.596017
お 0.223664 0.598912 0.677290 0.690697 -0.479354 -1.272358 0.218543 -0.146846 -0.417060 -0.177027
言語 -0.045073 0.307516 -0.002023 -0.487344 0.118717 0.058917 -0.610949 0.314957 -0.712074 0.725394
う 0.063436 0.387901 -0.194664 0.597834 -0.469020 -0.335078 0.683447 -0.395750 -0.298306 -0.162519
とか 0.170403 -0.001877 -0.324814 0.065184 -0.224149 -0.144013 0.223362 0.147860 0.219087 0.220728
二つ -0.527199 0.021121 0.093709 0.130770 0.080639 -0.539370 -0.402349 -0.064338 -0.197409 -0.078991
為 -0.832410 0.339408 -0.029487 0.627528 0.123263 -0.081786 0.180842 -0.094649 -0.414803 -0.224122
． 0.415141 -0.353482 0.585582 0.204789 -0.957944 -0.491801 0.259281 -0.450174 1.079235 0.286785
そして -0.090275 0.431498 0.294814 -0.123008 0.145566 0.137963 0.277523 0.268906 -0.126758 0.139290
ここ -0.791894 -0.265752 -0.086822 -0.165162 0.073009 -0.446837 -0.097536 0.082382 -0.433134 -0.292158
化 -0.157137 0.175194 -0.166255 0.361679 0.115245 0.285595 -0.376910 -0.074059 -0.325345 0.699710
率 -0.255363 0.012269 -0.275336 -0.298215 -0.204115 0.124558 -0.616504 0.694541 0.707101 -0.553950
研究 -0.501829 0.141072 -0.156608 0.079416 -0.003111 -0.952299 -0.034717 -0.147273 -0.433091 0.011647
見る 0.475413 -0.062042 0.410448 -0.426428 -0.163830 -0.153364 -0.381442 -0.987867 0.009085 -0.949237
中 -0.720322 0.296408 -0.118491 0.226805 -0.032681 -0.533485 -0.323668 -0.051128 -0.322700 -0.086355
八 -0.231005 -0.377266 0.175148 -0.189210 -0.397252 -0.323022 0.178476 0.027532 0.440548 0.140146
六 -0.267798 -0.345252 0.211589 -0.451379 -0.378814 -0.260675 0.246072 -0.038558 0.544701 0.115788
ちょっと -0.060019 -0.028096 -0.120242 -0.123384 -0.018731 -0.236459 -0.053343 -0.040481 0.048532 0.090201
時 -0.767471 0.091928 -0.102462 0.414598 0.090487 -0.090789 -0.180248 -0.349761 -0.148444 -0.135133
今回 -0.304931 -0.097081 -0.018497 -0.078179 -0.020539 -0.266002 -0.241104 0.344062 -0.473677 -0.148926
に対して 0.164482 0.495483 0.043631 -0.037287 0.095174 -0.113564 -0.020328 0.230554 0.385981 0.475768
提案 -0.094321 0.139496 0.153717 -0.049969 0.435703 0.004570 -0.066951 0.142548 -0.677809 0.428027
本 -0.288470 -0.145293 0.508228 -0.647869 0.019007 -0.211516 -0.064236 0.651239 -0.257690 -0.034010
説明 -0.424483 0.072134 0.306221 0.241328 0.177204 0.110519 0.293648 0.012579 -1.087684 0.471631
数 -0.285225 -0.102116 0.073434 0.158156 -0.172563 -0.178406 -0.420784 0.148599 0.246549 -0.075484
誤り -0.257327 0.081328 -0.144702 0.022913 -0.195492 -0.054809 -0.440786 0.227087 0.255644 -0.373786
書く 0.288602 -0.027728 0.626189 -0.916426 -0.776559 -0.339321 -0.866390 -0.935094 -0.294850 -0.067595
もう -0.000807 0.126395 0.201979 0.036899 -0.096393 -0.444904 0.036177 -0.095718 0.225434 0.070130
分かる 0.688100 -0.094737 -0.054417 -0.619617 -0.176580 0.177905 -0.055320 -0.086998 -0.408208 -1.055994
音節 -0.487046 0.273681 -0.111399 0.075177 -0.256115 0.136691 -0.377966 0.014398 0.277841 0.103130
パーセント -0.186630 -0.517436 0.445915 -0.299200 -0.660036 -0.247415 0.162429 -0.148228 0.504369 0.088193
っていう 0.274738 0.030545 -0.106870 0.253699 -0.164130 -0.189804 -0.349532 0.459504 -0.349692 -0.215786
学習 -0.381342 -0.149066 0.043569 0.031206 0.207127 0.083043 -0.249418 -0.010085 -0.655472 0.296798
くる 0.571581 -0.681212 0.122202 -0.870561 -0.228631 -0.032183 -0.321644 -0.957682 -0.887155 0.125235
先程 -0.241285 0.069680 0.032236 -0.124601 -0.053720 -0.436590 -0.283416 0.192948 -0.303145 -0.168677
〇 -0.438689 -0.515207 0.157583 -0.421416 -0.451020 -0.126464 0.094902 0.020072 0.361119 0.059900
精度 -0.453015 -0.124052 0.151143 -0.240477 -0.147504 0.269416 -0.688933 0.532757 0.483468 -0.679910
によって 0.604168 0.546506 0.362908 0.054052 0.282948 0.181183 -0.126070 0.658874 0.067089 0.404813
しまう 0.781938 -0.767157 -0.119582 -0.951762 -0.184241 0.265786 -0.452107 -1.097242 -0.670709 0.279018
やる 0.484419 -0.202306 0.145331 -0.379682 -0.165462 0.071714 -0.402166 -0.710575 -0.297732 -0.397620
性 0.057385 0.071636 -0.251020 0.411708 -0.302353 -0.013896 -0.373261 -0.061046 0.492835 -0.279633
時間 -0.235876 -0.102567 0.170925 0.159372 -0.217542 0.014267 -0.453372 0.086615 0.203526 -0.031659
高い 0.016334 -0.394355 -0.382647 -0.014697 -0.168275 0.236097 -0.471507 0.088957 0.120545 -0.061912
んで 0.029557 0.223421 -0.085075 -0.229638 0.229660 -0.261859 0.288468 0.257337 0.013501 -0.165649
たい -0.034299 -0.063194 -0.276533 0.693406 0.424979 -0.125955 0.451495 -0.439228 0.087320 0.118047
性能 -0.642905 -0.092991 0.156796 0.138606 -0.062219 0.302166 -0.522580 0.512861 0.163501 -0.628166
何 0.165282 -0.258567 -0.392984 0.202384 -0.109090 -0.247560 -0.181645 -0.156071 -0.054385 -0.264784
システム -0.484528 0.242517 -0.029184 0.115808 -0.042104 -0.080136 -0.359256 0.171717 -0.035841 -0.349715
対象 -0.547157 0.194329 0.597692 0.411364 0.271024 -0.042356 -0.531947 -0.023781 -0.049315 -0.359624
特徴 -0.131947 0.065606 -0.263646 0.436878 0.056194 -0.141590 -0.599311 -0.105107 -0.121871 -0.219462
度 0.207445 0.043293 0.178989 0.463021 -0.418897 0.014304 -0.566646 0.052854 0.226012 0.037470
音 -0.300862 0.070112 0.026075 0.374081 -0.103250 -0.366100 -0.321288 -0.130666 0.018961 -0.198065
人 -0.363189 -0.356094 -0.107251 0.160601 -0.318249 -0.443211 -0.151907 -0.278242 0.224658 -0.146299
風 -0.990192 -0.144488 -1.237684 0.418200 -0.506955 0.613693 0.649586 -1.043160 0.240931 -0.411337
ば -0.027424 0.046371 -0.424330 0.884100 0.311215 -0.284420 0.583167 0.287931 0.329383 0.257304
起こす -0.559694 0.279825 -0.488114 1.124179 0.910543 0.002625 0.406414 0.697460 0.334149 -0.380122
問題 -0.266341 -0.306260 -0.504624 0.391893 -0.246321 -0.056796 0.034977 -0.163918 0.106805 -0.465671
利用 -0.071909 -0.629382 0.106895 0.753224 0.184088 0.166916 -0.394766 -0.046131 -0.557912 0.409275
九 -0.427756 -0.273472 0.284744 -0.288737 -0.390165 -0.215234 0.188837 0.060876 0.453207 0.191408
いたす 0.069334 0.927839 0.988106 -1.083736 -0.904904 0.665641 -0.138951 -0.567115 -0.482903 -0.823498
た. -0.281331 0.303437 0.358599 -0.035313 -0.427836 0.817473 1.445655 0.639325 -0.359080 -0.352407
値 -0.199201 0.076706 0.016689 0.445551 0.004704 -0.067720 -0.316408 -0.048668 0.079253 -0.194537
あ 0.019188 0.109939 -0.057191 -0.050139 0.085809 -0.180494 -0.181778 -0.082257 0.128136 0.164120
部分 -0.391415 -0.133521 -0.222457 0.262521 0.189889 -0.398655 -0.430234 0.022737 -0.042472 -0.300757
や 0.324135 0.555917 -0.014622 -0.104560 0.027120 0.122452 -0.118404 0.183669 0.306274 0.500029
次に -0.460849 0.417071 0.452179 -0.271996 0.328182 -0.268785 -0.106153 0.080616 -0.088436 0.177118
距離 -0.273688 -0.013655 -0.041684 0.319775 -0.085455 -0.019091 -0.445862 -0.156918 0.134131 -0.065828
いく 0.598072 -0.543559 0.244517 -0.955382 -0.473192 0.368829 -0.382784 -0.796831 -0.845649 0.487543
前 -0.463323 0.127153 -0.062237 0.117913 -0.256656 -0.299539 -0.162319 0.042173 -0.149794 0.078148
得る 0.861448 -0.432310 0.220322 0.050327 -0.061353 -0.329882 -0.338507 -1.439235 0.455344 -0.885087
今 -0.194511 -0.251851 -0.078173 -0.210222 -0.033959 -0.331719 -0.218500 -0.004186 -0.341307 0.088060
七 -0.414401 -0.623629 0.402147 -0.499102 -0.296587 -0.282721 0.105002 0.155374 0.557321 0.042936
音響 -0.055701 0.236010 -0.165894 -0.472515 -0.045181 0.203307 -0.591582 0.285690 -0.630360 0.551095
な 0.465124 -0.062320 -0.776507 0.102501 -0.027601 -0.138655 0.242269 -0.601621 0.257431 -0.256731
発表 -0.558734 -0.614324 0.017100 0.284922 -0.078229 -0.272071 0.076564 -0.013724 -0.399407 0.029170
ところ -0.199273 -0.201462 -0.474984 0.330159 0.091496 -0.145870 -0.067783 -0.332958 0.204877 -0.314600
推定 -0.165846 -0.390889 0.038043 0.417358 0.137442 0.055015 -0.204640 -0.139136 -0.298775 0.275967
実際 -0.912550 0.115065 -0.219246 -0.096502 -0.140166 -0.301048 -0.129167 -0.068233 -0.670224 -0.419881
そう -0.288205 -0.341003 -0.468525 0.203293 -0.152390 -0.045944 0.355714 0.003878 -0.407944 0.091243
以上 -0.010199 -0.040870 0.260379 -0.113728 -0.326459 -0.122361 0.079642 0.151228 -0.032718 -0.023706
だけ -0.025260 0.051761 -0.170791 0.342075 -0.095595 -0.274024 -0.036533 -0.413482 -0.092863 0.156628
例 -0.392041 -0.242749 0.138638 0.148481 -0.347345 -0.332865 -0.044955 -0.273258 -0.160705 -0.204101
改善 -0.408488 -0.747592 -0.168358 0.481442 -0.035255 0.047169 -0.070473 -0.154507 -0.241217 -0.061304
そういう 0.275659 0.061395 -0.326858 -0.272664 -0.023843 -0.060997 -0.113277 0.210711 -0.179820 -0.101628
例えば -0.299633 0.059344 -0.031171 -0.092137 -0.002855 -0.258912 0.138460 0.251623 -0.021341 -0.028980
上 -0.545858 0.030646 -0.188669 0.138930 0.007385 -0.297757 -0.412397 -0.079379 -0.337726 0.020129
ぐらい -0.223795 -0.157405 -0.135235 0.051826 -0.270451 -0.200086 0.344316 -0.011798 0.249228 0.239489
より 0.084171 0.214092 0.031483 0.070244 -0.197749 -0.027505 -0.195677 0.083427 0.405884 -0.008540
法 -0.268672 0.687409 0.183453 0.136263 -0.235059 0.049206 -0.432375 -0.366957 0.206425 -0.186362
テキスト -0.342506 -0.008437 0.098829 0.183972 0.029255 -0.113129 -0.462973 -0.019901 0.026706 -0.026192
まで 0.029171 0.124007 -0.020310 -0.044026 -0.045966 -0.382723 0.121654 -0.086142 0.178883 0.125335
示す 0.217508 0.289523 0.592451 -0.304446 -0.218745 0.394648 -0.361689 -0.294699 -0.093745 -1.218776
重要 -0.452199 0.260390 -0.332921 0.222981 -0.185466 0.178877 -0.212570 -0.086276 0.134998 0.079425
正解 -0.031907 0.114884 0.045770 0.336992 -0.351296 0.039406 -0.282694 0.213448 0.001966 0.211512
非常 -1.047610 0.291858 -0.686718 -0.016539 -0.727687 0.159983 -0.062434 -0.340022 -0.629254 -0.648627
音素 -0.386820 0.086369 0.026215 0.182529 -0.214548 0.109241 -0.446995 -0.043199 0.147043 0.216255
さ -0.098451 0.337978 -0.295506 0.236223 -0.093040 -0.072866 -0.169531 0.056185 0.426157 -0.311500
百 -0.166076 -0.300437 0.321363 -0.231089 -0.607137 -0.265375 0.156008 -0.093592 0.762184 0.371845
せる 0.364254 -0.407759 -0.195558 0.311367 0.144577 0.267065 0.425836 -0.501000 -0.411277 0.564355
平均 -0.214869 -0.134129 0.036429 0.229501 -0.026559 -0.213640 -0.369715 0.131759 -0.148693 0.080068
日 -0.111521 -0.179274 0.136906 -0.039764 -0.389093 -0.418520 -0.125987 -0.242238 0.237904 0.130120
こういう 0.149945 -0.019016 -0.305090 -0.179384 -0.012949 -0.226375 -0.255179 0.122450 0.032653 -0.193229
形 -0.300384 -0.283924 -0.482689 0.202822 -0.073893 -0.152258 -0.081611 -0.344253 -0.072170 -0.170241
えー. 0.014120 0.179175 0.259749 -0.044417 0.036366 0.274361 0.560780 0.091598 -0.417668 -0.431989
必要 -0.346921 -0.600877 -0.716015 0.435397 -0.065484 -0.040861 0.006358 -0.049200 -0.190897 -0.446704
そのー -0.179303 0.187868 -0.008544 -0.285142 0.030964 -0.326257 -0.151075 0.149707 0.053311 0.003290
未知 0.492871 -0.818204 -0.466964 0.379618 -0.204351 0.065226 -0.625628 0.245049 0.163438 0.249415
けど 0.250582 -0.059816 -0.299136 0.216516 -0.311223 -0.460908 0.838348 0.445340 -0.301404 0.503765
それぞれ -0.563894 0.143889 0.099158 0.051965 0.007528 -0.141743 -0.323567 0.143717 -0.201930 -0.183086
各 -0.197120 0.318079 0.243234 -0.065434 -0.079179 -0.138671 -0.271509 0.159469 -0.045552 0.200516
同じ 0.454947 0.013917 -0.107290 -0.111150 -0.241152 -0.201639 -0.436514 -0.090882 0.111310 -0.308971
表現 -0.282125 -0.143072 -0.135513 0.467589 0.097321 -0.165985 0.013039 -0.331987 0.080879 -0.076343
閾値 -0.475907 -0.302448 0.386251 0.310777 -0.026121 -0.227793 -0.564601 0.077133 0.059883 -0.475691
比較 -0.272763 -0.246918 0.207573 0.435440 -0.005824 -0.254458 -0.243601 -0.320958 -0.686667 0.132924
どう 0.528982 -0.493986 -0.656864 0.569767 0.196523 0.063410 -0.141893 -0.081119 -0.100436 -0.128868
講演 -0.348628 0.065588 0.117574 0.188077 -0.319400 -0.285515 -0.493931 -0.027531 0.067098 0.085724
いい 0.455958 -0.430687 -0.277977 -0.321470 -0.317637 -0.370224 0.048688 -0.373110 -0.088239 -0.099097
内容 -0.311952 -0.017880 0.149960 0.338856 -0.004543 -0.339559 -0.364143 0.092077 -0.073471 -0.307735
みる 0.327391 -0.238081 0.297834 -1.028017 -0.222879 0.416506 -0.314535 -0.876685 -1.070964 0.121149
含む -0.092666 0.405607 0.175091 -0.232528 0.028097 0.189816 -0.356109 -0.276495 0.790891 -1.413666
計算 -0.324737 -0.407784 -0.060775 0.405639 0.013137 0.066254 -0.156891 0.063605 -0.535222 0.264016
確率 -0.182624 -0.064914 -0.126635 0.260866 -0.038364 -0.268545 -0.504898 -0.151129 0.088527 -0.098557
訳 -0.053717 -0.411794 -0.582525 0.717471 -0.430613 -0.404553 0.705634 -0.219231 -0.247890 0.106602
による 0.487752 0.601500 0.147756 -0.172437 0.096392 0.237613 -0.371302 0.350502 0.256044 0.570976
間 -0.363769 0.443614 0.076946 0.232239 -0.146286 -0.188842 -0.627092 0.053272 -0.076163 0.065439
出る 0.155954 -0.210343 -0.172404 -0.515840 -0.146739 0.029587 -0.417001 -0.516563 -0.154772 -0.516059
など -0.067010 0.034248 -0.064624 0.263776 0.048707 -0.185690 -0.277980 0.161327 0.059444 -0.158203
す -0.059796 -0.071356 -0.043629 0.110643 0.204015 -0.070004 0.016290 -0.394161 -0.197511 0.364075
そこ -0.550881 -0.405129 -0.131990 -0.260591 -0.139805 -0.197547 -0.321174 -0.115285 -0.487540 -0.206850
作成 -0.301581 -0.594092 -0.042054 0.528825 0.094921 0.342241 -0.018382 0.017955 -0.513169 0.490698
目 -0.242558 0.026469 0.058363 -0.166612 -0.324966 -0.156798 -0.250860 -0.019499 0.004596 0.239436
作る 0.363558 -0.211143 0.351309 -0.447085 -0.266976 0.153447 -0.745373 -0.543661 -0.249447 -0.561946
キーワード -0.541579 0.007165 0.189280 0.258348 -0.027846 -0.047850 -0.560893 -0.056351 0.104133 -0.312580
単位 -0.473441 0.087630 0.137614 0.045659 -0.242401 -0.003438 -0.419923 0.145478 0.156874 0.033047
取る 0.313080 -0.134221 0.576964 -0.253771 -0.315921 0.224795 -0.414272 -0.357814 -0.202089 -0.675207
話者 -0.198517 0.310257 -0.037833 0.040749 -0.161228 -0.025570 -0.383405 -0.041850 0.043516 0.379677
分割 -0.440669 -0.266537 0.049322 0.212816 -0.032803 0.172168 -0.060819 -0.071703 -0.343729 0.333839
可能 0.077982 -0.253999 -0.663727 0.405947 -0.403518 0.315400 -0.142838 0.132863 0.031453 -0.628867
といった 0.845512 0.195544 -0.210223 0.121686 0.020282 0.106309 -0.058032 0.378964 0.045603 -0.077370
全て -0.309310 0.000826 0.011484 0.182854 -0.058116 -0.217730 -0.316896 0.078583 -0.242475 0.087473
コーパス -0.494983 0.319323 -0.182616 0.287624 -0.034043 0.037331 -0.306373 -0.047518 0.111065 -0.065883
じゃ 0.842067 0.314549 -0.464507 -0.469821 0.342641 -0.273850 0.142932 0.132868 0.044753 -0.374309
使用 -0.131040 -0.715353 0.167467 0.382598 0.114212 0.257626 0.001867 -0.000674 -0.570085 0.396382
三つ -0.579585 0.068565 0.046345 0.247446 0.004161 -0.323724 -0.277404 -0.143844 -0.168082 0.077065
良い 0.349830 -0.524148 -0.220628 0.089044 -0.031127 0.050270 -0.174875 -0.061627 0.090894 -0.113861
話し言葉 -0.228495 0.394683 -0.065244 0.179126 -0.081409 -0.228912 -0.579962 -0.051744 -0.076369 -0.166847
持つ 0.469492 -0.229649 0.486792 0.088087 -0.146502 0.167944 -0.677353 -0.360759 -0.018626 -0.717894
日本語 -0.177726 0.274638 0.028404 0.140140 -0.023601 -0.278197 -0.459155 0.119552 -0.138798 0.006916
与える 0.437612 -0.260089 0.410659 -0.127849 0.029476 0.016509 -0.553958 -1.027793 0.081414 -0.615494
たり -0.147681 -0.345509 -0.460092 0.552454 0.376324 -0.198244 0.422777 0.167918 0.019878 0.352158
文章 -0.180199 -0.043928 -0.073656 0.180515 0.142761 -0.140212 -0.371651 -0.130229 -0.020948 -0.099940
えっ -0.127822 0.595514 0.770834 0.009644 -0.025997 -1.237123 -0.087485 -1.062349 -0.313501 -0.609490
私 -0.245931 -0.207197 0.042571 -0.072624 -0.234871 -0.570821 -0.248512 0.016703 -0.255906 -0.334447
分 -0.389298 -0.397733 0.209246 -0.280014 -0.540518 -0.326666 0.031064 -0.075731 0.206162 0.225699
全体 -0.298899 0.068558 0.027093 0.060041 0.016859 -0.208996 -0.617316 0.274160 -0.200755 -0.158266
いただく 0.276599 -0.398729 0.886538 -1.028196 -0.378362 0.270168 -0.004839 -0.762890 -0.731369 0.133057
従来 -0.584311 0.411742 0.143146 -0.351619 0.007761 -0.283160 -0.267041 0.442710 -0.614838 0.176064
スコア -0.293698 -0.089265 0.118329 0.260557 0.036293 0.028784 -0.518159 -0.054808 0.140229 -0.200476
文書 -0.271980 0.196782 -0.190497 0.185944 -0.032424 0.052121 -0.465751 -0.129401 0.103389 0.110033
適応 -0.212396 0.027422 0.022344 0.240917 -0.101479 0.302525 -0.384570 0.084943 -0.074754 0.174901
ＣＳＪ -0.546430 0.088737 0.035608 0.115597 -0.042675 -0.250084 -0.558851 0.151999 -0.453308 -0.141213
検出 -0.252952 -0.170027 -0.015426 0.589787 0.146182 0.079554 -0.448502 -0.196370 -0.105517 0.097710
点 -0.122827 -0.041099 -0.035548 0.144675 -0.197024 -0.220144 -0.007763 -0.305956 0.254276 0.013571
者 -0.208229 0.128472 0.061035 -0.102498 -0.056801 -0.045065 -0.288972 -0.093588 0.244382 -0.237505
処理 -0.445764 0.172753 -0.240685 0.241729 0.010477 0.087371 -0.370171 0.013617 0.150804 -0.099507
設定 -0.274493 -0.642803 -0.002301 0.429257 0.108212 0.138322 -0.137257 -0.084765 -0.498053 0.224308
ベクトル -0.352902 0.262107 0.052247 0.155898 0.072825 0.004396 -0.372941 -0.152960 0.080603 -0.053886
量 -0.003584 0.371755 0.099761 0.043136 -0.259757 0.255006 -0.456124 0.214700 -0.043672 -0.089523
ベース -0.354536 -0.020523 0.141518 0.085773 -0.047990 0.110029 -0.643799 0.563520 -0.503725 -0.157417
千 -0.308189 -0.326402 0.466053 0.116056 -0.433588 -0.295223 0.274077 -0.073768 0.598034 0.647750
年 -0.356867 -0.275615 0.229285 -0.144284 -0.488219 -0.209238 -0.088711 -0.312801 0.383416 0.497640
第 -0.224271 -0.221475 0.290923 -0.185442 -0.467570 -0.353716 -0.001293 -0.207616 0.151874 0.389705
分析 -0.185432 -0.172830 -0.059117 0.475988 0.146509 -0.070529 -0.363453 -0.290055 -0.415945 0.121539
一番 -0.061262 0.012944 -0.210427 -0.194756 0.079751 -0.219909 -0.108458 0.225664 0.055108 -0.147210
抽出 -0.091395 -0.380727 0.137910 0.454789 0.066825 0.402423 -0.255405 -0.000710 -0.029514 0.286919
生成 -0.305368 -0.260830 0.109458 0.201934 0.038206 0.095053 -0.277656 -0.021177 -0.342134 0.366898
多い 0.382630 -0.504347 -0.391424 -0.251775 -0.078282 0.067244 -0.340774 -0.200063 0.102120 -0.260191
そこで -0.303999 0.201542 0.082555 -0.269129 0.094986 -0.266237 0.231080 0.133308 -0.138975 -0.091928
ドキュメント -0.088644 0.351086 0.451175 0.514479 -0.339231 -0.339715 -0.316992 -0.185673 -0.198823 0.537308
式 -0.663006 -0.119102 -0.085546 0.275716 0.130716 -0.276015 -0.169506 -0.094860 -0.475655 -0.211219
変化 -0.425461 -0.369138 -0.051078 0.475240 -0.142160 -0.024072 -0.154157 0.007210 -0.531821 -0.033459
大きい -0.108441 -0.505377 -0.267044 0.058415 0.120058 0.055459 -0.188863 0.045846 0.063180 -0.087923
でも 0.168891 0.077365 -0.190201 -0.274453 0.209253 0.017881 -0.018964 0.176963 0.328705 0.088306
最初 -0.792239 0.330894 -0.139324 0.080562 -0.114474 -0.335543 -0.106974 -0.043881 -0.621750 -0.242792
他 -0.489177 0.317704 -0.363096 0.077295 -0.108027 -0.376380 -0.421645 0.054445 -0.352551 -0.226566
としまして -0.019123 0.173156 0.075930 -0.122152 -0.148348 -0.135581 -0.237796 0.670595 0.181371 0.069671
次 -0.547853 -0.076437 0.012617 -0.086709 -0.310114 -0.409122 -0.497949 0.189224 -0.349760 -0.017652
求める 0.189959 -0.140064 0.457368 -0.242519 -0.299633 0.100657 -0.496391 -0.591683 0.021550 -0.657913
っと -0.122951 0.300409 0.622714 0.148095 0.099189 -0.927490 0.330735 -0.066621 -0.615308 0.106067
境界 -0.218185 0.072620 -0.002117 0.250020 -0.131793 -0.122701 -0.297925 -0.135328 0.004205 0.182743
声 -0.312595 0.011806 -0.167193 0.210141 -0.172192 -0.138009 -0.352656 -0.044089 0.087001 -0.271064
へ 0.060649 0.314475 0.131494 0.042991 -0.100733 -0.042783 -0.230975 0.164767 -0.053066 0.185724
列 -0.323325 0.098276 0.058050 0.302458 -0.039152 -0.112110 -0.442078 0.049136 0.494122 0.132981
別 -0.480717 0.264041 0.016625 0.196362 -0.235412 -0.253282 -0.092570 -0.018151 -0.138331 -0.124925
大体 -0.293780 -0.269079 -0.190016 -0.345447 -0.140399 -0.379494 -0.071406 0.103501 0.146877 0.147299
語彙 -0.305738 0.344632 -0.033548 -0.016190 -0.180930 -0.119062 -0.522677 0.030726 0.067221 -0.053631
程度 -0.254354 -0.209654 -0.176480 0.085252 -0.197485 -0.178388 -0.020755 -0.234859 0.243530 -0.127683
対応 -0.451319 -0.248595 -0.426447 0.485961 0.021550 -0.013816 0.182588 -0.211237 -0.617206 0.258250
我々 -0.541116 -0.285928 0.153357 -0.193635 -0.003440 -0.328909 -0.358524 0.356853 -0.434450 -0.089963
違う 0.224339 -0.250479 0.032951 -0.473128 -0.385424 -0.041849 -0.356488 -0.287261 -0.005772 -0.366882
入力 -0.308845 -0.017929 0.202103 0.339195 0.221805 -0.258992 -0.195432 -0.211634 -0.370141 0.004840
更に -0.246441 0.212187 0.221647 -0.170629 0.083749 -0.109777 -0.107200 -0.078288 -0.133589 0.231063
検討 -0.107824 0.007044 0.286764 0.620753 0.138971 0.078630 -0.296628 -0.128765 -0.464725 -0.054557
において -0.028585 0.365900 0.097362 0.082699 0.111463 0.005234 -0.111205 0.272627 0.516609 0.158257
どの 0.270252 -0.178434 -0.284618 -0.125352 -0.423739 -0.017922 -0.518490 0.104696 0.374120 -0.152629
向上 -0.249367 -0.561714 -0.268042 0.801577 -0.122439 0.254298 0.007216 0.043333 -0.588954 0.246119
低い 0.199231 -0.537414 -0.255398 -0.125106 -0.095528 0.050558 -0.479312 0.027419 0.072775 -0.119896
軸 -0.568981 -0.278058 -0.153794 -0.127565 -0.260074 0.104056 -0.006714 0.371752 0.013935 0.051207
下 -0.506832 0.071212 -0.235074 0.224220 -0.100504 -0.353948 -0.584539 0.137236 -0.277607 -0.086060
タスク -0.394443 0.081899 -0.003551 0.294574 -0.114485 0.067092 -0.422215 0.136269 -0.264396 -0.257768
トピック -0.098068 0.221782 0.054039 0.290586 -0.146450 -0.154050 -0.543705 0.031118 0.051180 -0.074838
話題 -0.329272 0.185004 -0.048102 0.205239 -0.143297 0.005941 -0.535200 0.003076 -0.215451 -0.276340
適用 -0.202592 -0.291512 -0.065414 0.484825 -0.104376 0.232178 -0.016210 -0.048699 -0.470132 0.160259
関係 -0.127066 0.056793 -0.171621 0.396925 -0.014396 -0.394267 -0.390933 -0.046912 -0.320304 -0.391898
テスト -0.533252 0.049705 0.038410 0.079721 -0.171265 0.062004 -0.338004 0.185521 0.261513 0.206760
構成 -0.468922 -0.388143 -0.119835 0.350797 0.194403 -0.124824 -0.090202 0.028434 -0.202866 0.137690
個 -0.231570 -0.387888 0.223247 -0.090859 -0.388675 -0.133767 -0.014323 -0.158033 0.246038 0.319355
フレーム -0.197439 0.118787 0.152529 0.187082 -0.274915 -0.041345 -0.460101 -0.176295 0.177437 0.084047
話 -0.405306 -0.165928 -0.437020 0.318700 -0.102043 -0.303463 -0.134281 -0.386576 -0.201919 -0.314501
セット -0.237872 0.071834 0.258412 0.008170 -0.163219 -0.420792 -0.352570 -0.014391 0.046883 0.167467
基づく -0.319176 0.413000 0.003427 -0.425719 -0.620433 0.532595 -0.433607 -0.829585 -0.659839 0.070318
適合 -0.076936 0.049416 -0.039227 0.388748 -0.437944 0.237162 -0.226745 0.006639 -0.329607 0.564671
英語 -0.329503 0.238876 -0.036538 0.012670 -0.206661 -0.295396 -0.331407 -0.225332 -0.233778 -0.165843
元 -0.635582 0.119665 0.122231 0.401173 -0.238513 -0.105325 -0.568468 -0.091272 -0.396780 -0.355383
言える 0.174261 0.141730 0.056409 -0.343719 -0.538832 -0.090195 -0.004971 -0.434523 -0.352767 -1.078289
気 -0.540459 -0.783026 -0.416989 0.240555 -0.168119 0.026708 -0.189279 -0.166483 -0.348087 -0.454847
これら -0.484245 -0.017956 0.236288 0.176235 -0.159181 -0.176501 -0.409230 0.123971 -0.459495 -0.338140
連続 -0.310307 0.524170 0.182447 0.116218 0.214717 -0.233171 -0.076773 -0.088267 0.283115 0.292659
最後 -0.946294 0.262725 -0.050041 -0.004099 -0.209816 -0.001985 -0.193095 -0.245357 -0.621172 -0.280068
体 -0.322566 -0.067194 -0.153746 0.375468 -0.148263 -0.213247 -0.235680 0.114435 -0.052626 -0.393804
自動 -0.132355 0.077905 0.207747 0.327966 0.016611 -0.041214 -0.232190 -0.019620 0.074602 -0.142994
際 -1.005096 0.295189 -0.114071 0.439047 -0.169318 -0.047742 -0.054340 0.008983 -0.705968 -0.207891
行く 0.350068 -0.073796 0.130224 -0.528416 -0.135275 0.003520 -0.602647 -0.751705 -0.287232 0.002708
最も 0.028299 -0.021469 -0.236227 0.054041 -0.149022 0.022277 -0.207030 -0.021501 -0.132696 0.044211
種類 -0.532886 -0.103620 0.398385 0.128511 -0.352037 -0.373334 -0.286380 0.037207 -0.040890 0.287667
に関して -0.036767 -0.142545 -0.035573 0.023178 -0.172424 -0.247325 -0.138107 0.351326 0.247325 0.128502
目的 -0.388313 -0.082656 0.114978 0.092149 -0.063044 -0.578298 -0.277176 -0.110381 -0.234518 -0.366392
収録 -0.273677 -0.485178 -0.083769 0.255514 0.173505 -0.232397 -0.297973 -0.245930 -0.647161 0.362542
翻訳 -0.170807 0.152799 -0.220211 -0.051481 0.125517 0.011939 -0.148413 -0.144325 -0.382808 0.496120
える -0.200998 0.427485 0.446122 0.134008 0.010037 -1.027924 -0.434579 -0.839542 -0.081974 -0.674032
条件 -0.350339 -0.024366 0.011030 0.066774 0.072855 -0.453018 -0.270136 0.032584 -0.044514 -0.135747
関連 -0.322762 -0.303388 -0.358010 0.436188 0.080834 0.131237 -0.209019 0.004274 -0.152462 0.207408
× -0.051665 0.008164 0.057324 -0.034204 -0.300492 -0.519667 -0.103948 -0.128570 -0.084163 -0.036268
比べる 0.023267 0.195027 0.471625 -0.791540 -0.421177 -0.143940 -0.665008 -1.019368 -0.801740 -0.390630
区間 -0.456551 0.051883 0.090225 0.458932 -0.027744 -0.175516 -0.630638 0.031518 0.132684 -0.132213
ライン -0.200615 0.464662 0.216023 -0.284000 -0.123720 -0.408137 -0.160296 -0.166536 0.398223 0.092749
により 0.328528 0.548691 0.147192 -0.282866 0.239863 0.238326 0.010368 0.362530 0.076872 0.477186
名 -0.263131 -0.259280 0.280314 0.141663 -0.789123 -0.222877 -0.088920 -0.210761 0.077686 0.409416
状態 -0.306710 -0.052637 -0.281385 0.338905 -0.184447 -0.477121 -0.401148 -0.368032 0.177233 0.227805
影響 -0.299201 0.249790 -0.269679 0.661603 0.014581 -0.142833 -0.277708 -0.056598 -0.153673 -0.404171
複数 -0.340930 0.410163 0.083139 0.051272 0.154839 -0.316596 -0.658492 0.130875 -0.348744 -0.011028
回 -0.178273 -0.346375 0.184616 -0.199298 -0.463908 -0.239100 0.096754 -0.242921 0.197134 0.370603
水 -0.351815 -0.227697 -0.071124 0.229457 -0.005006 -0.232838 -0.359688 -0.059826 0.126583 -0.338435
特に -0.154636 -0.009984 -0.047547 -0.294233 0.082622 -0.208937 -0.022303 0.137594 0.019266 -0.011768
に対する 0.234222 0.646977 -0.120664 -0.024917 -0.045100 0.165472 -0.111371 0.157882 0.364864 0.511312
有効 -0.406412 0.261173 -0.711432 0.485002 -0.317174 0.083991 -0.254021 -0.164055 -0.223852 -0.507535
Ａ -0.215512 0.203590 -0.039816 0.030511 -0.096028 -0.064689 -0.094690 -0.064475 0.137282 -0.254046
挿入 -0.252019 -0.124915 -0.209847 0.289513 0.236431 -0.233940 -0.008299 -0.218718 0.105234 0.167823
つまり 0.045473 0.206208 0.015852 -0.039037 0.105287 -0.068993 0.080206 0.180693 0.019118 -0.001073
ページ -0.513152 -0.242908 0.152515 0.189137 -0.102262 -0.136551 -0.265363 -0.090534 0.220749 0.169011
入る 0.120472 -0.318828 -0.155149 -0.536978 -0.129119 0.205290 -0.286846 -0.451483 -0.354453 -0.595202
状況 -0.480943 -0.320671 -0.365646 0.281863 -0.067601 -0.346834 -0.232542 -0.364429 0.035857 -0.263585
ごと -0.722478 0.531444 -0.065515 0.131321 -0.462741 0.357345 -0.143082 -0.079805 -0.035578 -0.245455
分布 -0.291853 0.150674 -0.078383 0.277004 0.158463 -0.027045 -0.482893 -0.149866 -0.060281 0.040724
構築 -0.257205 -0.432631 -0.004649 0.507577 0.380862 0.067396 -0.212686 0.150647 -0.459997 0.337641
それで -0.083730 0.126031 -0.033902 -0.349583 0.336698 -0.344515 -0.036039 0.103251 0.004819 -0.105815
テーマ -0.072776 -0.000644 -0.077177 -0.023879 -0.072793 -0.004700 -0.066871 -0.043542 -0.041619 -0.154325
効果 -0.291817 -0.271111 -0.257938 0.270829 -0.031689 -0.066520 -0.564093 0.084619 -0.129248 -0.412202
のみ -0.127360 0.144765 0.047452 0.312419 -0.108504 0.164171 -0.375921 0.084634 0.237569 0.055088
選択 -0.468792 -0.516558 0.126157 0.396955 -0.091639 0.157397 0.061148 -0.167388 -0.389167 0.379124
構造 -0.217130 0.187062 0.115059 0.287772 -0.119158 -0.007817 -0.386526 -0.144859 0.102665 -0.025571
変換 -0.423414 -0.376671 -0.281311 0.313930 -0.067751 0.327296 0.063196 -0.127552 -0.403749 0.371091
索引 0.026799 -0.006288 -0.165817 0.263419 -0.039102 -0.041047 -0.406022 -0.299232 -0.119737 0.011188
あまり 0.109121 0.028168 -0.176252 0.018708 -0.191055 -0.176667 0.038286 0.024067 0.115666 -0.088687
色々 0.004110 -0.090518 -0.387081 -0.161939 0.092439 -0.149989 0.015910 0.025566 -0.145493 -0.300041
表わす 0.021808 -0.066746 0.458262 -0.040302 -0.049789 0.221503 -0.552041 -0.422186 -0.007796 -0.755636
結構 -0.075475 -0.173418 -0.210303 0.232925 -0.052352 -0.228995 0.080177 -0.042343 0.183843 -0.138640
提示 -0.127399 -0.334068 0.043676 0.336292 0.090183 0.150299 0.004380 0.000813 -0.306153 0.257549
家 -0.467602 0.024559 -0.113344 0.213162 -0.099073 -0.288792 -0.314004 0.045605 -0.087129 -0.276625
拡張 -0.162651 0.183170 -0.037398 0.318692 0.202079 -0.012540 -0.381985 -0.361976 -0.275501 0.092638
尺度 -0.339269 0.077492 0.123393 0.135297 0.041838 0.005766 -0.199977 -0.014328 -0.019074 -0.112225
解析 -0.124451 0.087031 -0.054414 0.303920 -0.098401 0.013242 -0.202528 0.074808 -0.273799 -0.213453
四つ -0.298950 -0.084896 -0.052656 0.003115 0.017335 -0.030734 -0.205120 0.129903 -0.028313 -0.091554
確認 0.174144 -0.500407 0.056375 0.407198 -0.033299 0.170900 0.174375 -0.025094 -0.398102 -0.422186
万 -0.069030 -0.349864 0.254189 -0.064851 -0.406882 -0.232824 0.080052 -0.174155 0.528275 0.431600
おく 0.289786 -0.364949 0.252183 -0.812904 -0.336094 0.442102 -0.273243 -0.846509 -1.062089 0.325715
一般 0.192409 -0.082789 -0.320138 0.120120 0.013222 -0.390177 -0.306742 0.525167 -0.451314 -0.069120
調べる 0.390290 0.056600 0.450331 -0.261240 -0.312165 0.242236 -0.456547 -0.480332 -0.239126 -0.778230
検査 -0.024307 -0.146687 -0.182155 0.186032 -0.096579 0.003446 -0.354723 -0.188972 0.014000 -0.042469
質問 -0.532387 0.088128 0.223771 0.157336 -0.059485 -0.156246 -0.404930 -0.104520 0.028021 -0.186544
決定 -0.373790 -0.401378 0.175841 0.426541 0.052527 0.107870 -0.072597 -0.026196 -0.344065 0.314715
簡単 -0.653767 0.237111 -0.246023 0.030338 -0.422201 0.056353 -0.141998 -0.261975 -0.640487 -0.452883
課題 -0.564025 0.228649 -0.139345 0.196411 -0.217627 -0.423881 -0.415655 -0.156211 -0.358844 -0.238986
約 -0.081854 -0.066469 0.326774 -0.314631 -0.363196 0.001807 0.082673 -0.028364 0.326408 0.304439
終わる 0.033117 -0.045058 0.324691 -0.546222 -0.252018 0.091324 0.024059 -0.251176 -0.050577 -0.439519
背景 -0.092803 0.183787 0.192629 -0.272192 -0.181856 -0.368004 0.020965 0.102866 -0.559879 0.028372
インデックス -0.416591 -0.130235 0.003518 0.291744 -0.204241 -0.062563 -0.434615 -0.087302 -0.087579 -0.362216
調査 -0.172059 -0.154499 0.010364 0.480406 0.038506 0.021258 -0.122762 -0.164895 -0.644557 0.004411
父 -0.365875 -0.232260 -0.236637 -0.006445 -0.179010 -0.292509 -0.321444 0.092271 -0.205172 -0.382445
グラフ -0.510296 -0.238532 -0.030402 0.030407 0.186485 -0.366378 -0.379030 -0.010275 -0.234940 -0.278556
ただ -0.102104 0.189631 0.006314 -0.110759 -0.051550 -0.145409 0.057379 0.204438 -0.032493 -0.013007
聞く 0.200604 -0.288521 0.374183 -0.345582 -0.086471 -0.133077 -0.596528 -0.461068 -0.044292 -0.134711
はい -0.106645 0.149244 0.073029 -0.461988 0.036342 -0.106495 0.175760 0.059557 0.065112 0.140712
素性 -0.441943 -0.030614 -0.112540 0.324635 0.007137 -0.302267 -0.391953 -0.196887 -0.140541 -0.085252
グラム 0.061734 0.294649 0.243050 0.165452 -0.293274 -0.084649 -0.425790 -0.046648 0.116707 0.259649
付け -0.417216 0.028576 0.106945 0.432371 0.031671 0.293033 -0.039512 -0.155982 0.037409 0.181275
パラメーター -0.181609 -0.176596 0.015427 0.279082 -0.068351 -0.029772 -0.482493 0.011175 -0.042931 0.068013
講義 -0.094742 0.233379 0.082184 0.178912 -0.242404 -0.419911 -0.448937 -0.233862 -0.198979 0.348892
空間 -0.221755 0.128025 -0.120789 0.079842 0.254644 0.071277 -0.328756 -0.096123 -0.044939 0.110075
型 -0.035389 0.142062 0.179974 -0.091451 -0.348749 -0.192715 -0.225374 -0.100588 0.101820 0.217998
今後 -0.389651 0.279660 -0.316008 0.112594 -0.056790 -0.565486 -0.238814 0.122433 -0.346292 -0.342397
考慮 -0.076312 -0.728770 0.086493 0.616957 0.303423 0.035296 -0.367904 -0.014149 -0.456037 0.399662
出す 0.227252 -0.219629 0.230720 -0.311761 -0.187005 0.086617 -0.427157 -0.595448 -0.094603 -0.375484
名詞 -0.202963 -0.166395 -0.024570 0.111913 -0.102481 -0.101869 -0.448426 -0.047785 0.021842 -0.100572
御 0.075101 0.218292 0.004899 0.004201 0.303343 -0.061682 0.078181 0.010136 0.210572 -0.018268
クラス -0.443529 -0.255549 -0.096072 0.080872 -0.031437 -0.250036 -0.382751 -0.207821 -0.351021 0.057110
差 -0.246030 -0.333697 -0.231441 0.259731 -0.171985 -0.145823 -0.419284 0.170416 0.039588 -0.379193
図 -0.498456 -0.034799 -0.161265 0.291662 0.225120 -0.582433 -0.313586 0.034486 -0.179887 -0.185250
長い -0.122126 -0.155305 0.075898 -0.095187 -0.043359 0.186754 -0.218848 0.306505 0.024458 0.146063
クエリー -0.449973 -0.050602 0.015709 0.133487 -0.204884 -0.073317 -0.386681 -0.124275 -0.155246 -0.061230
ー. -0.022704 0.014876 -0.453756 -1.198221 0.722149 -0.213987 0.256212 0.124164 0.121462 -0.511810
最大 -0.186572 -0.186316 0.050581 0.243438 0.104319 -0.053005 -0.441390 0.094135 0.000231 0.097004
しかし -0.345927 0.207673 0.216490 -0.103064 0.180694 -0.065088 0.066016 0.303371 -0.142394 0.102877
表 -0.379868 -0.283195 -0.045977 0.325232 -0.193850 -0.280238 -0.034853 -0.057287 -0.088045 -0.308807
ユーザー -0.520752 -0.022884 -0.183541 0.050473 -0.007590 -0.094766 -0.501458 0.044469 -0.153346 -0.182734
類似 -0.288937 -0.037945 -0.152212 0.347126 -0.039931 0.205420 -0.436782 0.029706 -0.142681 0.372270
Ｎ -0.333511 0.540157 -0.161232 0.261444 -0.031763 -0.015928 -0.235862 0.046660 0.091792 0.226621
知る 0.427621 0.083406 0.373690 -0.373332 -0.135684 0.172913 -0.282586 -0.372923 -0.031197 -0.618898
学生 -0.263696 -0.128371 -0.185206 -0.058107 -0.038735 -0.306460 -0.336587 0.004611 -0.324131 -0.295077
傾向 -0.270790 -0.645147 -0.210379 0.126554 0.022943 -0.025072 -0.121375 -0.060151 0.102243 -0.357034
面 -0.300145 -0.078147 0.081668 0.156701 -0.130443 -0.381941 -0.286687 -0.233319 -0.126071 -0.185703
における 0.166078 0.482672 0.072039 -0.129862 0.183031 0.176175 -0.139105 0.295667 0.471582 0.419229
出現 -0.300543 0.002502 -0.407496 0.420358 0.123257 0.214825 -0.242505 0.137759 -0.218651 0.134590
基本 -0.197709 -0.166142 -0.331509 -0.030399 0.002446 -0.302599 -0.273056 0.560419 -0.147915 -0.166806
形態素 -0.375277 0.208067 -0.047466 0.337378 0.026784 -0.272215 -0.254364 -0.240604 0.210771 -0.090860
用 -0.346536 0.499819 0.029807 0.108881 0.092586 0.006878 -0.401840 0.299222 0.056018 -0.067170
再現 -0.010003 -0.161032 0.284460 0.256452 -0.449875 0.101394 -0.174426 -0.110556 -0.294172 0.418993
入れる 0.110863 -0.125592 0.238334 -0.159168 -0.320391 0.261745 -0.419061 -0.503471 -0.113868 -0.493246
存在 -0.351101 -0.762658 -0.578485 0.392222 -0.003684 0.136044 0.177703 0.274841 -0.836867 0.286129
易い 0.126377 -0.107781 -0.376430 0.303290 0.189791 0.172783 0.273068 -0.042162 0.440379 0.274805
自分 -0.282269 -0.211273 -0.138906 0.154292 -0.017048 -0.314044 -0.226640 0.169443 -0.158155 -0.361870
大学 -0.371560 -0.002231 -0.068180 -0.137302 -0.161444 -0.426267 -0.260090 -0.081340 -0.160342 0.090901
自然 -0.382756 0.120243 -0.382348 0.280826 -0.281178 -0.004084 -0.349485 -0.088343 0.109780 -0.366799
どういう 0.348792 0.229696 -0.108063 -0.278392 0.159510 -0.170601 -0.303029 0.266555 -0.243311 -0.230040
て. -0.103621 -0.168413 -0.080626 0.541446 0.359223 0.199165 0.589855 0.239736 0.031163 0.219892
です. 0.374688 0.223448 -0.028418 -0.122750 0.038203 0.029176 0.050198 -0.038867 0.251936 0.115012
あるいは -0.027276 0.069044 -0.232254 0.078758 -0.187205 -0.226271 0.092718 -0.113579 0.150073 0.256758
同様 -0.844445 0.240022 -0.170351 -0.018262 -0.401034 -0.124926 0.028032 -0.403143 -0.398319 -0.605845
分類 -0.119116 -0.299627 -0.013620 0.292870 -0.106391 0.096421 -0.007121 0.007457 -0.216169 0.296108
小さい 0.302816 -0.416920 -0.211373 -0.201263 -0.089375 -0.208127 -0.182259 -0.138802 0.209033 -0.018092
頭 -0.321221 -0.121518 -0.040661 0.350386 -0.101045 -0.197975 -0.193966 -0.141488 -0.098133 -0.270257
変わる 0.363066 0.015355 -0.084317 -0.389025 -0.266625 0.055842 -0.087799 -0.281935 -0.041131 -0.382243
文字 -0.448087 -0.074119 -0.020835 0.253787 -0.075614 -0.052823 -0.195035 -0.033664 0.063933 0.036555
フィラー -0.419892 -0.313127 -0.030303 0.186559 -0.175629 -0.031917 -0.332092 0.013562 -0.093981 -0.198690
マッチング -0.165550 0.070553 -0.149685 0.445479 0.143600 -0.190985 -0.357501 -0.168682 -0.048401 0.060658
よく 0.122298 -0.009206 -0.244629 0.088582 0.306463 -0.213535 0.297710 -0.039417 0.333932 0.042168
現われる -0.085750 0.102279 -0.325855 -0.328621 -0.321532 0.188538 -0.371853 -0.476880 -0.024858 -0.594260
感じ -0.258596 -0.356352 -0.442068 0.176920 -0.128169 -0.275137 0.009632 -0.247126 -0.207219 -0.190405
識別 -0.324011 -0.112455 -0.074023 0.260156 -0.121965 -0.169403 -0.237205 -0.239704 -0.163524 -0.002702
系列 -0.336571 -0.038168 0.182197 0.191025 -0.148259 -0.233410 -0.295403 -0.077860 0.173564 -0.008723
付く 0.192302 -0.376117 -0.130620 -0.630951 -0.095714 -0.101022 -0.405883 -0.538012 -0.312879 -0.496429
よ 0.151843 0.134237 -0.228552 0.031328 0.018541 -0.159311 0.242811 -0.029045 -0.196813 -0.154214
長 -0.008214 0.154508 0.046012 0.129429 -0.171254 0.064083 -0.461031 -0.006598 0.172366 -0.004519
分の -0.168781 -0.277971 0.244527 -0.185574 -0.623786 0.150452 -0.046357 -0.119789 0.116010 0.763185
挙げる 0.225280 -0.047390 0.143726 -0.534580 -0.247082 0.127565 0.112144 -0.626203 -0.034699 -0.729268
文節 -0.366051 -0.090365 0.008042 0.211385 -0.352827 -0.183814 -0.328954 -0.023879 0.027403 -0.186256
その後 -0.354194 0.265606 -0.004075 -0.066281 -0.233065 -0.155183 0.042460 -0.116899 -0.157135 -0.155946
Ｂ -0.098698 0.022570 -0.026716 0.104848 -0.260250 -0.303592 -0.121954 -0.073695 0.238172 0.012211
被験者 -0.561979 -0.195937 -0.019002 0.015541 -0.258212 -0.249755 -0.447396 -0.009026 -0.074709 -0.071452
番 -0.416074 -0.266085 0.211063 -0.070312 -0.376601 -0.448154 -0.070313 -0.208547 0.075125 0.323150
記事 -0.320366 0.039834 -0.070546 0.259070 -0.093634 -0.215431 -0.339933 -0.068391 0.144574 -0.051647
まして 0.152197 -0.478652 -0.170011 -0.318208 0.366945 -0.020652 -0.132649 -0.295825 -0.263453 0.505852
ニュース -0.190201 0.182009 -0.162454 0.000056 0.067838 -0.155472 -0.368848 0.052344 0.047741 -0.073342
対話 -0.104937 0.177608 0.102740 0.213209 -0.082358 -0.337973 -0.273171 -0.154646 -0.054417 0.063481
一応 -0.100788 -0.057081 -0.173534 -0.037347 0.128820 -0.034697 -0.044118 0.075921 -0.080601 0.015891
正規 -0.112806 -0.083340 0.533330 0.094961 -0.138893 0.457334 -0.314128 -0.123436 0.154018 0.137359
大 -0.115774 0.002298 0.076441 0.066866 -0.210410 -0.077437 -0.086493 0.131776 0.054723 0.035441
それから -0.317231 0.053677 -0.181266 -0.206267 0.058208 -0.099553 0.089242 -0.009214 0.079600 0.090257
頻度 -0.065406 0.255179 -0.190782 0.131013 -0.228046 -0.038215 -0.416491 -0.061486 0.014550 -0.049330
かなり -0.094705 0.066844 -0.212457 -0.015577 0.050847 -0.225896 -0.282684 0.067312 0.043175 0.014170
用意 -0.214571 -0.905678 0.182818 0.374804 0.062070 0.226091 0.059900 -0.186046 -0.597164 0.010383
木 -0.200512 0.162378 0.066698 0.132705 -0.074638 -0.226650 -0.192595 -0.093227 -0.038979 -0.108474
重み -0.325813 -0.098067 0.003853 0.034448 0.091088 -0.141999 -0.417721 -0.061332 0.103077 -0.400566
程 0.095358 -0.052678 -0.162773 0.038488 0.137513 -0.002563 -0.015757 0.162945 0.292728 0.189861
低下 -0.221776 -0.492745 -0.353544 0.525275 -0.010688 0.317536 0.095387 0.051096 -0.484845 0.212834
横 -0.078845 -0.226802 0.130465 -0.396882 0.080227 -0.400682 -0.132781 0.136445 0.053515 0.124315
では 0.033382 0.335283 0.149454 -0.034273 0.076530 -0.060045 -0.217053 0.107006 0.001008 0.225981
町 -0.393562 -0.122810 -0.278610 0.226950 -0.032903 -0.272655 -0.426653 0.031669 -0.281026 -0.167503
少ない 0.158719 -0.369680 -0.208503 -0.201241 -0.174009 0.092396 -0.414246 -0.109561 0.145572 -0.234773
クラスタリング -0.214753 -0.310766 -0.059074 0.163144 0.227927 0.043901 -0.172500 -0.184333 -0.083045 0.122520
判定 0.068959 -0.319560 -0.104846 0.498777 -0.029097 0.045840 -0.198841 -0.103850 -0.374686 0.120794
加える 0.118277 0.160979 0.401188 -0.303531 -0.332006 0.407697 -0.505681 -0.389135 -0.488162 -0.500094
難しい 0.102288 -0.238529 -0.373200 -0.113587 -0.107897 -0.012876 -0.233850 -0.024127 0.076109 -0.477231
一方 -0.247266 -0.007900 -0.119355 -0.032628 -0.056505 -0.117586 0.059483 -0.028277 -0.158892 -0.165681
子音 -0.296396 0.016626 -0.135171 0.269925 -0.128775 -0.245597 -0.426491 -0.089868 -0.098830 -0.220032
付ける 0.085772 -0.327658 0.184573 -0.303935 -0.096555 0.209902 -0.442873 -0.514888 0.036988 -0.571137
歳 -0.277770 -0.220461 0.122695 0.107394 -0.195773 -0.273118 -0.063883 -0.140921 0.152555 0.121185
定義 -0.290522 -0.283718 0.034152 0.263536 0.265225 -0.045621 0.019247 -0.126389 -0.248963 0.014368
要求 -0.261405 0.176197 0.216500 0.089779 -0.048537 0.157535 -0.180506 0.210695 -0.190146 -0.335382
具体 0.010749 -0.129942 -0.015219 -0.032887 0.237623 -0.098611 -0.346725 0.441039 -0.116181 -0.345300
まとめる -0.082297 0.108219 0.339375 -0.360159 -0.474188 0.004399 0.051389 -0.395422 -0.447618 -0.514223
行う 0.388522 -0.185083 0.277145 -0.436625 0.022885 0.116669 -0.708163 -0.604041 -0.030547 -0.192312
先生 -0.462239 0.032354 -0.259829 -0.037226 -0.228515 -0.233172 -0.307203 -0.057156 -0.068328 -0.359078
色んな 0.141639 -0.180933 -0.351783 -0.140236 0.084233 -0.169557 -0.071680 0.073817 -0.012238 0.021384
やはり 0.010180 0.101182 -0.035593 -0.072527 -0.052777 -0.131130 -0.128412 0.053790 0.027951 -0.176642
コンテンツ -0.355098 -0.033121 -0.201356 0.120680 -0.039707 -0.033241 -0.412300 -0.106428 -0.040668 -0.129286
記録 -0.141628 -0.361198 -0.030855 0.365676 0.093316 -0.115138 -0.135674 -0.066886 -0.243203 0.193756
ござる -0.068769 0.141257 -0.041718 -0.547610 -0.770694 0.179487 0.355398 -0.143323 -0.194068 -0.469112
要約 -0.107265 -0.014633 0.265675 0.157110 -0.095484 -0.002271 -0.330909 -0.043713 -0.128701 0.095458
現在 -0.347359 0.023808 -0.017622 0.027775 -0.024117 -0.249397 -0.018825 0.190829 -0.209186 0.062619
殆ど 0.098005 -0.024368 -0.249683 -0.037504 -0.278503 -0.088373 -0.081209 0.082746 -0.027840 -0.176557
最終 0.017554 -0.037385 -0.224945 -0.041548 0.252159 -0.124851 -0.367684 0.241018 -0.337929 0.004563
ポーズ -0.437014 -0.000073 0.024331 0.058623 -0.009098 -0.245787 -0.330405 0.003202 -0.148834 -0.131744
ぬ -0.560427 0.209473 -0.213073 0.345942 -0.056223 -0.114964 0.294684 -0.041048 -0.180577 -0.008235
統計 0.211828 0.141312 0.007619 -0.017865 0.197620 0.005685 -0.388092 0.305120 -0.140289 -0.022179
日本 -0.257810 -0.042399 -0.046300 0.030744 -0.112007 -0.265067 -0.082939 -0.098890 -0.144690 -0.181046
セグメント -0.253571 -0.136184 0.053993 0.223338 -0.257721 -0.224899 -0.429365 0.010845 0.068483 -0.230507
ネットワーク -0.221442 0.060431 0.014498 0.241438 0.034008 -0.112963 -0.085140 0.017509 0.065569 -0.119042
出力 -0.472048 -0.037554 -0.063798 0.400666 0.029757 0.055094 -0.071456 -0.209192 -0.274266 0.026811
うまい 0.147720 -0.019089 -0.218213 -0.043932 0.093318 0.013655 0.038994 -0.158235 0.109207 -0.185565
一致 -0.116934 -0.368722 -0.414179 0.401962 0.098764 0.047691 -0.008729 -0.101243 -0.380366 0.295114
脱落 -0.154498 0.048573 0.018860 0.065309 -0.035058 -0.019911 -0.144002 -0.020208 -0.013764 0.174621
集合 -0.122544 0.181242 -0.045683 0.248794 -0.037658 -0.086377 -0.180640 -0.173651 0.130264 -0.067098
通り -0.101535 0.177789 0.063119 0.276527 0.031521 -0.272964 -0.003437 -0.032125 -0.115169 0.212816
そういった 0.360460 -0.112108 -0.242569 -0.441829 0.002020 -0.007924 -0.110940 0.030063 -0.057535 -0.045667
それでは -0.131392 0.460776 0.092488 -0.201448 0.260671 -0.234697 -0.045332 -0.014717 0.124565 0.269787
報告 -0.377825 -0.141932 0.007903 0.401836 0.088230 -0.268693 -0.009259 -0.270689 -0.584365 0.124539
公園 -0.235230 -0.108779 0.000107 0.086735 -0.105864 -0.248251 -0.283831 -0.128783 0.119747 -0.214018
位置 -0.390708 -0.029045 -0.099470 0.307869 0.025347 -0.139666 -0.410603 -0.200309 -0.038909 -0.232840
トライグラム -0.358836 -0.122727 0.035781 0.244283 0.020764 -0.149542 -0.500498 -0.250020 -0.148544 -0.322891
マイク -0.348512 0.012011 -0.141074 0.000355 -0.119078 -0.276498 -0.287963 -0.066245 -0.130361 -0.127884
でる -0.034961 -0.143179 0.106679 -0.167758 -0.144413 -0.173174 -0.007429 -0.173298 0.163344 -0.040675
ビデオ -0.217582 0.028743 -0.126986 -0.064957 -0.055383 -0.208702 -0.084855 -0.155928 -0.099450 -0.052489
多分 -0.078207 -0.296937 -0.158846 0.032259 -0.012685 -0.137635 0.044092 0.048375 -0.049600 -0.142189
実現 -0.235738 -0.463338 -0.073481 0.508200 0.177342 0.150072 -0.247540 -0.060626 -0.453703 0.054363
続く 0.133844 -0.227629 0.414483 -0.540726 -0.292656 0.045962 -0.127427 -0.405117 -0.761061 -0.073886
さん 0.003495 -0.022618 -0.161156 0.069825 -0.110928 -0.201368 -0.148992 -0.024829 0.162381 -0.274185
もらう 0.580244 -0.590810 0.377535 -0.750760 -0.051116 0.208390 -0.512519 -0.734058 -0.777588 0.186421
全部 -0.272558 -0.016536 -0.033133 -0.091663 0.044760 -0.169601 -0.131632 -0.032577 0.114447 -0.117758
以外 -0.183309 0.505320 -0.076230 -0.061646 -0.087340 -0.171773 0.058199 0.134488 -0.115990 0.067597
えと 0.077987 0.191462 0.146776 -0.055507 -0.016750 -0.241399 0.066293 -0.033989 0.143750 -0.102427
意味 -0.244145 -0.250463 -0.335912 0.148422 0.077321 -0.073217 -0.365857 -0.100611 0.030576 0.021576
縦 -0.371769 -0.339685 -0.052410 -0.489196 0.205993 -0.308563 -0.252434 0.033194 0.087267 0.018696
理解 -0.095201 -0.222637 -0.321633 0.381321 0.174665 0.128218 -0.110018 0.045327 -0.304294 0.256516
し 0.088154 0.115238 -0.034107 -0.010059 -0.163388 0.027482 0.334656 0.001016 -0.134847 -0.065762
予測 -0.148788 -0.227634 -0.112905 0.109503 0.071558 0.128079 -0.152656 -0.111445 -0.123276 -0.058599
人手 -0.379093 -0.205340 -0.087250 0.147682 -0.031173 -0.031603 -0.439617 -0.190055 -0.025017 0.036219
スライド -0.502481 -0.044322 0.040756 0.078542 -0.084101 -0.170130 -0.324267 -0.108239 -0.065962 -0.282628
悪い 0.033412 -0.329492 -0.125192 0.010107 0.188404 -0.124279 -0.193817 -0.065842 0.203910 -0.093829
高速 -0.538643 0.037273 -0.031123 0.155081 -0.357828 0.216185 -0.270606 -0.093147 -0.419472 -0.327785
特定 0.152381 0.005229 -0.067857 0.337072 0.007843 0.239010 -0.170037 0.043477 -0.171516 0.315616
もっと -0.055271 -0.076737 -0.081275 0.165298 0.025004 -0.165928 0.101810 0.081553 0.025254 -0.024332
最小 -0.005676 -0.182847 0.169106 -0.009944 -0.108516 0.155717 -0.302666 0.025373 0.282314 -0.121773
プラス -0.018488 -0.057877 0.144347 0.035473 -0.187305 -0.149769 -0.095873 -0.100209 0.140704 -0.036891
以下 -0.056382 0.067973 0.131353 0.113448 -0.317704 -0.099225 -0.340830 0.264888 -0.107784 -0.063352
こんな 0.146775 -0.062210 -0.336868 -0.177644 0.060021 -0.146153 -0.010376 0.150252 0.004202 -0.350308
探索 -0.139320 -0.109437 0.108893 0.094477 0.118994 0.056201 -0.234334 -0.246799 -0.147171 0.007350
側 -0.122392 0.135626 0.079268 -0.061203 -0.039342 -0.189114 -0.347572 -0.159203 -0.068976 -0.168768
ずっと -0.086223 0.141003 0.144019 0.108490 0.018175 -0.083691 0.137888 0.057304 0.127314 0.029520
統合 -0.115865 -0.264613 0.094460 0.210409 0.006115 0.298283 -0.236708 0.107212 -0.459466 0.209924
しか 0.300738 0.269729 -0.224458 0.037858 -0.087829 0.005071 0.334670 0.106696 0.131876 0.093213
方式 -0.322778 0.086395 -0.035129 0.187500 -0.040965 -0.014401 -0.140687 -0.012991 -0.010029 -0.065017
文法 -0.169641 -0.098431 -0.085362 0.220107 0.021845 -0.122782 -0.245213 -0.009196 -0.064255 -0.160291
候補 -0.447115 0.157965 0.053140 0.020861 0.029953 -0.029738 -0.330214 0.105457 0.141993 -0.164616
つく -0.185516 -0.056718 0.338759 -0.560538 -0.705923 0.328503 -0.045491 -0.700404 -0.854109 -0.446242
レベル -0.150128 0.041487 -0.180427 -0.002646 0.012802 -0.178853 -0.185954 0.073798 0.028226 0.054421
短い 0.105808 -0.223214 -0.098387 -0.086001 0.094925 0.046469 -0.202014 0.203753 -0.036123 0.056808
来る -0.115169 -0.111366 0.057332 -0.394982 -0.309106 0.173007 -0.199739 -0.416038 -0.250532 -0.504806
上位 -0.107977 0.060238 0.055370 0.080235 -0.241753 -0.141620 -0.221828 0.010178 0.223964 -0.053226
環境 -0.192770 0.041198 -0.144182 0.203033 -0.067184 -0.100586 -0.056482 -0.133553 0.019129 0.018712
書き 0.491403 0.234885 0.541794 -0.791294 -0.532810 -0.183673 -0.659728 -0.669844 -0.216005 0.030812
表示 -0.456584 -0.448734 0.032224 0.105525 0.181380 0.063054 0.097338 -0.042914 -0.326022 -0.172974
異なる 0.140300 -0.115635 0.122691 -0.022875 -0.256802 -0.069419 -0.344479 -0.209310 -0.095730 -0.321481
幾つ 0.204219 -0.238667 -0.584532 0.021617 -0.074846 -0.062788 -0.326512 0.022769 -0.285371 -0.399418
やっぱり 0.007962 -0.048651 -0.129275 -0.137890 0.062376 -0.296789 0.058521 -0.004029 0.006924 0.065724
ていう 0.046643 0.211664 -0.094381 0.253704 -0.023024 -0.266552 -0.321435 0.259831 0.011912 -0.200605
両方 -0.142105 -0.005264 -0.099531 0.035049 -0.078417 -0.189172 -0.248371 -0.320924 -0.081833 -0.158843
依存 -0.285632 0.043168 -0.294718 0.403014 -0.073505 0.195026 -0.019073 0.051633 -0.569397 0.350530
辞書 -0.391232 0.145391 0.094821 0.049535 0.014144 -0.053580 -0.349158 -0.258309 0.117084 -0.439958
普通 -0.420657 -0.038916 -0.353709 0.034781 -0.153026 -0.301528 -0.318824 0.293927 -0.237438 -0.229669
相関 -0.243241 -0.104486 -0.156972 0.280896 -0.058696 -0.344540 -0.304450 0.132822 -0.122436 -0.276504
グループ -0.155397 -0.131112 0.049030 0.098399 -0.278230 -0.173128 -0.277402 -0.061135 0.105257 0.028621
まだ -0.108779 0.098820 -0.039864 -0.108472 -0.089675 -0.175718 0.005482 -0.031430 -0.075532 -0.055832
述べる 0.322893 0.402992 0.479526 -0.483402 -0.430224 0.317771 -0.068423 -0.359453 -0.230117 -0.319405
文脈 -0.177490 -0.089044 0.173485 0.058214 0.110686 -0.141594 -0.444476 -0.130376 -0.189009 -0.109410
アルゴリズム -0.192710 -0.039841 0.095614 0.159518 0.010356 -0.129727 -0.262751 0.039763 -0.001632 -0.109341
削減 -0.093722 -0.105470 0.112158 0.261403 0.043026 0.066165 -0.043631 -0.005854 -0.115756 0.225427
強い -0.034779 -0.121638 -0.099288 -0.038568 0.024775 -0.055911 -0.222581 -0.045802 0.086719 -0.016395
実は 0.048073 0.022093 -0.069187 0.132736 -0.014564 -0.154641 0.150207 0.091112 0.042178 -0.025075
辺 -0.411718 -0.109230 -0.260305 0.022285 0.009489 -0.317597 -0.174637 -0.023113 -0.170229 -0.271580
どこ -0.271899 -0.251739 -0.143625 0.035321 -0.187808 -0.038979 -0.168932 -0.090686 -0.119674 -0.450845
近い -0.123523 0.096980 -0.110361 -0.192017 -0.223100 0.079482 -0.003301 -0.185629 -0.091059 -0.142968
タイトル -0.333751 -0.141691 -0.172089 0.030610 -0.167261 -0.216771 -0.092509 -0.107625 -0.056409 -0.017253
本当 -0.029389 -0.108114 -0.059092 -0.172091 -0.137683 -0.208873 -0.143949 -0.143843 -0.225417 0.082815
単純 -0.518191 0.256452 -0.277150 -0.036085 -0.359199 0.029102 -0.023425 -0.216446 -0.251901 -0.140515
登録 -0.179802 -0.544993 0.037157 0.339233 0.002711 0.146906 0.051514 -0.296769 -0.528963 0.113325
に関しまして -0.048294 0.034771 -0.033149 -0.077512 -0.130840 -0.026833 -0.140263 0.361842 0.166742 0.106623
掛かる -0.103100 -0.269330 -0.206221 -0.393144 -0.351311 0.208595 -0.095221 -0.569743 -0.103429 -0.372297
選ぶ -0.119006 0.053156 0.003093 -0.154743 -0.009356 0.080258 -0.123337 -0.406256 -0.007225 -0.544757
言葉 -0.199018 -0.276476 -0.270750 0.329632 0.057925 -0.030305 0.002436 -0.207267 0.059179 -0.182147
収集 -0.188966 -0.378083 -0.053828 0.371787 0.107596 -0.142651 0.026903 -0.120317 -0.358649 0.261802
効率 -0.287517 0.094992 0.018181 0.117593 0.022727 -0.030752 -0.423188 0.130235 0.013781 -0.424101
導入 -0.056653 -0.362308 0.089358 0.521311 -0.015878 0.346354 -0.121399 -0.002729 -0.201133 0.134052
算出 -0.250514 -0.388370 0.144910 0.389604 0.141565 0.213217 -0.067486 -0.009083 -0.257543 0.090838
まとめ -0.324070 0.053531 0.120693 -0.025785 -0.218445 -0.330030 -0.050746 -0.209726 -0.422522 0.135690
大きな 0.201773 0.039565 -0.161898 -0.192948 -0.156246 0.123396 -0.011679 0.011208 -0.001710 -0.028119
ワード -0.108904 0.057223 -0.027750 0.047305 -0.048700 -0.138949 -0.176121 -0.130388 0.158425 0.071793
違い -0.155484 -0.064737 -0.262785 0.259092 -0.064915 -0.230306 -0.266769 -0.048890 -0.095118 -0.144377
Ｆ -0.152811 0.092076 -0.019545 0.139288 -0.282171 -0.093236 -0.112565 -0.077899 0.371888 -0.009596
段落 -0.065586 -0.073338 0.166120 0.195390 0.175432 -0.151259 -0.125082 0.263622 0.432705 -0.235665
信頼 -0.185519 0.006574 -0.199747 -0.007008 -0.000204 0.086716 -0.257053 0.060882 0.029152 0.274261
に関する 0.341674 0.273122 -0.011248 -0.049838 -0.058034 -0.055300 0.047720 -0.034480 0.188231 0.385204
後で -0.132167 -0.015039 -0.070924 0.085269 0.099018 -0.021381 -0.179134 -0.095672 0.030935 0.016467
コレクション -0.226590 0.134439 0.203305 0.006187 0.101126 -0.257920 -0.409614 0.167963 -0.010233 0.019376
ベスト -0.174518 0.306903 0.176560 -0.048015 -0.065586 0.060257 -0.238343 -0.027447 0.208413 -0.407274
ーデーター -0.204947 -0.176862 0.132287 0.104195 0.083964 -0.129040 -0.239193 0.028052 0.082101 -0.124007
形式 -0.332851 0.044490 -0.042901 0.035811 -0.112081 -0.013760 -0.151774 -0.045886 -0.063819 -0.131269
スペクトル -0.129177 -0.120806 -0.002119 -0.023907 -0.034274 0.092191 -0.283662 -0.068309 0.069021 0.060347
月 -0.287378 0.023816 -0.052272 -0.027139 -0.023119 -0.056120 -0.169061 -0.105234 -0.198712 -0.008516
生活 -0.095879 -0.158563 -0.091102 0.131620 -0.117207 -0.030682 -0.271506 0.076860 -0.164845 -0.165850
固有 -0.035071 0.563185 -0.110713 -0.027274 -0.326864 -0.157011 -0.219630 -0.121861 -0.015648 -0.104762
仮定 -0.067344 -0.381709 -0.130968 0.273155 0.044856 0.131654 0.002981 -0.220509 -0.470646 -0.004996
母音 -0.342356 0.150923 0.015723 0.141826 -0.179164 -0.215033 -0.284347 -0.022574 -0.024487 -0.112029
決める 0.128081 -0.259890 0.204547 -0.111502 -0.172154 -0.064007 -0.498015 -0.387180 -0.236345 -0.404566
割合 -0.389916 -0.132932 -0.011889 0.203815 -0.050461 -0.184964 -0.288727 -0.115737 -0.185374 -0.167488
少し -0.014337 -0.180794 -0.051412 -0.007408 0.127713 -0.002372 -0.139830 -0.099294 -0.002546 0.006978
付与 -0.085325 -0.389508 -0.243794 0.194855 0.100529 0.127046 -0.184513 -0.084341 -0.206856 -0.008160
Ｘ -0.244902 0.121600 0.101755 0.222891 -0.134559 -0.113650 -0.197020 -0.214619 0.080023 -0.025146
次元 -0.347989 -0.309784 0.245910 -0.070654 -0.324872 -0.214982 -0.172161 0.004431 0.057079 0.109257
道 -0.211752 -0.090209 -0.015437 0.147670 -0.026501 -0.018920 -0.224503 -0.060879 0.069344 -0.259152
パターン -0.185866 0.092273 0.113307 0.199379 -0.098246 -0.138817 -0.332019 -0.213877 -0.101811 -0.233569
と. 0.132045 0.089438 0.005946 0.123067 0.003658 0.232972 0.418716 0.167005 -0.030365 0.030065
もん -0.010228 -0.067382 -0.068692 0.008444 -0.277302 -0.170761 0.339579 -0.363354 -0.283593 0.101436
今日 -0.289414 0.037527 -0.105162 -0.043096 -0.138658 -0.181302 -0.190806 -0.057978 -0.198750 -0.256944
ながら -0.101987 -0.022746 -0.034746 0.274366 0.280964 0.010710 0.316178 0.122045 0.199660 0.091532
枠組み -0.409491 -0.200772 0.019655 0.433904 0.026130 0.052737 -0.116261 -0.195187 -0.205975 -0.109289
サーバー -0.343680 0.130036 0.124171 -0.041674 -0.066284 -0.251743 -0.446322 -0.413158 -0.212387 -0.214451
場所 -0.294287 -0.231319 -0.116416 0.251881 -0.021022 -0.239034 -0.134853 0.075756 -0.116571 -0.151266
ほぼ 0.079993 -0.058761 -0.075600 -0.085378 -0.193168 -0.159160 -0.072654 -0.151850 0.097831 0.099692
組み合わせる 0.286509 -0.087434 0.452918 -0.148812 -0.128447 0.089916 -0.782674 -0.329484 -0.126484 -0.295151
対策 -0.231739 0.040578 -0.110645 0.297957 -0.058494 -0.142108 -0.152333 -0.079209 0.144935 0.022895
新聞 -0.142563 0.121004 0.166739 0.250818 -0.172162 -0.122567 -0.317916 0.010424 -0.253956 -0.005158
組み合わせ -0.269367 0.115638 -0.010105 0.319341 -0.166317 -0.184934 -0.493991 -0.054417 -0.035230 -0.248729
食べる 0.242394 0.071419 0.123379 -0.220141 -0.188699 -0.037560 -0.197179 -0.307478 -0.125623 -0.091363
併用 -0.204634 -0.087687 0.096915 0.147785 0.041084 0.042591 -0.245849 -0.184616 -0.414957 0.006771
予め -0.123194 0.155609 0.117112 0.105504 -0.018772 -0.088114 -0.005255 -0.011145 -0.106296 -0.072893
国 -0.275267 0.073250 -0.145703 0.173003 -0.117350 -0.205495 -0.308548 0.044929 -0.175651 -0.091779
増加 -0.351348 -0.521363 -0.391144 0.327269 -0.018142 0.093698 -0.066732 0.080277 -0.542429 0.088039
開発 -0.251633 -0.120451 -0.068861 0.124830 0.131911 -0.008390 -0.091442 -0.116284 -0.056347 -0.003945
子供 -0.359340 -0.048239 -0.108906 0.144781 -0.053237 -0.290392 -0.287497 -0.148457 -0.149847 -0.204093
逆 -0.628205 -0.070957 -0.024848 0.072745 -0.263422 0.030139 -0.284130 -0.273131 -0.355237 -0.436222
割 -0.134826 -0.340718 0.216252 0.062144 -0.316772 -0.105598 -0.042614 -0.121823 0.411221 0.064426
編集 -0.137066 0.011094 -0.003378 0.044269 0.027383 0.059573 -0.061798 0.178627 -0.122104 0.222677
一部 -0.382531 -0.069383 -0.158050 0.320408 -0.098240 -0.237474 -0.318212 0.132951 -0.083154 -0.214816
画像 -0.245383 -0.095635 -0.048100 0.232869 0.078555 -0.112620 -0.175412 -0.022132 0.005632 -0.245221
項目 -0.179044 -0.112914 0.111695 0.010354 -0.126941 -0.175038 -0.128649 0.097338 0.020967 0.145306
どれ 0.064924 -0.201107 -0.174263 -0.250305 0.030077 -0.053756 -0.232492 0.051154 0.045205 -0.069245
流れ -0.337392 0.041338 -0.361760 0.458566 0.106544 -0.211015 -0.079857 -0.008627 -0.047197 -0.188895
Ｊｕｌｉｕｓ -0.514395 0.048919 0.031800 0.292019 -0.285704 -0.178939 -0.354976 0.305840 -0.380530 -0.204681
ＤＰ -0.143590 -0.201364 -0.043941 -0.072567 -0.007152 0.088711 -0.433123 0.089666 0.259060 0.262170
に対し 0.165520 0.504614 0.029597 0.009340 0.180948 0.007283 0.051458 0.076954 0.287511 0.392249
混合 -0.173882 -0.135195 0.055126 0.130847 -0.051986 0.153221 -0.082899 -0.063336 -0.019789 0.362917
とても 0.152970 0.005452 -0.064110 -0.058132 -0.019224 -0.056368 -0.125827 -0.054557 -0.013586 0.131340
あんまり 0.083936 0.078957 -0.292733 0.034348 -0.087698 -0.118092 0.039847 0.028232 -0.066878 0.007257
正確 -0.644052 0.020626 -0.454771 0.180156 -0.217961 0.071697 -0.132799 -0.426332 -0.203926 -0.675399
適切 -0.258181 0.029449 -0.469841 0.017240 -0.398275 -0.031415 -0.084628 -0.070022 -0.116932 -0.280447
さまざま -0.442025 0.259979 -0.423753 0.143455 -0.330138 -0.079805 0.086216 -0.322634 -0.149371 -0.113545
内 -0.219472 -0.006655 -0.035501 0.190011 -0.020446 -0.214439 -0.262565 0.078367 -0.013236 -0.013003
等 -0.174326 -0.054290 0.175817 0.039984 -0.197803 -0.142374 -0.260628 -0.168189 0.126490 -0.175562
判断 -0.160707 -0.363606 0.067977 0.316929 0.129880 -0.073233 -0.170006 -0.284896 -0.310057 -0.087864
うち -0.319259 -0.015472 -0.035540 0.148282 -0.128304 -0.348811 -0.303762 0.017395 -0.163300 -0.132454
人間 -0.166476 -0.025195 -0.180309 0.015129 -0.008380 -0.242362 -0.275825 -0.137135 -0.088061 -0.193453
話す 0.158146 0.207527 0.001225 -0.245752 -0.077792 0.131721 -0.141625 0.063860 -0.065397 -0.377278
継続 0.084258 0.077291 -0.049756 -0.018542 -0.061242 0.093259 -0.187461 -0.085849 0.186171 0.240358
秒 -0.235307 -0.252307 -0.003670 -0.004473 -0.306135 -0.157248 0.125049 -0.001056 0.145832 0.232446
スター -0.017220 -0.041230 -0.102474 -0.091792 -0.188027 -0.096204 -0.147688 -0.135998 0.050434 0.269818
前後 -0.390117 0.019999 0.121276 0.162973 -0.039465 -0.141578 -0.215751 -0.011490 -0.103148 0.013854
コスト -0.312277 -0.036476 -0.090772 0.268103 -0.213718 -0.109535 -0.407306 -0.004415 0.006961 -0.279780
合計 -0.179818 0.079551 0.207206 0.094611 -0.057142 0.054914 -0.209498 -0.115901 0.165605 0.038765
先行 -0.263428 0.005746 0.281404 -0.167316 -0.047207 -0.096376 -0.093256 0.209349 -0.088271 0.054628
理由 -0.524514 0.032638 0.034105 0.317008 -0.202226 -0.313140 -0.262837 -0.142403 -0.170555 -0.389830
手 -0.380942 -0.159675 0.000583 0.160456 -0.260462 -0.139054 -0.294621 -0.259467 -0.351582 -0.345735
採用 -0.118586 -0.411390 0.149385 0.328100 0.130309 0.172263 0.099404 0.027781 -0.351839 0.216463
時代 -0.152762 0.023763 -0.083253 0.066717 -0.161482 -0.207432 -0.169555 0.128558 -0.092210 -0.107407
学会 -0.366311 0.196024 -0.105157 0.004273 -0.232683 -0.240140 -0.077994 0.052046 0.014484 0.048741
彼 -0.116257 -0.256553 0.126946 0.106625 -0.162390 -0.153040 -0.148964 0.163210 -0.063663 -0.306260
対 0.013215 -0.014651 -0.005602 -0.253085 -0.154718 -0.088599 -0.070658 0.006801 0.045271 0.232834
要素 -0.146372 -0.040715 -0.162129 0.183944 0.027978 -0.164416 -0.216593 0.061571 -0.045044 -0.121652
完全 -0.366332 -0.127001 -0.257545 0.153335 -0.148349 -0.081381 -0.166926 -0.185187 -0.026768 -0.154197
遷移 -0.067229 0.219511 0.085452 0.077931 0.051998 0.189001 -0.406063 0.017296 0.148440 -0.088622
受ける 0.144413 -0.027037 0.190085 -0.124935 0.074118 0.047469 -0.271726 -0.363766 -0.044147 -0.263972
大量 -0.401393 0.109125 0.068821 0.358215 -0.129997 -0.342698 -0.438541 -0.067459 -0.198729 -0.193338
多く -0.201824 0.002558 -0.004733 0.121966 0.061776 -0.165788 -0.205651 0.052618 -0.119513 0.131020
韻律 -0.053405 0.099771 -0.087982 0.067058 0.001084 0.066531 -0.431328 0.097683 0.018636 -0.066361
尤 -0.106815 0.075106 -0.157432 0.041085 -0.004663 0.172827 -0.287091 0.012775 0.325998 0.315976
みたい -0.125682 0.133009 -0.421355 0.053787 -0.226098 -0.146318 0.073763 -0.152406 -0.258436 -0.081843
ケース -0.177150 -0.166647 -0.320826 0.144681 -0.087319 -0.082074 -0.148816 -0.076153 -0.028953 -0.229987
き -0.066928 0.060551 -0.074529 0.294515 0.128502 0.067145 -0.004015 -0.111006 0.234513 0.357603
機能 -0.283999 -0.207942 -0.129352 0.160413 0.066960 -0.012016 -0.165609 0.020285 0.074565 -0.290720
アラインメント -0.259344 -0.239382 -0.058269 0.328930 0.193656 -0.023455 -0.138406 -0.165393 -0.104601 -0.102894
曲 -0.174327 -0.156481 0.045407 0.055879 -0.035299 -0.146014 -0.355006 -0.108107 0.085616 -0.225756
増える 0.046612 -0.283521 -0.137152 -0.294335 -0.109063 0.111992 -0.222728 -0.245898 -0.136983 -0.288147
当然 -0.122915 -0.001622 -0.052715 0.032874 -0.114245 -0.113851 0.083962 0.087116 -0.035609 0.019335
初め -0.468790 -0.105688 0.069819 -0.081807 -0.142974 0.009961 -0.162148 0.002163 -0.388501 -0.279442
あれ -0.330295 -0.219145 -0.101103 -0.040259 -0.072682 -0.169369 -0.056617 -0.056047 -0.102167 -0.161894
ある程度 -0.128457 -0.165949 -0.217261 -0.079166 -0.059958 -0.105561 -0.127512 0.107051 -0.003380 -0.209021
で. 0.171748 0.113698 -0.018580 -0.071877 0.010032 0.060788 0.060606 -0.009504 0.006699 0.017947
政治 -0.124611 0.129501 -0.137016 0.274064 -0.102051 -0.189176 -0.147602 0.166111 0.025059 -0.035187
本当に -0.028675 0.099378 -0.107459 -0.079175 0.025059 -0.242973 -0.109556 0.029699 -0.001260 -0.010710
字幕 -0.357601 -0.148871 0.025964 0.193037 0.041907 -0.215445 -0.264074 -0.164456 -0.051021 -0.187983
呼ぶ -0.146603 0.283355 0.285183 -0.426705 -0.222383 -0.104630 -0.035189 -0.557659 -0.172122 -0.693155
教師 0.213794 0.147309 -0.029018 0.220218 -0.049024 -0.114359 -0.116506 0.176665 0.129297 -0.143227
品詞 -0.174012 0.125786 0.130666 0.160436 -0.077192 -0.282124 -0.394719 -0.115762 -0.076862 -0.143707
節 -0.237762 -0.064106 -0.057875 0.026487 -0.125843 -0.148812 -0.063794 0.135178 -0.080116 -0.095322
文末 -0.195678 0.133508 -0.106645 0.111062 -0.061727 -0.046254 -0.214121 -0.048402 -0.203158 -0.029222
即ち -0.023434 0.192199 0.028282 -0.002815 0.226928 0.025415 -0.054419 0.233521 0.116623 -0.079670
掛ける 0.069820 -0.247478 0.473644 -0.376767 -0.207031 0.254983 -0.364048 -0.483398 -0.348977 -0.396020
考え -0.148186 -0.292971 -0.151687 -0.064876 -0.064936 -0.047015 -0.237529 -0.076736 -0.076376 -0.322654
追加 -0.255345 -0.293337 -0.073166 0.282477 0.013324 0.078291 -0.002275 -0.186691 -0.311113 0.051449
正しい 0.065596 0.061158 -0.267361 -0.044597 0.045106 -0.035074 -0.151350 0.019077 0.097841 -0.162089
自動的 -0.708209 -0.202587 0.022771 0.162494 -0.113200 0.018991 -0.253824 -0.281353 -0.351896 -0.497323
コンテキスト -0.077226 0.140820 0.116011 0.174234 -0.024226 -0.142467 -0.250221 -0.094368 -0.122727 0.085303
バイグラム -0.206198 -0.003490 -0.068844 0.205092 -0.187275 -0.044409 -0.223365 -0.121529 -0.017205 -0.258678
Ｐ -0.310249 -0.045022 -0.080590 -0.030712 -0.089198 -0.195068 -0.145468 0.013922 0.065839 -0.151664
かも 0.090887 -0.002701 -0.291424 0.137045 0.063223 0.039790 0.316428 0.181874 0.097088 -0.338325
分散 -0.264659 0.063381 0.099094 0.063779 -0.176798 -0.138590 -0.219391 -0.125751 -0.029020 -0.323340
重み付け -0.283834 0.058154 0.062323 0.008385 0.032694 -0.045697 -0.174200 -0.125849 -0.211362 -0.007789
再 -0.354232 0.062902 0.003579 -0.036058 0.097276 0.078662 -0.157193 0.212981 0.106988 -0.042603
元々 -0.257468 -0.075969 0.092243 0.080783 -0.025824 -0.141994 -0.430333 0.192309 0.004048 -0.119006
部 -0.218288 -0.021129 0.076233 0.009877 -0.016215 -0.071756 -0.340941 -0.088939 -0.012420 -0.120357
概要 -0.131766 0.030455 0.068190 0.196827 -0.028678 -0.215213 -0.161807 0.127683 -0.189005 0.005858
調整 0.065763 -0.231652 0.165732 0.191867 0.054887 0.191188 -0.138418 -0.151328 -0.128180 0.180782
サイズ -0.212188 -0.057560 0.077289 0.219030 -0.145592 -0.236813 -0.229018 -0.095358 0.186108 -0.269256
改良 -0.112669 -0.093459 -0.020669 0.126873 -0.014794 -0.118327 -0.237586 -0.194529 -0.111937 -0.045232
直線 -0.116198 0.078057 0.103301 0.142987 -0.028093 -0.221180 -0.127547 -0.113012 -0.156750 -0.036626
好き -0.299741 -0.206761 -0.334272 -0.056898 -0.298159 -0.073737 -0.051870 -0.266932 -0.210417 -0.183160
見つける 0.145567 -0.244660 0.282352 0.029100 -0.102257 0.057910 -0.394076 -0.363145 0.148791 -0.296622
段階 -0.295247 -0.223432 0.147746 -0.144434 -0.121970 -0.147040 -0.082346 -0.023197 -0.114314 0.148500
力 -0.244012 -0.045074 0.013277 0.051716 -0.055101 -0.008690 -0.174682 -0.155850 0.011907 -0.181694
作品 -0.211737 0.016499 0.108201 0.108233 -0.043048 -0.082624 -0.358992 -0.173590 -0.121902 -0.075487
駅 -0.219523 -0.111520 -0.022242 -0.011355 -0.100925 -0.130279 -0.148764 0.076005 -0.080672 -0.117515
高 -0.265285 -0.005147 -0.099412 0.213867 -0.241140 -0.039483 -0.064948 -0.066253 0.023067 0.032287
通常 -0.159928 0.334458 0.024806 0.105132 -0.003554 -0.359763 -0.168805 0.043434 -0.254187 -0.193464
デコーダー -0.355173 -0.067207 0.049681 0.129761 -0.190918 -0.029950 -0.335364 -0.001539 -0.159684 -0.328326
子 -0.176980 -0.053180 -0.228496 0.116877 -0.181645 -0.105655 0.035866 -0.118497 -0.101375 -0.168049
固定 -0.327160 -0.408563 -0.039791 0.222872 0.099237 0.051651 -0.265843 -0.174315 0.052917 0.010774
誤る -0.153822 -0.078188 -0.175463 -0.038784 0.225975 0.027415 -0.152162 0.103257 0.038112 -0.252819
分ける 0.130860 -0.024376 0.197049 -0.319163 -0.312672 0.072936 -0.145980 -0.529353 -0.474853 -0.272197
回答 -0.238353 -0.139760 -0.015276 0.277043 0.085909 -0.100963 -0.312936 0.028772 -0.017761 -0.188310
操作 -0.308435 -0.213858 -0.011276 0.216030 -0.227980 -0.043124 -0.148134 -0.236965 -0.214550 -0.213819
ピッチ -0.234445 -0.000531 0.151243 0.127187 -0.069097 -0.195284 -0.169840 0.118626 -0.011162 -0.055085
ほる -0.210114 0.085907 0.027421 0.320119 0.239966 -0.198900 0.212578 0.134119 0.337141 -0.205003
がま 0.049468 0.254512 0.249228 0.146274 -0.278050 -0.407188 0.144712 -0.020065 0.149439 0.151164
全く 0.065148 0.045257 -0.063039 0.062551 -0.056769 -0.158125 -0.126482 -0.132079 0.000504 -0.070440
書き言葉 -0.197405 0.216357 -0.017965 0.348543 -0.076411 -0.373888 -0.291673 0.025909 -0.083500 -0.356529
世界 -0.313185 -0.088684 -0.093632 0.001661 -0.150624 -0.061139 -0.286895 -0.044212 -0.034229 -0.178047
詳しい 0.022393 0.142644 0.261642 -0.095334 0.201442 -0.063494 0.119446 -0.029696 -0.061776 0.048383
資料 -0.314355 -0.148338 0.012481 0.066233 -0.284633 -0.106382 -0.211828 -0.146181 -0.016334 -0.296305
変更 -0.163607 -0.181829 0.023483 0.201380 0.017788 0.025708 -0.199681 -0.068479 -0.325240 -0.021947
若干 -0.028947 -0.011306 -0.083384 0.012633 -0.255464 0.051766 0.081653 -0.035539 -0.170365 -0.136178
事例 -0.189825 0.089772 0.179259 0.159911 -0.099392 -0.043775 -0.195640 0.024236 0.131991 0.037261
検証 -0.084179 -0.074577 0.035319 0.348776 -0.011766 0.030475 -0.089740 0.082930 -0.176483 -0.022452
なん 0.048892 -0.109342 0.175735 0.082258 -0.213002 -0.315401 -0.016633 0.019341 -0.343164 0.146579
もう少し 0.142252 0.017935 0.094558 0.083521 0.128356 -0.015677 -0.108925 0.065076 0.003317 0.253526
なり -0.103795 0.216396 0.000709 0.011619 -0.166997 0.097673 -0.012297 -0.131352 -0.019894 -0.095981
Ｗ -0.072419 0.013730 -0.196257 0.008430 -0.017599 -0.202244 -0.240877 0.051542 0.214923 -0.175928
発声 -0.255505 -0.223546 -0.050194 0.083901 0.185957 0.135045 -0.093510 -0.067961 -0.212009 0.043995
僕 -0.195504 -0.091466 -0.164348 -0.114732 0.022721 -0.146351 -0.231184 0.007736 -0.016399 -0.276372
凄い -0.037991 -0.004095 -0.125660 0.059120 -0.040424 -0.074483 0.009292 0.062811 -0.039804 -0.136643
Ｔ -0.036719 0.008790 -0.014423 0.062827 -0.207698 -0.073684 -0.076065 -0.007531 -0.114578 0.065264
が. 0.295878 0.108509 0.001479 0.049654 -0.179355 -0.147478 0.264759 0.082692 -0.154588 0.249073
く 0.365980 -0.436435 0.204340 -0.427769 -0.112195 0.034390 -0.480550 -0.603184 -0.466539 0.167070
線 -0.234016 -0.111554 0.061009 0.029843 -0.068937 -0.208061 -0.252505 -0.133054 0.010854 -0.091403
番目 -0.319106 -0.074876 0.079107 0.025385 -0.285170 -0.404348 -0.161637 -0.051840 -0.052941 0.283405
イベント -0.297545 -0.139515 -0.220784 0.090710 0.074066 -0.114331 -0.182029 -0.132934 0.004362 -0.188598
音楽 -0.223815 -0.134265 -0.058850 0.303696 -0.044758 -0.270509 -0.090446 -0.015081 0.056498 -0.253815
量子 0.112251 0.068746 0.392518 0.092535 -0.140084 0.399743 -0.205123 -0.095711 0.246822 0.062600
独立 -0.225095 -0.003164 -0.189474 0.173623 -0.085469 0.013425 -0.126673 -0.043379 -0.027074 -0.003984
照合 -0.153627 -0.053868 0.148481 0.243854 0.045587 0.018074 -0.270146 -0.221920 -0.083744 0.085978
件 -0.288450 -0.195545 0.253935 -0.121960 -0.361850 -0.058663 -0.204107 -0.020297 0.135807 -0.040387
事前 -0.157412 0.153735 0.164901 0.069569 -0.141592 0.028683 -0.255986 0.008845 -0.222931 -0.013503
発生 -0.184133 -0.359929 -0.413847 0.148581 0.043251 0.116190 -0.033767 0.052207 -0.316417 0.155204
サブ -0.233129 0.034651 -0.111004 0.122872 0.010823 -0.057016 -0.286845 0.143591 0.149554 0.061566
線形 -0.112281 0.103407 -0.147246 0.039006 0.146758 -0.154199 -0.171348 0.071950 -0.025715 0.134017
そのまま -0.017422 -0.000592 0.048117 -0.064359 0.016701 -0.182224 -0.121155 -0.139446 0.038761 -0.084632
行為 -0.048859 0.079579 -0.215674 0.042409 -0.075248 -0.026786 -0.158911 -0.026513 -0.064462 -0.080732
はま 0.122036 0.040923 0.003798 0.193818 -0.240082 -0.583734 -0.017478 -0.112112 -0.111226 0.063201
削除 -0.186576 -0.444673 -0.104726 0.224815 -0.029724 -0.033377 0.013386 -0.114583 -0.265072 -0.041086
食 -0.205960 -0.212609 0.033895 0.032618 0.048042 -0.137951 -0.321481 -0.108762 -0.067689 -0.116440
クラ -0.199222 0.079180 -0.060448 0.230802 -0.222227 -0.016483 -0.162838 0.125716 0.069268 0.153959
海 -0.423586 0.112766 -0.076157 0.112631 -0.005261 -0.115069 -0.148305 -0.039018 -0.224597 -0.299473
下がる 0.044620 -0.114556 0.021866 -0.191892 -0.125852 0.000641 -0.244017 -0.412347 -0.085165 -0.324867
方向 -0.123092 0.194281 0.056913 0.029583 -0.161773 0.000883 -0.100808 -0.048234 -0.029036 0.015202
ラベル -0.094770 -0.067168 0.089775 0.045196 -0.071497 -0.056479 -0.155759 -0.082847 0.043074 -0.228735
機械 -0.078719 0.100809 -0.046313 0.102698 0.116638 0.047071 -0.325411 0.293231 -0.007983 0.055182
に対しまして 0.081448 0.276293 0.095773 -0.083959 0.026449 -0.031945 0.042987 0.192968 0.162292 0.275268
付き 0.091948 0.227754 -0.158402 -0.022182 -0.111131 0.038969 -0.142227 0.268946 0.118297 0.148706
共 0.036027 0.115462 -0.073243 -0.157653 -0.055029 -0.059876 0.003308 -0.020265 0.044187 0.019544
新しい 0.039732 0.067686 -0.003289 0.042291 0.123305 -0.050227 -0.105954 0.093428 0.051592 0.063566
経験 -0.055394 -0.086833 -0.190411 0.115213 0.026673 -0.173959 -0.057517 0.087909 -0.045590 -0.099753
最適 -0.309302 0.060601 -0.215184 0.127969 -0.094609 -0.130306 -0.201756 -0.322604 -0.089570 -0.040702
つ 0.038031 0.119131 -0.105974 0.064050 0.116712 -0.095020 0.001479 0.029316 0.205581 -0.031834
ポイント -0.171512 -0.133376 0.090873 -0.012851 -0.081343 0.009682 -0.083929 0.004082 -0.010973 -0.037965
授業 -0.147341 -0.044273 -0.045353 0.143186 -0.175260 -0.266628 -0.252113 0.001448 -0.089548 0.046477
考察 -0.184804 -0.067499 -0.050169 0.235981 0.026923 -0.128579 -0.140417 -0.087956 -0.186627 -0.041034
先 -0.253214 0.108398 -0.067535 0.125214 0.016259 -0.098882 -0.244568 -0.017326 -0.016075 -0.140375
その他 -0.365002 -0.021219 -0.024911 0.065636 0.051961 -0.196774 -0.222974 -0.077040 -0.137205 -0.310039
想定 -0.215581 -0.391049 -0.009568 0.116251 0.264827 -0.057434 -0.156748 -0.288813 -0.402147 -0.135736
今度 -0.171443 -0.298613 0.018018 0.066830 -0.078637 -0.186658 -0.286086 0.095531 0.022584 -0.329440
既知 0.070490 -0.195975 -0.152481 0.077457 0.038275 -0.055557 -0.181801 0.183792 0.246025 0.060407
それら -0.221135 -0.201792 -0.041331 0.081286 -0.014811 -0.087198 -0.316011 -0.011308 -0.154992 -0.116944
どちら -0.001344 -0.157990 -0.095031 0.021301 -0.150660 -0.103973 -0.253671 -0.162047 -0.165450 -0.213770
帰る 0.232944 -0.020387 0.198350 -0.191126 0.073826 0.102196 -0.200719 -0.477997 -0.176060 -0.043925
アンケート -0.207911 0.049802 0.114468 0.084981 0.023053 -0.060298 -0.166199 -0.081702 -0.143082 -0.147200
最近 -0.004068 -0.110353 -0.035730 -0.076064 -0.138048 -0.137191 -0.012129 -0.007349 -0.006925 -0.136571
本来 -0.127635 -0.024177 -0.138469 -0.021896 -0.110021 -0.248533 -0.122169 0.190472 -0.128603 -0.222569
範囲 -0.432996 -0.041141 -0.032709 0.161044 -0.026220 -0.101074 -0.258696 -0.045239 -0.081053 -0.113652
指標 -0.314749 -0.127466 -0.012139 0.185597 -0.054131 0.079434 -0.064062 -0.018972 -0.027539 -0.318377
パープレキシティー -0.058473 -0.102163 -0.156085 -0.118666 -0.261004 -0.120209 -0.286882 -0.041966 -0.076912 -0.197394
たくさん -0.123461 -0.030083 -0.071745 0.089266 0.073828 -0.168249 -0.070955 0.073401 -0.111611 -0.083720
原因 -0.168270 0.098240 -0.044891 0.116950 0.055832 -0.259407 -0.261176 -0.184732 -0.088745 -0.308451
達 -0.049505 -0.043694 -0.073297 0.025505 -0.054688 0.071281 0.020921 0.145472 0.140640 0.003069
分野 -0.410366 0.173379 -0.141094 0.021336 -0.004455 -0.073582 -0.204832 0.091492 -0.099367 -0.117414
読む -0.072975 -0.098478 0.229465 -0.040327 -0.046918 0.074603 -0.169715 -0.073949 -0.004730 -0.238153
雑音 -0.126180 0.069610 -0.020909 0.080056 -0.099777 -0.186283 -0.223742 -0.099505 -0.059528 -0.117976
会話 -0.262348 0.209446 -0.190546 -0.018218 -0.066965 -0.322866 -0.326998 -0.002837 -0.110550 0.044001
集める 0.050372 -0.156996 0.289825 -0.172538 0.058099 0.118527 -0.360189 -0.328688 -0.163247 -0.252181
女性 0.014817 0.044560 -0.018589 -0.013620 -0.079591 -0.056227 -0.137090 -0.060292 -0.096121 0.027148
とこ -0.255207 0.017874 -0.139984 0.037236 -0.093871 -0.044313 -0.026622 -0.048973 -0.028531 -0.129963
印象 -0.133717 0.199239 -0.097754 -0.075058 -0.117874 0.109454 -0.222914 0.076005 0.082652 -0.258360
そんな 0.168059 -0.078400 -0.074469 0.101892 0.023893 -0.063660 -0.027345 0.225558 -0.036247 -0.091506
近年 -0.056343 0.061173 0.036504 0.036619 -0.093256 -0.269239 -0.047762 0.014710 -0.114907 0.109085
予備 -0.267399 -0.125212 0.147550 -0.045100 0.085446 -0.113119 -0.171068 0.101797 0.066856 -0.050293
行動 -0.153548 -0.128723 0.009674 0.161009 0.058491 0.049462 -0.209052 -0.103352 -0.041855 -0.098170
同時 -0.162665 0.201611 0.071987 0.309172 -0.023584 -0.152893 -0.046612 0.235475 0.170457 -0.136588
教材 -0.089180 0.114145 -0.150216 -0.059162 -0.048359 -0.018416 0.141665 -0.008764 -0.017298 -0.050925
コンピューター -0.092749 0.111701 -0.073855 0.060499 -0.051540 -0.094078 0.090867 -0.140081 0.093906 -0.111564
主 -0.474891 0.048029 -0.099187 0.064772 -0.283570 -0.019460 -0.092388 -0.196989 -0.269484 -0.391707
共通 0.019386 -0.078637 -0.028274 0.024351 0.051128 -0.105101 -0.094217 0.063696 0.040962 0.108437
注目 -0.224139 -0.245470 -0.242119 0.135398 0.092850 0.049247 0.115760 -0.057179 -0.539018 0.118450
係数 -0.368531 0.120876 -0.163467 0.127060 -0.171214 -0.071312 -0.244976 -0.208898 0.023527 -0.244824
変える 0.035512 -0.119328 0.170716 0.055662 -0.061470 -0.012789 -0.368617 -0.228583 -0.040413 -0.406556
自体 -0.122853 -0.140442 0.061437 -0.116376 -0.165969 -0.019711 -0.215041 -0.014718 0.009842 -0.097765
ホン -0.208872 0.168027 -0.020519 -0.109761 0.017511 -0.044128 -0.120137 0.065793 0.027548 -0.014908
パワー -0.321629 0.040082 0.177781 0.092959 -0.078563 -0.158715 -0.128501 0.022225 0.177323 -0.180253
ＩＤＦ -0.303024 -0.002363 0.069780 0.153746 -0.030354 0.018104 -0.040226 -0.105184 0.127731 -0.251395
勿論 -0.069937 -0.006903 0.019483 0.033198 -0.031651 -0.104088 -0.131089 -0.029717 -0.125930 -0.098994
一文 -0.206469 -0.025262 -0.003544 0.219475 0.073438 -0.244337 -0.224595 -0.336738 0.006820 -0.339858
実 -0.175045 0.075234 -0.071622 0.100392 -0.012258 -0.123520 -0.140938 -0.084807 -0.067384 -0.024680
同時に -0.023578 -0.046301 0.001431 -0.087353 0.228762 0.061369 0.087512 0.020707 0.098618 0.047324
丸 -0.100996 0.016759 0.126431 0.009107 -0.132874 -0.214604 -0.176607 -0.105243 0.072665 0.070258
にくい -0.017723 -0.077402 -0.212544 0.163916 0.241423 -0.036697 0.169723 -0.024023 0.029067 0.172203
基準 -0.058800 -0.015667 0.050370 0.078019 0.037055 -0.153720 -0.423146 -0.127261 0.004362 -0.167870
速度 -0.088385 0.223693 0.031620 0.000752 -0.167604 -0.106770 -0.160575 0.103198 0.297005 -0.092169
頃 -0.113195 -0.013341 -0.024656 0.132620 -0.077250 0.006640 -0.039162 -0.121137 0.034792 -0.045108
関数 -0.281606 0.016251 -0.145685 0.257041 0.077912 -0.023969 -0.271779 -0.011578 0.018420 -0.094444
生徒 -0.124219 -0.145162 -0.052371 -0.007502 -0.050485 -0.065397 -0.323826 -0.015456 0.015115 -0.277167
なぜ -0.001958 -0.220885 -0.025397 0.021182 -0.033995 -0.156672 -0.090205 -0.090962 -0.133353 -0.098052
実装 -0.121415 0.079330 0.089342 0.105835 -0.081723 0.075396 0.116561 0.007536 -0.340330 0.098681
文献 0.014294 0.116863 0.004164 0.064167 -0.063278 -0.092744 -0.309324 -0.014020 -0.004058 -0.157298
これから 0.056198 -0.159547 0.096217 -0.024194 0.115686 0.132107 0.130726 -0.061715 0.098764 0.027207
扱う 0.086634 0.042425 0.153585 -0.129921 -0.105883 0.068431 -0.284722 -0.227296 -0.072286 -0.242057
近く -0.286015 -0.205972 -0.000389 0.162008 -0.078869 -0.210782 -0.282870 -0.037814 -0.074686 -0.118913
外 -0.308437 0.021840 -0.119075 0.062242 0.014352 -0.049524 -0.311693 0.086923 0.042869 -0.096892
データーベース -0.206681 0.011171 0.027139 0.143589 -0.013263 -0.033194 -0.067314 0.050780 0.080484 0.058222
母 -0.135120 0.003558 -0.066766 -0.071210 -0.087711 -0.228394 -0.025626 -0.027476 -0.044905 -0.055628
繰り返す -0.045592 -0.024940 0.260334 -0.197762 -0.165819 0.008381 -0.264301 -0.094652 -0.052025 -0.242156
ちょうど -0.100973 -0.048747 0.022882 -0.066922 -0.009510 -0.099147 0.018073 -0.101459 0.027056 0.113683
あっ 0.175835 0.164157 0.002457 0.006121 0.083826 0.033044 -0.058607 0.078053 0.152593 0.066321
着目 -0.269305 -0.139898 0.009535 0.222386 -0.038996 0.232761 -0.047774 -0.094185 -0.627312 0.107298
エントロピー -0.325340 -0.104263 0.030016 0.336914 -0.095782 -0.098499 -0.256813 -0.065375 -0.079622 -0.110539
左 -0.237718 -0.006010 -0.010447 0.019731 -0.072297 -0.127550 -0.170125 -0.063510 -0.055357 -0.121077
読み上げる -0.001740 0.155922 0.208894 0.034998 -0.248788 -0.015653 -0.137177 -0.128378 -0.198095 -0.084034
部屋 -0.126244 -0.026455 -0.076120 0.042481 -0.206767 -0.070166 -0.215553 -0.050058 -0.071390 -0.174888
捉える 0.210597 0.002511 0.051447 -0.076858 -0.073258 -0.067594 -0.272686 -0.363127 -0.032688 -0.315498
録音 -0.048061 -0.251064 0.104078 0.166166 -0.089792 0.033148 -0.006503 -0.087637 -0.362776 0.114335
い -0.097699 0.088136 -0.016892 0.268070 -0.081593 -0.349187 -0.136060 0.154460 0.039507 -0.106495
絶対 0.032194 0.114170 -0.041623 0.023280 -0.087033 -0.035595 -0.128454 -0.090833 -0.114668 -0.124542
高校 -0.264787 -0.167509 -0.063204 -0.082103 -0.072422 -0.072806 -0.082010 -0.016364 -0.034553 0.071427
誰 -0.133452 -0.112871 -0.101939 -0.060924 -0.123440 -0.079370 -0.039411 -0.139406 -0.096386 -0.242525
やり方 -0.246888 -0.148782 -0.148431 0.102990 -0.149711 -0.130454 -0.028421 -0.094619 -0.107395 -0.039512
モーラ -0.099892 -0.025291 0.035057 -0.131710 -0.080171 -0.030008 -0.140910 -0.033657 0.008367 0.134211
コース -0.185622 -0.005903 0.106730 0.134863 -0.011669 -0.085295 -0.288029 -0.033144 0.038138 -0.141397
起こる 0.162001 -0.167672 -0.130882 -0.283277 -0.132856 0.175505 -0.294218 -0.289522 -0.127121 -0.581850
つらい -0.118976 -0.118288 -0.045449 0.002215 0.067868 -0.089978 -0.183312 -0.082174 -0.003966 -0.221952
タイプ -0.133814 -0.048415 -0.017975 0.125854 -0.077705 -0.111030 -0.126644 -0.114587 -0.012943 0.027124
再生 -0.110525 -0.138076 0.004728 0.203744 -0.005446 -0.056506 0.041008 0.010095 -0.123635 0.095630
置く 0.046988 -0.131273 0.284777 -0.107608 -0.111641 0.153129 -0.235074 -0.559282 -0.140102 -0.300147
支援 -0.169662 -0.020131 0.012047 0.215571 -0.049583 -0.047085 -0.193760 -0.189270 -0.078708 -0.097944
は. 0.028840 0.128783 0.090149 -0.065873 0.001179 -0.115292 -0.044470 -0.121614 -0.080542 0.131078
結局 -0.082854 -0.104465 -0.046881 -0.028498 -0.043294 -0.154609 -0.151834 0.122291 -0.103819 0.021631
奇麗 -0.140513 0.060024 -0.287591 0.089521 0.022812 -0.097569 0.023367 -0.093840 -0.131609 -0.134499
当時 -0.123262 -0.193155 -0.088675 -0.056901 -0.042910 -0.043159 0.071033 0.090943 0.047816 0.171839
制限 -0.153330 -0.104014 -0.023011 0.062648 0.107896 0.114479 -0.029149 -0.095768 -0.017653 -0.095150
発音 -0.131708 0.061617 -0.013899 0.030767 0.118253 -0.216686 -0.166550 0.120986 -0.090601 -0.018622
重 -0.118732 0.021104 -0.023247 0.004724 -0.320202 -0.104738 -0.143299 -0.132554 -0.009302 0.269862
説得 -0.216369 -0.090428 0.020562 0.205136 -0.000364 0.000188 -0.230219 -0.105964 -0.069584 -0.201353
０ -0.172713 0.011830 -0.123295 0.220609 -0.197101 -0.075236 -0.134579 0.041063 0.187811 -0.122997
設計 -0.109237 -0.064402 0.080701 0.053979 0.091231 -0.099003 -0.072683 -0.088212 0.021059 0.073927
酒 -0.200877 -0.056516 -0.166903 0.023024 0.071846 -0.097766 -0.109025 0.140399 0.093371 -0.133225
円 -0.265463 -0.242613 0.191063 0.015586 -0.244206 -0.131737 0.146160 0.010126 0.174867 -0.017823
合わせる 0.219627 -0.094225 0.107606 -0.395147 -0.022790 0.189678 -0.271113 -0.377878 -0.267238 -0.038062
技術 -0.116162 0.074275 0.022444 -0.070312 -0.019762 -0.075700 -0.274901 -0.058949 0.017251 -0.110534
そもそも 0.010954 0.005440 -0.120021 -0.013211 0.080139 -0.052902 -0.100888 0.155263 -0.006544 -0.099249
潜在 -0.069324 0.165171 -0.046856 -0.050664 0.093860 0.026802 -0.165493 0.080722 -0.128983 0.041110
男性 -0.182359 -0.079371 0.002711 0.163162 -0.318009 -0.056081 -0.216416 0.027697 0.065137 -0.098282
まま -0.168265 -0.012172 0.035741 0.010114 -0.100545 -0.201081 -0.060824 -0.144249 -0.108850 -0.026980
別に -0.196681 -0.080186 -0.025222 0.018114 -0.005403 -0.042272 -0.061715 0.060575 0.040873 0.035947
いける 0.384695 0.071044 -0.192919 -0.047422 -0.067190 -0.218702 -0.001756 -0.138425 -0.083567 -0.410453
すい -0.037467 0.172695 0.102580 -0.044064 0.118773 -0.105592 -0.127705 -0.054733 0.066749 0.019137
目標 -0.300754 -0.071310 0.061201 0.030827 -0.085050 -0.051580 -0.285014 -0.116955 -0.033335 -0.330651
以前 -0.168728 0.020830 -0.089381 -0.034648 -0.013692 -0.159186 -0.157766 0.027401 -0.035539 0.027616
直前 -0.349998 0.185771 -0.041394 0.223161 -0.070513 -0.347515 -0.376024 0.109461 -0.216116 -0.210491
イコール -0.018081 0.009153 0.088443 -0.031252 -0.184273 -0.031365 -0.112854 -0.082670 -0.016836 -0.062030
東京 -0.111021 0.065173 -0.090266 -0.009090 0.029944 -0.111123 -0.084691 -0.010622 -0.089744 0.017941
こうした -0.025874 0.060574 0.128192 -0.064113 0.020600 0.050445 -0.060600 -0.020409 -0.008315 0.080947
買う 0.149611 -0.209807 0.120050 -0.187132 -0.092406 0.097124 -0.133986 -0.256982 -0.211221 -0.191759
顔 -0.170790 -0.223805 -0.021862 0.231683 -0.037971 -0.094763 -0.027953 0.049588 -0.112526 -0.226756
見える 0.157652 -0.089274 -0.040736 -0.153187 -0.137618 0.031363 -0.088102 -0.153266 -0.210395 -0.196186
α -0.280640 -0.103210 -0.015495 0.233183 -0.133007 -0.095514 -0.286151 -0.117157 -0.026297 -0.133484
リスト -0.089255 -0.028936 0.015741 0.014687 -0.095747 -0.051317 -0.120689 -0.016074 0.058501 -0.111190
全 0.051428 -0.032441 0.163816 -0.004111 0.009223 -0.097142 -0.103532 -0.023077 0.107468 0.104297
楽しい 0.014945 0.013086 -0.144835 -0.059920 -0.002825 -0.019519 0.043213 0.071734 -0.013282 0.146215
生まれる 0.120951 -0.177153 0.068204 -0.202178 -0.020285 -0.077661 -0.179663 -0.185188 -0.047662 -0.148523
中心 -0.302825 -0.215162 -0.096926 0.200403 0.028965 -0.140835 -0.257284 -0.015446 -0.183614 -0.279449
なかなか 0.005375 0.064821 -0.128938 -0.078284 0.048732 -0.102505 0.069261 -0.024829 0.057161 -0.094251
解決 0.030118 -0.107536 -0.074315 0.228083 -0.038114 0.086496 -0.004342 0.014388 -0.297548 0.063496
相手 -0.116055 -0.219341 0.048382 0.216188 -0.069392 -0.039357 -0.297782 -0.082670 -0.266431 -0.113255
よる -0.075415 0.181971 0.117186 -0.145503 -0.102812 -0.073041 -0.039898 -0.189564 -0.141456 -0.120681
くれる 0.343915 -0.356593 0.230659 -0.291099 -0.047088 -0.010050 -0.246161 -0.392665 -0.299051 0.062444
十分 -0.206883 0.010032 -0.254124 0.070992 -0.115638 0.183031 -0.075959 -0.159445 -0.182726 -0.150652
大変 -0.143245 0.025779 -0.246565 0.086521 -0.122140 -0.141844 -0.001230 -0.203443 -0.087992 -0.032645
疑似 0.162786 -0.100123 -0.153448 0.060499 0.038899 0.043094 -0.111944 0.103436 0.023306 0.017124
対す 0.078692 -0.117295 0.185357 -0.427505 -0.134485 0.161936 -0.235534 -0.390968 -0.259557 -0.089515
対処 -0.095650 -0.101708 -0.213190 0.228172 0.063520 -0.015940 0.063646 0.028020 -0.345270 0.200739
パス -0.207441 -0.105201 -0.062472 0.115603 0.055615 -0.122279 -0.345793 -0.158489 -0.123350 -0.162463
現象 -0.209989 -0.066232 -0.191235 0.181912 -0.062809 0.000683 -0.253298 0.124994 -0.047400 -0.179758
学校 -0.232764 -0.072593 0.008158 -0.021503 -0.046227 -0.247422 -0.222273 -0.144612 -0.029645 -0.041989
島 0.020879 0.065052 -0.028544 0.145355 -0.087525 -0.113036 -0.109799 -0.138542 -0.029115 -0.054265
会 -0.176497 0.043552 0.103636 0.030220 -0.068718 -0.100871 -0.058287 0.114951 -0.066806 -0.146338
相当 -0.348541 -0.155003 -0.162659 0.193474 -0.134704 0.235442 0.103672 -0.062385 -0.345768 0.004104
マイナス -0.140123 -0.194578 0.043984 0.079172 -0.080043 -0.197677 -0.131816 -0.155120 -0.121579 -0.127079
ＨＭＭ -0.179102 0.083138 -0.091884 0.083831 -0.008032 -0.105363 -0.285322 0.028609 0.010027 -0.141645
ワン -0.208913 0.211893 0.029435 0.036430 0.013613 -0.169831 -0.212667 -0.018399 -0.129597 -0.066623
毎日 -0.025179 0.056416 0.062184 0.050599 -0.055016 -0.057997 -0.064008 -0.034747 0.126462 -0.093481
すねる 0.111923 -0.234586 0.074034 -0.212777 -0.084404 -0.221074 -0.193604 -0.113976 -0.096221 0.017695
現実 -0.121312 -0.176437 -0.066797 0.121882 -0.053833 -0.127889 -0.232212 -0.160752 0.033599 -0.181164
トライ -0.069607 0.040011 0.058042 -0.105956 -0.148330 0.048512 0.073165 -0.018407 -0.032778 0.077520
国際 0.023326 0.023873 -0.139124 0.150481 -0.113044 -0.086475 -0.161485 0.027838 -0.005234 -0.010213
喋る 0.133808 -0.029771 -0.012316 -0.188083 -0.139421 0.017475 -0.121238 -0.341298 0.002108 -0.242085
参照 -0.055712 -0.176802 0.045808 0.216816 0.064040 -0.004476 -0.221720 -0.101303 -0.201470 0.110000
ただし -0.132913 0.045277 0.029470 -0.018912 0.021485 -0.144250 0.060375 -0.033831 0.080639 -0.043734
成分 -0.042643 -0.083613 -0.007711 0.039592 -0.047961 -0.177567 -0.141360 0.060196 0.105214 0.003487
手掛かり -0.135550 -0.102530 -0.136814 0.173645 -0.085051 -0.010744 -0.055491 -0.089587 0.008442 -0.164624
使える 0.113074 0.022189 -0.149252 -0.084801 -0.010575 -0.073423 -0.114080 -0.028167 -0.126111 -0.151331
もしくは 0.093876 0.205142 -0.025827 -0.025763 -0.069256 -0.129767 0.049654 -0.132292 0.130760 0.145603
置換 0.104827 0.011688 -0.083938 -0.058271 0.053662 -0.085704 -0.027384 -0.027473 0.011259 0.311444
教育 -0.113143 0.017110 -0.049364 0.125929 -0.167470 -0.194844 -0.253651 0.050948 -0.078412 -0.123781
コード 0.140656 0.145714 0.146642 0.097036 -0.017502 0.013895 -0.104981 -0.091884 0.198949 -0.017644
歯 -0.040833 -0.142086 -0.036884 -0.036002 -0.142799 -0.143126 -0.089629 -0.259192 -0.013992 -0.272137
ね. 0.187809 -0.212290 0.096148 0.173719 -0.396151 -0.222421 0.173606 0.027892 -0.294917 0.287440
まずは -0.004554 -0.028315 0.021111 -0.067067 -0.136804 0.020605 0.052163 0.004280 -0.057999 0.103026
紹介 -0.110179 -0.109098 -0.060648 0.125280 0.075858 0.058435 0.138529 -0.082355 -0.359151 -0.030144
御覧 -0.186991 -0.088655 0.033166 0.065010 0.092802 -0.217727 -0.283982 -0.072539 0.028878 -0.268254
期待 0.029853 -0.214170 -0.110098 0.141271 0.085965 0.126755 0.048352 -0.049142 0.015410 -0.108386
または -0.006981 0.158276 -0.024780 -0.004217 -0.057464 -0.044238 0.038308 -0.009220 -0.041442 0.135480
とる -0.082919 -0.037394 0.005526 -0.090628 0.067031 0.172726 -0.008446 0.341992 0.098520 0.138843
考え方 -0.178249 -0.165152 -0.123807 0.101974 -0.102891 -0.013752 -0.037344 -0.098856 0.069455 -0.148641
名前 -0.174241 -0.235938 0.008651 -0.081863 -0.219401 -0.170849 -0.068106 -0.066387 -0.203986 -0.108241
つい -0.321935 0.146528 -0.065538 -0.033511 -0.232580 -0.034161 -0.007176 -0.069776 -0.272813 -0.193829
上がる 0.042484 -0.132786 -0.076806 -0.137879 -0.109246 0.035308 -0.280633 -0.190113 -0.147362 -0.190493
局所 -0.146457 0.103890 -0.189361 0.057437 0.071906 0.024273 -0.056535 0.110433 -0.012328 0.041866
反映 -0.141174 -0.231860 -0.074940 0.213274 0.117312 0.019404 -0.147338 -0.015298 -0.175632 -0.010929
ところが -0.137500 0.045077 -0.082602 -0.071745 0.089113 -0.170565 0.136265 0.033117 -0.025466 -0.012417
括弧 -0.220840 -0.143180 -0.001073 0.061163 -0.002159 -0.140360 -0.045077 0.086935 -0.117664 0.018088
Ｃ -0.285995 -0.035492 -0.020665 0.147264 -0.161500 -0.168206 -0.262032 -0.002465 0.004018 -0.177734
試合 -0.233217 -0.073328 -0.016065 0.046250 -0.164329 -0.016703 -0.081372 -0.095504 -0.044334 -0.070309
常に 0.065411 -0.109909 -0.028137 0.060077 -0.019989 -0.020314 0.030372 0.074377 -0.017891 0.006673
五つ -0.157926 -0.023380 0.009227 0.044121 -0.056735 -0.162593 -0.097476 0.108270 -0.178991 0.072379
定式 0.013100 -0.113887 0.131347 0.022763 -0.149952 0.152297 -0.195954 -0.018040 -0.202217 -0.075865
取れる 0.123041 -0.176569 -0.111245 -0.093543 -0.107373 0.000268 -0.241648 -0.205051 -0.055421 -0.158012
試す 0.068034 0.018805 0.280916 -0.233012 -0.048369 -0.020594 -0.193635 -0.225585 -0.181991 -0.163152
舌 -0.138758 -0.005934 -0.044027 0.025824 -0.130293 -0.001114 -0.107273 -0.071466 -0.009224 -0.168009
既に 0.091297 0.030568 -0.000518 0.098474 -0.033158 -0.056769 -0.016628 -0.018937 0.004043 -0.093797
仮説 -0.297128 0.016100 -0.122416 0.142332 -0.151377 -0.197004 -0.196824 0.044318 0.067334 -0.252234
全然 -0.080368 -0.108056 -0.067857 0.111620 0.058944 -0.028956 -0.043204 0.097274 0.045321 0.066334
始める 0.043134 0.131302 0.186565 -0.307304 -0.270065 0.075049 0.001058 -0.127428 -0.180694 -0.160974
感じる 0.113563 -0.153415 0.103078 0.003268 0.034092 -0.063008 -0.152204 -0.185864 -0.117689 -0.181813
手順 -0.212115 0.020351 -0.034397 0.093420 -0.146078 -0.224503 -0.158565 -0.102229 -0.061561 -0.096899
しれる 0.135734 -0.082785 -0.189697 -0.189199 -0.068091 -0.097617 0.037441 0.107636 0.025524 -0.291898
頑健 -0.425072 0.238707 -0.325360 0.009326 -0.303703 0.021270 -0.029254 -0.072213 -0.125495 -0.107018
自由 -0.228300 -0.145949 -0.079424 0.193325 -0.079520 -0.024174 -0.021085 -0.022857 -0.046636 -0.094855
曖昧 -0.232659 0.074100 -0.041059 0.020364 -0.230804 -0.025619 -0.056118 -0.015613 -0.035639 -0.027097
ルール -0.212951 0.085371 0.011913 0.052986 -0.129256 0.014541 -0.252838 0.138229 -0.117398 -0.025843
リコール -0.161180 -0.091970 -0.052129 -0.095846 0.059777 -0.183042 -0.149458 -0.041689 -0.107058 -0.159251
ばらつき -0.025919 -0.056487 -0.156244 0.136059 -0.008364 0.002682 -0.267595 -0.028623 -0.063148 -0.345394
取り敢えず 0.185717 0.119893 0.005412 -0.175450 0.006687 -0.007991 0.079040 -0.132251 0.035310 -0.106017
増やす 0.135504 -0.138988 0.261187 -0.073418 -0.054937 0.105844 -0.410731 -0.050577 -0.041594 -0.206932
詳細 -0.136820 0.054410 0.026577 0.079493 -0.134543 -0.146148 -0.241034 0.145391 -0.091367 -0.175794
前半 -0.232699 -0.000645 0.074878 0.147613 -0.035641 -0.074296 -0.139430 0.104125 -0.065852 -0.049053
直接 -0.147492 -0.036991 -0.082571 0.121508 0.137720 0.095583 0.051692 -0.017716 -0.077349 -0.006343
キー -0.127623 -0.146536 0.026958 0.086411 0.056861 -0.047260 -0.145122 -0.111601 -0.015671 -0.198591
こっち -0.188754 -0.115554 -0.068439 0.067789 -0.100242 -0.098900 -0.153435 0.020491 0.051110 -0.211756
夏 -0.191627 -0.119220 -0.093986 0.080083 -0.092299 -0.131118 -0.236927 -0.021283 -0.102867 -0.110204
後半 -0.207957 -0.036745 0.034230 0.150855 -0.030857 -0.173759 -0.320215 -0.048060 -0.206522 0.027423
観点 -0.295225 -0.024164 -0.089771 0.081189 0.022183 -0.026363 -0.305599 0.018911 0.014487 -0.116812
ＳＤ -0.238185 -0.148452 0.047067 0.026779 0.011407 -0.033230 -0.135449 -0.118813 -0.149010 0.063752
専門 -0.178475 -0.004262 -0.165929 0.051314 -0.105367 -0.133129 -0.151383 0.020928 -0.021520 -0.032857
テストデーター -0.160733 -0.041172 -0.023008 0.201822 0.019416 -0.118690 -0.182266 -0.016898 -0.017288 -0.374284
不 0.011761 -0.025360 -0.025362 0.018934 -0.126230 0.023728 -0.012500 0.058709 0.018543 0.112154
作業 -0.165183 0.090121 -0.038446 0.091070 -0.240201 -0.056066 -0.244841 -0.196957 -0.006655 -0.155694
エンジン -0.302219 0.146378 0.148638 -0.025081 -0.038372 0.149140 -0.264874 0.164879 -0.063351 -0.257272
ＶＱ 0.038208 0.165290 0.108774 0.104957 -0.029004 -0.003690 -0.076805 -0.167073 0.067401 -0.024210
なる. -0.009778 0.147098 -0.104884 -0.033931 -0.234056 0.047691 -0.025735 -0.312515 -0.117939 -0.279480
おる. 0.247098 -0.394033 0.166350 -0.128446 0.032728 0.061638 -0.092407 -0.251669 -0.331474 0.163198
仕事 -0.217949 -0.119519 -0.066988 0.104261 -0.026213 -0.066849 -0.119688 0.072851 -0.186577 -0.248598
映画 -0.106692 0.037158 -0.051492 0.057549 -0.150161 -0.150178 -0.129871 -0.002405 0.001474 0.022236
上昇 -0.151524 -0.321445 -0.045765 0.259841 0.019509 0.037727 -0.064955 -0.028959 -0.318493 0.157301
