2844 100
sent_0 -0.122086 -0.194849 0.108334 -0.120528 -0.200752 -0.058971 0.163154 -0.004071 -0.092419 0.224353 0.335736 0.007007 0.156984 -0.024118 0.195011 -0.062777 -0.105575 -0.101427 0.108254 -0.110824 0.089781 0.065195 0.427495 0.110692 0.143667 -0.024337 -0.120825 0.030053 0.124530 -0.252399 0.140384 -0.056591 0.076241 0.242666 -0.016126 -0.099462 0.105188 -0.081742 0.079681 0.037576 -0.045964 -0.048359 -0.100901 -0.058758 -0.045494 0.059499 0.045959 0.105013 0.116727 -0.043679 -0.103827 0.159788 -0.217281 0.035235 0.055102 -0.033027 0.174366 0.268725 0.088525 -0.022595 0.031638 -0.052417 -0.087249 -0.099538 0.138285 -0.156735 0.056653 0.055820 -0.049572 0.013774 -0.002465 0.259985 0.067071 -0.012637 -0.138746 -0.349689 -0.027382 -0.060648 -0.057178 0.201999 -0.073448 0.157388 -0.138418 0.111098 -0.197863 0.071414 -0.097197 -0.105421 -0.154141 0.112100 0.045658 0.234360 0.177667 -0.099631 0.070819 -0.175058 0.211604 0.032257 0.236706 -0.053623
sent_1 0.106870 0.232828 0.222735 -0.006526 0.211383 -0.101264 0.004492 0.170608 -0.249091 0.012596 -0.080553 0.047528 0.011111 -0.018360 0.007456 -0.096291 0.014247 -0.193142 -0.183819 0.078225 0.199764 0.194176 0.156505 0.043364 0.127153 0.079865 0.197400 -0.154954 0.082908 -0.016458 0.143808 -0.554112 0.092507 -0.010229 0.092575 0.017726 -0.066087 -0.162232 -0.098021 0.039319 -0.019600 -0.215641 0.057923 -0.251255 -0.112786 0.231918 0.129644 0.061090 0.569974 -0.126904 0.088559 0.153291 -0.083739 0.188466 0.058638 0.142027 -0.252483 0.194938 -0.175481 -0.280843 0.057371 0.179322 0.179031 0.051169 -0.018145 -0.002348 0.165285 0.162451 0.269116 -0.102347 -0.176213 0.088793 -0.176725 0.204763 0.061411 -0.052884 -0.057473 0.112130 -0.114636 -0.046378 -0.258750 -0.105843 -0.024193 -0.180164 -0.015732 0.073236 -0.030473 -0.073518 -0.070899 -0.038648 -0.114030 -0.090116 -0.533437 0.092356 0.103945 0.128683 0.403826 -0.000960 0.332284 -0.183993
sent_2 -0.040107 -0.048299 -0.114106 -0.201898 0.239716 -0.022911 0.237826 -0.083363 -0.072879 0.069976 0.011499 -0.242723 -0.049050 0.515228 0.185097 -0.437746 -0.145780 0.023054 0.274579 0.049463 0.264997 -0.123338 -0.281815 0.005337 -0.152778 -0.105615 -0.141892 -0.390990 0.078565 -0.082127 -0.160801 0.075931 -0.209859 -0.002723 -0.007766 0.124448 0.034557 0.053617 -0.424189 0.002022 0.211893 0.261691 -0.176905 -0.464578 -0.424818 0.293404 0.017731 -0.014379 -0.086737 -0.461689 -0.181337 0.443678 -0.282250 0.189859 0.241318 -0.026358 -0.076704 0.270705 0.281917 0.023978 0.041795 -0.242258 0.117881 -0.034777 0.276759 0.378067 -0.406466 0.373451 0.530000 -0.139763 -0.247332 -0.370557 -0.071841 -0.199680 0.365911 0.578362 -0.253568 -0.345476 0.187888 -0.183482 0.085161 -0.013242 0.142867 -0.052933 -0.138594 -0.077292 0.486458 -0.395594 0.051268 0.117380 0.016849 0.024987 -0.253498 -0.327360 0.093638 -0.055210 0.177326 0.357378 -0.364557 -0.066274
sent_3 0.285995 0.143711 0.232198 -0.345880 0.216940 -0.323355 0.142650 0.275956 -0.358715 0.257155 0.022305 -0.201073 -0.052926 0.180817 0.099419 -0.044759 0.001377 0.020601 0.374791 -0.001494 -0.028372 -0.318817 -0.427360 -0.194148 -0.063505 -0.230684 -0.067294 -0.471377 -0.067657 0.003344 -0.124086 -0.130624 -0.112127 0.281426 0.155597 0.260786 0.047591 -0.167371 -0.298648 0.302031 0.042246 0.084235 -0.137259 -0.515094 -0.276091 0.303488 -0.040068 -0.293428 0.142797 -0.365305 -0.139680 0.429562 -0.144834 0.025854 0.063271 0.118814 -0.072243 0.475821 0.173152 -0.062581 -0.083157 -0.249152 0.152344 0.383937 0.156346 0.233879 -0.290845 0.397082 0.179833 -0.063659 -0.374943 -0.423502 0.125747 -0.210704 0.404479 0.350074 -0.216706 -0.658560 0.163604 -0.219606 -0.419000 -0.156963 0.000323 -0.360201 -0.023446 0.268357 0.382723 -0.452042 0.292934 -0.142957 -0.128776 -0.029095 -0.596727 -0.030296 0.000196 0.246664 -0.075001 0.309875 0.046390 -0.188074
sent_4 -0.212069 0.287196 0.416334 0.210130 0.080820 -0.721203 -0.100750 0.324785 -0.078815 0.177007 0.206075 -0.029456 0.017942 -0.002780 0.162519 -0.558002 -0.285104 -0.010639 0.293059 0.146880 -0.135142 -0.621246 -0.114513 0.142263 -0.235076 -0.051410 -0.033350 -0.112241 0.110040 -0.350339 -0.220636 0.032176 -0.174190 -0.315919 -0.243738 -0.047427 0.006582 0.500024 -0.349223 -0.180082 -0.194915 -0.197279 -0.535491 -0.344112 0.004849 -0.037897 0.173001 -0.101609 -0.017801 -0.132683 0.118436 0.544255 -0.268759 0.190391 0.457717 0.505753 -0.174549 -0.005631 0.062734 -0.144171 -0.103498 0.031573 -0.336416 0.095247 -0.145690 0.242363 -0.139761 0.138745 0.585604 -0.134324 -0.434872 -0.146787 0.043378 -0.097572 0.246175 0.744067 -0.122333 -0.389461 -0.348551 -0.188913 -0.430456 0.067776 -0.028178 0.244802 -0.075009 -0.101099 0.466944 -0.298800 0.255852 -0.216274 0.201535 -0.571359 0.429594 -0.365664 0.289338 -0.124481 -0.517174 0.215283 -0.435006 -0.090315
sent_5 0.194445 0.069470 0.121845 -0.415863 0.282296 -0.275141 0.061240 0.289295 -0.172315 0.349091 0.048990 -0.341323 0.345333 0.044778 -0.274678 -0.263978 -0.254019 -0.133534 0.126153 -0.107891 0.050342 -0.281993 -0.101696 0.056308 -0.079495 -0.254330 -0.006600 -0.485084 -0.043729 0.024913 0.009388 0.029766 -0.191464 0.051115 0.148666 0.336257 -0.329341 -0.220901 -0.360988 0.257434 -0.133514 0.277461 -0.108797 -0.305346 -0.262042 0.010651 0.121931 -0.084376 0.226035 -0.301807 0.228165 0.362493 -0.086682 -0.216588 0.411539 0.167462 -0.127994 0.523510 0.063187 -0.063040 -0.110444 -0.402785 0.424004 -0.103815 0.159580 -0.124909 0.016966 0.600084 0.437455 0.058333 -0.520558 -0.361029 0.014722 -0.205996 0.279927 0.239267 -0.096024 -0.155529 0.040077 -0.265419 -0.187448 -0.103662 0.385956 -0.135719 -0.116815 0.480286 0.573417 -0.414913 -0.053690 -0.006127 -0.031041 0.057479 -0.087110 0.174106 0.184093 0.146034 -0.184928 -0.058065 0.103971 0.045141
sent_6 0.243673 -0.538054 -0.046699 -0.587582 0.058861 -0.121841 0.333397 -0.010680 -0.198992 0.157167 0.010422 -0.305677 0.229491 0.031778 -0.073617 -0.352674 0.211681 -0.279572 0.273188 0.052159 -0.370586 -0.223837 -0.257107 -0.183037 -0.160507 -0.379887 0.246297 -0.770252 0.081050 -0.009593 -0.051205 0.344253 -0.560308 0.427093 -0.019299 0.136747 -0.485713 -0.165635 -0.262294 0.178786 0.429012 0.486699 -0.352714 -0.451556 -0.517586 0.541214 -0.136726 -0.187467 0.546917 -0.736853 -0.515539 0.671348 -0.117626 0.110425 0.503264 -0.113363 0.062672 0.609874 0.481883 0.214568 0.424827 -0.619175 0.128083 0.075110 0.246654 0.326943 -0.051826 0.178388 0.487941 0.353960 -0.337998 -0.459901 0.038540 0.078068 0.451127 0.116189 -0.038727 -0.470639 0.216761 -0.028901 -0.164606 -0.042451 0.166210 -0.387586 -0.347106 0.357166 0.665791 -0.521035 0.218206 -0.394927 -0.205847 0.205869 -0.764469 -0.065406 0.160391 0.260884 0.246683 0.295120 0.231699 -0.136318
sent_7 0.528248 -0.187666 0.242531 0.080009 0.317100 -0.375264 -0.192720 -0.269637 0.284159 0.315572 -0.140205 0.221917 -0.087016 0.161021 -0.133457 -0.471792 0.361738 0.352950 -0.122488 -0.199118 -0.013151 0.100047 0.001749 0.010221 -0.509048 -0.161324 0.299475 -0.165465 -0.122050 0.334204 -0.218640 -0.359994 -0.137235 -0.471169 0.117116 0.292630 -0.057185 -0.425907 0.086675 0.123933 0.241173 -0.211429 -0.233773 -0.257658 -0.072458 0.255782 0.220769 -0.499523 0.057127 -0.343320 0.152842 0.207231 0.338435 0.014379 0.170636 -0.021832 -0.141023 0.286025 0.128510 0.305850 -0.215483 -0.136535 0.203998 -0.027111 0.141884 0.157145 -0.332997 0.097405 -0.041359 0.460009 -0.445830 0.368475 0.312045 0.250847 0.072947 0.206285 -0.206727 0.028365 0.264123 0.325546 0.280972 0.250553 -0.049547 -0.382475 0.120358 0.098356 0.106875 0.209176 -0.048099 -0.332488 -0.009814 -0.333356 -0.006653 -0.244196 0.074498 0.334090 -0.198965 -0.219008 0.227666 -0.202856
sent_8 0.044897 0.518384 0.369317 -0.539541 0.767007 -0.499992 0.157653 0.261353 -0.062822 0.039131 -0.433819 -0.086292 -0.150947 -0.028374 -0.595321 -0.331235 -0.134307 0.140797 0.176321 0.056616 -0.046734 0.059071 -0.036234 -0.128306 -0.233471 -0.152755 0.166886 -0.357683 -0.419736 0.329587 -0.256336 -0.095313 -0.165735 -0.054791 0.248507 0.276371 0.153632 -0.197001 0.161981 0.019402 0.045985 0.030725 -0.209304 -0.027969 -0.123724 0.287639 0.370317 -0.030037 0.107279 -0.019234 0.259428 0.500949 -0.015694 -0.372671 0.233411 -0.064799 0.200553 0.533156 0.228567 0.156610 0.093004 0.079111 0.328718 0.443677 0.304744 0.080064 0.233803 0.470984 0.687492 0.093724 -0.594013 -0.019740 -0.384435 0.028163 0.048978 0.402180 -0.459337 -0.407629 0.015412 -0.055571 0.002848 0.099466 0.337603 -0.218705 -0.138512 0.272368 0.012188 -0.245212 -0.167910 0.077723 0.058226 -0.054516 -0.546443 0.009537 0.233952 0.295811 0.054834 0.090907 0.132082 -0.058968
sent_9 0.237134 -0.053281 0.108198 -0.055110 -0.049467 -0.088176 -0.010026 0.058508 -0.219207 0.341150 -0.030707 0.145644 0.129471 0.092710 -0.071218 -0.094463 0.128596 -0.016865 -0.066332 -0.045374 -0.227828 0.043880 -0.040199 0.133071 0.141198 -0.188033 0.278495 -0.026389 -0.234795 0.376740 -0.169605 -0.325643 -0.198753 0.001236 0.043560 0.103292 -0.064044 -0.109411 0.134984 0.118541 0.224087 0.051263 -0.235193 -0.169035 -0.002174 0.107556 0.199061 0.011612 0.019485 -0.300746 0.133186 -0.040659 -0.148818 0.032164 -0.151448 0.053315 0.108011 0.318641 -0.182624 -0.042743 -0.064546 0.037470 0.204855 0.164896 0.051961 0.043513 -0.260807 0.124371 -0.275740 0.043768 -0.186447 0.222390 0.047122 -0.123877 -0.010775 -0.287197 -0.338070 -0.027593 0.023135 -0.091814 0.081132 -0.046470 0.086351 -0.046547 0.156074 -0.078597 0.041521 -0.114767 0.066462 -0.045069 0.186429 0.130873 -0.110408 -0.007165 0.015983 -0.034711 0.033742 0.100264 -0.253346 0.093148
sent_10 0.046986 -0.504917 -0.143149 -0.100524 0.247359 0.003166 0.295154 0.024753 -0.219266 0.183577 0.392661 -0.239955 0.531899 0.006158 -0.072705 0.082326 -0.021644 -0.225712 0.142027 0.119354 0.031119 0.044674 0.325327 -0.143865 0.248581 0.236324 -0.120588 -0.311048 0.154827 0.110225 0.183502 -0.157797 0.189123 0.489165 -0.246334 -0.057497 -0.260720 0.357482 -0.302512 0.395070 0.162336 0.202008 -0.473021 -0.226149 -0.172339 0.034264 -0.103385 0.036233 -0.157959 -0.411097 -0.102761 0.493511 -0.259602 -0.046231 0.206465 0.133527 0.195372 0.287372 0.259354 -0.076558 0.069380 -0.330040 0.188105 -0.140365 -0.113096 -0.063032 -0.098515 0.029468 0.243079 -0.117882 0.361403 -0.066851 -0.304857 -0.238934 0.047323 0.248335 -0.070772 -0.243181 0.208773 -0.364471 0.154815 0.051707 0.231204 -0.045877 0.033558 0.096724 0.061982 -0.299315 0.178496 -0.010946 0.211642 0.297174 0.096659 -0.033854 -0.004010 -0.150186 0.258452 0.106192 -0.092694 -0.253054
sent_11 -0.078185 -0.078362 -0.244343 0.253572 -0.044542 0.426475 0.240543 -0.279223 0.065961 0.108602 0.091230 0.138680 -0.119508 -0.305486 -0.080093 0.024274 -0.132803 0.026238 0.122955 0.028576 0.230124 0.362017 0.132470 0.473507 0.203056 -0.136462 -0.252937 0.110223 -0.082611 -0.103448 -0.059405 -0.097633 -0.096190 0.203968 0.022928 0.272502 -0.205415 -0.139089 0.020766 0.083778 -0.020946 0.401579 0.016027 0.068261 -0.075123 0.221293 0.290066 -0.008156 0.060089 0.046553 -0.185426 0.160337 -0.152447 0.098745 -0.143967 0.224253 -0.167672 -0.250556 -0.181421 0.136990 -0.175878 0.284342 0.201568 0.036086 0.127941 0.015156 -0.124437 -0.284656 0.115569 -0.020457 0.033185 0.146275 0.132828 -0.193182 0.019089 -0.057157 0.115545 0.213194 0.066252 0.115928 0.242529 0.025942 0.204872 -0.024196 0.282993 0.176272 -0.072635 -0.216285 -0.130204 -0.200191 -0.320260 0.225781 0.160695 -0.253909 -0.254405 -0.500481 0.172963 -0.085524 -0.041711 0.037559
sent_12 0.107325 0.058488 0.029945 0.005036 -0.144703 -0.060804 0.147950 -0.067914 -0.144833 0.173504 -0.003328 0.192409 0.001991 0.031823 0.101147 0.040055 -0.187360 0.026903 -0.031060 0.088374 0.027757 0.012245 0.080023 0.177565 0.087955 0.033760 0.109533 0.206693 -0.242052 0.342674 -0.054903 -0.022700 -0.132827 -0.053083 0.023555 -0.007195 0.006802 0.043169 -0.021494 0.049287 0.065514 0.061244 -0.048960 -0.209044 -0.125049 0.109832 0.206846 0.331738 -0.292570 -0.201674 -0.226486 0.098600 -0.272395 -0.079375 -0.092523 0.056858 -0.029472 -0.044538 0.028965 -0.151163 -0.104082 0.292180 0.240532 0.100758 -0.055885 -0.039785 -0.021918 0.004971 -0.073137 -0.118528 -0.098470 0.153457 0.074079 -0.176574 0.017389 -0.099127 0.109985 0.220530 0.140876 0.002721 0.058569 -0.078180 0.121944 0.062272 0.212200 -0.128694 0.069066 -0.109832 -0.013766 0.017510 0.152194 0.232047 0.142307 0.009460 -0.059285 -0.088975 0.199435 0.032426 -0.114004 0.090167
sent_13 0.072852 0.133452 0.182598 -0.202795 0.048030 0.010472 0.056661 0.045032 -0.026381 -0.050160 0.266464 -0.010160 0.086223 -0.239009 -0.084599 -0.038553 -0.207866 -0.156421 0.184406 0.000369 0.054668 0.010261 0.162274 -0.067232 -0.004205 0.061212 0.043787 0.043111 -0.078795 0.108885 -0.024395 0.116309 0.008434 0.112795 0.263487 0.254353 -0.213104 0.120194 -0.022406 0.246492 -0.145109 0.016472 -0.034776 0.015850 -0.031583 0.026409 0.222688 0.164219 -0.051998 0.003759 -0.044469 0.195224 -0.142691 -0.086718 0.083560 0.148639 0.017416 0.114000 0.155369 -0.094630 -0.026207 0.098508 0.270731 0.027313 -0.117207 -0.036079 0.071233 -0.127556 -0.057331 -0.278568 0.111295 -0.199454 -0.055658 0.030877 -0.009315 0.135925 0.152394 0.051723 0.046959 -0.215366 -0.137755 0.144931 -0.043236 -0.074037 0.272722 0.138775 -0.023627 -0.146816 -0.043772 -0.021154 -0.067819 0.142125 -0.032032 0.100343 -0.115517 0.118195 0.146397 -0.052017 0.015592 -0.107452
sent_14 -0.141080 0.051360 0.103029 -0.129070 0.130372 -0.366445 -0.016765 -0.117436 0.012891 0.181630 0.199008 -0.001414 -0.147800 -0.225027 0.140502 -0.175748 -0.144645 -0.109612 0.160451 -0.070491 0.055347 -0.172385 0.108487 0.187188 -0.314847 -0.157832 -0.113266 -0.009479 0.129029 -0.261864 -0.162630 0.303619 -0.260377 -0.039188 0.012893 -0.028697 -0.018472 -0.197857 -0.002734 0.039775 0.017149 0.079371 -0.362512 -0.287082 -0.178922 -0.049662 0.193062 -0.093831 -0.092054 -0.086054 0.092805 0.229115 -0.252188 0.045906 0.118819 0.234020 -0.017665 0.422863 -0.003440 0.037531 -0.052013 -0.138805 -0.098243 0.173163 0.248100 -0.026201 -0.067699 0.119052 0.215889 0.006144 -0.508062 -0.146760 0.180928 -0.216601 0.031795 0.154432 -0.066204 -0.164148 -0.168658 0.244674 -0.072676 0.030777 -0.076703 -0.019897 -0.266538 0.196422 0.159031 -0.264229 0.094156 -0.034485 -0.032601 -0.097345 0.290467 -0.176325 0.121877 -0.191091 0.098471 0.183951 -0.087794 0.054108
sent_15 0.511270 -0.032235 0.119865 -0.339672 0.582325 -0.277171 -0.002824 -0.157634 -0.410574 0.297193 -0.019454 -0.325973 0.229014 -0.205023 -0.321217 -0.340506 -0.386270 0.020529 -0.019024 -0.234044 0.116391 0.102994 -0.094935 -0.222290 -0.086676 -0.501169 -0.021555 -0.452613 0.544962 -0.173780 -0.454653 -0.362456 -0.315321 0.090273 0.017205 0.081937 -0.532769 -0.605916 -0.257111 0.132045 0.163842 0.445988 -0.161347 -0.661438 -0.635410 0.066634 0.072370 -0.234633 0.149301 -0.509935 -0.116484 0.641578 -0.213704 0.034699 0.367845 0.150180 -0.116239 0.194753 0.257175 0.118232 -0.217459 -0.098857 0.465551 0.180874 0.504291 -0.002916 -0.122126 0.171381 0.866538 0.181177 -0.542521 -0.280493 -0.281494 -0.068875 0.428849 0.357774 0.071343 -0.161707 0.022325 -0.070209 -0.048454 0.288930 0.420512 -0.459334 0.124970 0.178933 0.498283 -0.300053 0.077385 -0.372108 -0.070162 0.277225 -0.169699 0.291886 0.360255 -0.002009 0.124512 0.420696 0.362865 -0.314716
sent_16 0.023082 -0.306967 -0.149835 -0.070424 0.569541 -0.065926 0.117818 -0.014209 0.009542 0.053279 0.328682 0.314815 0.200713 0.268893 -0.131610 -0.428208 -0.083180 0.023171 0.147174 -0.043541 -0.324463 0.224620 -0.427487 -0.301955 -0.039008 -0.182581 -0.083385 -0.762964 -0.099807 0.025101 -0.175856 -0.816648 -0.573513 -0.226932 0.166571 -0.096004 -0.487187 -0.198264 -0.147325 0.173901 0.239381 0.541453 -0.251163 -0.764719 -0.274046 0.489113 0.275246 -0.419501 0.171326 -0.581514 -0.085360 0.485323 -0.189292 0.332180 0.372574 -0.138537 -0.039702 -0.036372 0.392248 0.311646 0.159368 -0.139691 0.547749 0.100570 0.396419 0.438740 -0.422316 -0.017175 0.398537 0.125805 -0.240536 -0.055259 0.081170 0.096971 0.572026 0.941004 -0.034778 -0.217335 0.199157 -0.296083 0.165153 0.090249 0.394965 -0.880787 -0.058947 0.424996 0.429776 -0.527905 0.286512 -0.461171 -0.444436 0.066098 -0.221500 -0.046662 0.204934 0.065678 0.292024 0.447235 0.016076 -0.410765
sent_17 0.018727 0.028478 0.037693 -0.012671 0.003069 -0.021643 0.081150 -0.167067 -0.068074 0.092520 -0.218723 0.085592 0.029066 0.045485 0.098725 -0.034934 -0.179298 0.017952 -0.131878 -0.033094 0.047970 0.126192 0.008353 0.082901 0.124367 -0.057103 0.037863 -0.000423 0.016638 0.082850 -0.147659 -0.106145 -0.034679 -0.030758 -0.088662 0.024579 0.002952 -0.198936 0.226928 -0.141814 0.186345 0.018396 -0.094897 -0.095897 -0.122822 0.031416 0.071415 0.147282 -0.125504 -0.081951 -0.104664 0.153704 -0.068480 -0.008795 -0.008845 -0.006245 -0.094037 -0.009516 0.084390 0.097965 -0.160627 0.063774 0.115273 0.166981 0.101357 -0.002432 -0.108548 -0.034664 -0.040950 0.123767 -0.091261 0.043199 -0.069094 -0.055804 0.106058 0.061021 0.068976 0.133427 -0.061284 0.006985 0.032689 -0.004675 0.068508 -0.049126 0.089278 -0.192422 0.003523 -0.034270 -0.084061 0.025415 0.066870 0.011760 -0.084559 0.023250 -0.029625 -0.122094 0.007581 0.095701 -0.163399 -0.137064
sent_18 -0.047506 -0.251357 0.060538 -0.182335 0.156930 -0.028815 0.082129 -0.015048 -0.064892 0.108154 0.095674 -0.019887 -0.214378 -0.196684 -0.054175 -0.031133 0.161424 0.058130 0.051839 0.015228 0.078978 0.179991 -0.074305 -0.127008 -0.330119 -0.023004 0.026756 0.079933 -0.036577 -0.002392 -0.000162 0.105345 -0.182882 -0.017245 0.273605 -0.048199 -0.027289 0.066279 -0.037798 0.065560 -0.109692 0.292551 -0.015038 -0.049316 0.049700 0.092206 -0.000205 -0.078076 -0.117987 0.061095 0.061908 0.178265 0.165742 0.294422 0.133293 0.131936 0.075218 0.133119 0.008566 0.042537 0.232542 -0.040478 -0.042423 0.132325 0.096713 0.253426 -0.141131 0.068132 0.196896 -0.192321 -0.111127 -0.073552 -0.035739 -0.066492 -0.050850 0.200208 -0.221733 0.031120 -0.064117 0.185649 -0.026940 -0.068630 -0.092268 -0.104376 -0.059140 0.070676 0.151515 -0.151710 0.229473 -0.198645 -0.135452 -0.107539 -0.181133 -0.057794 -0.095051 0.058606 0.068708 0.000384 0.167838 0.063986
sent_19 0.043740 -0.270365 0.175146 -0.260485 0.122436 -0.282684 -0.017076 0.078221 -0.070631 0.236162 -0.104897 -0.064802 -0.152933 -0.052597 -0.185255 -0.075997 -0.061095 0.195320 0.312897 0.047932 -0.039388 0.128313 0.068481 -0.236023 -0.175864 -0.137717 0.100298 -0.191717 -0.382497 0.014241 0.055040 0.366470 -0.141520 -0.270424 0.255252 0.366081 -0.063092 -0.063952 0.128245 0.130288 -0.190472 0.158767 -0.015742 -0.172299 -0.244152 0.088094 -0.037643 -0.032760 -0.005847 -0.300781 -0.062653 0.671877 0.189587 0.081412 0.301385 0.390168 -0.088001 0.186820 0.148379 0.310012 0.374214 -0.187669 0.128187 0.174339 0.053206 0.133431 -0.033735 0.157866 0.088727 0.080036 0.058920 -0.165607 -0.125792 -0.063556 -0.229704 0.322211 -0.160462 -0.233292 -0.101401 -0.113145 -0.111902 -0.006460 -0.295761 -0.090742 -0.056224 0.148839 0.279954 -0.066679 0.296277 -0.083336 -0.245365 -0.061247 -0.042100 -0.047567 0.103974 0.219667 0.092615 -0.037864 0.330678 0.046007
sent_20 -0.128663 0.041073 0.140219 -0.285219 0.066569 -0.060033 0.049519 0.003848 -0.314681 0.416679 0.226180 0.055577 0.012288 0.016810 -0.173529 -0.031960 -0.081722 -0.104998 0.012487 0.044083 -0.027377 0.028872 0.059563 0.151078 -0.084172 0.074222 -0.073044 -0.095120 -0.226743 -0.082170 0.257384 0.202641 -0.355643 0.147198 -0.095252 0.081791 -0.207977 -0.006599 -0.327379 -0.142150 -0.122480 0.043028 0.043313 -0.130898 -0.294326 0.328207 -0.280794 0.086503 0.071125 -0.183591 -0.126271 0.098487 -0.262181 -0.153779 0.076842 0.144544 0.071189 0.224244 -0.079164 -0.148909 0.056391 0.014830 0.141886 -0.023918 0.009698 -0.315804 0.222291 -0.012849 0.450193 -0.014598 -0.364492 -0.189759 0.028568 -0.166171 0.049106 -0.114688 -0.046419 0.040989 -0.288611 0.134748 -0.076116 -0.297001 0.053158 0.031673 -0.168242 0.349201 -0.190590 -0.252234 0.126111 0.098009 -0.209038 0.047700 -0.216524 -0.112884 0.001750 -0.157812 0.037410 0.072070 0.394736 0.215592
sent_21 0.162544 -0.047770 -0.013581 -0.518283 -0.020103 -0.266877 0.123899 0.214463 -0.190812 0.210830 -0.016908 -0.237047 0.189665 -0.015775 -0.381984 -0.120739 -0.211965 -0.080876 0.380492 0.145572 0.064372 0.041921 -0.042673 -0.137331 -0.058750 -0.055949 0.205601 -0.427473 -0.213183 0.142078 -0.086266 0.296759 -0.403001 0.226011 0.178968 0.159491 -0.060437 -0.007266 -0.080466 0.478937 -0.139249 0.008110 -0.198271 -0.266860 0.015049 0.170050 -0.084967 0.006338 0.289028 -0.282880 -0.384814 0.490864 -0.178578 -0.033615 0.229675 0.411707 0.230419 0.400097 0.191802 -0.159079 0.004498 -0.015994 0.193944 0.226530 0.236365 0.043536 -0.017791 0.121782 0.121841 -0.162976 -0.294387 -0.336079 0.014889 -0.200532 0.137341 0.155987 -0.159738 -0.353644 0.223468 -0.228031 -0.101717 0.035688 -0.024596 -0.109253 0.024189 0.304353 0.369814 -0.316382 -0.072623 -0.017498 -0.037100 0.352616 -0.101498 -0.323675 0.286539 0.083477 -0.158140 0.070231 0.410508 0.168134
sent_22 -0.085772 -0.148656 -0.027976 0.216851 0.222727 0.002099 0.200451 -0.112516 -0.302053 0.346478 0.723747 -0.035991 -0.242703 0.127349 -0.182920 -0.401308 0.056596 -0.159965 -0.122285 -0.105801 0.231891 0.225660 0.409872 0.316870 -0.339046 -0.019894 0.258106 -0.007335 0.299347 -0.183078 -0.061526 -0.357961 -0.662521 -0.121056 0.090520 0.244583 -0.420316 0.232819 -0.793762 0.130759 -0.166697 0.172024 -0.043042 -0.560733 -0.096857 0.606919 0.177779 -0.170598 0.317415 -0.308975 -0.052314 0.633595 -0.065253 0.553221 0.400538 0.286984 -0.154117 0.096012 -0.191526 0.067426 -0.154224 -0.092807 0.134814 -0.284078 0.214369 0.112584 -0.199837 0.317594 0.676034 -0.471718 -0.543527 0.082307 -0.027098 0.128976 0.462843 0.176648 -0.434526 0.368390 -0.137358 0.346457 0.057323 -0.172611 -0.040428 -0.546466 -0.054696 0.240976 0.229529 -0.253011 0.065367 -0.858882 -0.289405 0.155455 -0.416575 -0.339173 0.356728 -0.133414 0.539477 0.157545 0.071613 -0.093764
sent_23 -0.529255 -0.169271 0.284068 0.079409 0.106194 -0.278214 0.144919 -0.065880 0.070634 0.388156 0.311871 -0.073599 -0.019826 0.345739 0.186132 -0.273959 0.140172 0.265979 -0.000252 -0.005419 -0.013713 -0.210632 0.551654 0.284728 -0.176868 0.040248 -0.058003 -0.067169 0.136100 0.044131 0.063633 -0.111811 -0.289356 0.220504 -0.070012 -0.100245 0.131066 0.195697 -0.600890 0.000714 -0.485192 -0.167905 0.007027 -0.646623 0.148526 0.355049 0.202386 -0.137800 0.207558 -0.418585 0.193701 0.471817 -0.201829 0.104784 0.266438 0.191290 0.061131 0.287367 0.263738 0.089334 -0.286924 -0.467078 -0.136116 -0.290345 0.003576 -0.254040 -0.150376 -0.009400 0.412815 0.229716 -0.446423 0.118163 0.178636 0.290269 0.524336 0.266222 -0.373638 0.076977 -0.037118 0.188250 -0.323988 -0.266264 0.177542 -0.293116 -0.195226 0.543525 0.377935 -0.139042 0.347446 -0.341748 -0.241631 0.084728 -0.060363 -0.095410 0.388427 -0.096448 0.026678 0.031519 0.249082 -0.271948
sent_24 0.160073 0.192739 -0.205378 -0.176276 0.110177 0.026331 0.205924 -0.091433 -0.208683 0.157392 0.072827 -0.130685 0.252756 0.213126 0.068047 0.024478 -0.097678 -0.178465 -0.168518 0.016122 -0.008345 0.027858 0.209010 -0.065280 0.092849 0.062504 0.020170 -0.150058 -0.089568 -0.002670 0.111269 0.050333 -0.157090 0.008028 0.001809 -0.067243 -0.092569 -0.135300 0.066377 0.052060 0.319606 0.125731 -0.203006 0.050927 -0.103774 0.290651 0.117848 0.163052 0.305296 -0.254468 -0.021292 0.109841 -0.399158 0.039863 0.035817 0.124493 -0.055072 0.178221 0.036071 -0.198970 -0.151864 0.206829 0.391192 -0.067051 -0.143737 -0.070149 -0.181402 -0.056676 0.052723 -0.006166 -0.015963 0.094501 -0.198951 -0.134457 0.093452 0.266590 0.009715 -0.169240 0.204219 -0.088487 0.077179 0.120299 0.137356 -0.171936 0.141339 -0.090346 0.114399 -0.262125 -0.053712 0.097863 -0.181625 0.168392 -0.225210 0.102824 -0.168541 -0.136398 0.250636 0.057031 -0.164640 -0.058142
sent_25 -0.100534 -0.135319 -0.138853 0.104021 -0.145950 0.062444 0.139552 -0.056555 -0.055835 0.053531 0.076447 0.102328 0.113703 0.108040 0.060737 0.053955 -0.041115 0.007107 -0.122679 -0.061693 0.084188 -0.009527 0.069756 0.163281 0.166402 0.029372 -0.099714 0.089367 0.084169 -0.053671 -0.038345 -0.009611 -0.102858 -0.001935 -0.257001 -0.058723 -0.119073 0.160257 -0.052771 0.032421 0.006581 0.064556 -0.008585 -0.107008 -0.036895 -0.059444 0.002345 0.118963 -0.080769 -0.117400 -0.039354 0.041701 -0.099031 -0.136583 -0.048064 0.044104 0.061562 -0.190483 -0.041839 -0.042332 -0.042191 0.158983 -0.132783 -0.020184 0.062526 -0.043906 0.051968 -0.054669 0.076486 -0.057338 0.014550 0.151299 0.103997 -0.162076 0.115051 -0.196442 0.089724 0.134612 -0.111697 -0.062811 0.008612 -0.177735 0.122259 0.076713 0.060501 -0.128506 -0.218228 0.027075 -0.030204 -0.045546 0.096750 0.102734 0.214744 -0.072257 -0.061534 -0.197392 0.096747 0.036411 -0.061729 0.071381
sent_26 -0.177283 -0.085100 -0.075747 -0.207634 0.094544 -0.089903 0.413566 0.026641 0.132362 0.278394 -0.426155 -0.184427 0.357189 -0.088096 -0.043382 -0.130870 -0.333820 -0.181745 -0.119105 -0.124769 0.203246 0.256597 0.092056 -0.060673 0.242267 -0.061576 0.279304 -0.259198 0.363013 -0.239934 -0.527874 -0.158259 -0.254639 0.246053 -0.112864 -0.080834 -0.054371 -0.160481 0.059493 0.067611 0.439518 0.399488 -0.177282 -0.389827 -0.456470 0.058968 0.066363 -0.049835 0.153352 -0.314523 -0.185390 0.633816 -0.231943 -0.215309 0.317498 0.206356 -0.190542 0.509391 0.118007 -0.087847 0.042160 -0.298165 0.092219 0.372397 0.531286 -0.225862 0.081723 0.111213 0.447534 0.378622 -0.290734 -0.117546 -0.267113 -0.066719 0.116584 0.228663 -0.130717 -0.015728 -0.133491 0.102700 0.057902 -0.035888 0.082415 -0.261206 -0.024902 0.105457 0.242430 -0.461225 -0.195718 -0.271959 0.089037 0.127519 -0.301117 -0.037839 0.226190 -0.108155 -0.131850 0.110690 -0.064221 -0.332445
sent_27 0.143808 0.124523 -0.365734 -0.172146 0.185393 0.166795 0.116937 -0.319403 0.216791 0.243230 -0.073437 0.081473 -0.186897 0.241270 -0.025156 -0.290111 -0.049900 0.004194 -0.243400 -0.114537 0.264584 0.124534 0.061152 -0.163882 -0.071487 0.144040 -0.036079 -0.160400 -0.150514 -0.141801 -0.303942 0.110393 -0.397071 -0.252115 0.079377 0.029801 -0.095961 -0.097718 0.051572 0.050543 0.354830 0.174395 -0.246869 -0.073760 -0.150616 0.283938 0.207817 -0.336062 0.601504 -0.455819 0.161132 0.075181 -0.164252 0.041941 0.191532 0.049065 -0.133368 0.207396 -0.068952 -0.146976 -0.006739 -0.094077 0.265877 0.113595 0.023468 0.270896 -0.232721 0.076945 -0.078640 0.203760 -0.076107 0.244223 0.249816 -0.081776 -0.002583 0.222916 0.036151 -0.217864 0.195491 -0.178227 0.122950 -0.000342 0.122856 -0.280746 -0.021879 0.256995 0.352185 -0.519974 -0.052431 0.197370 -0.462963 -0.167401 -0.304940 -0.246420 -0.134072 0.220308 0.274253 -0.224850 -0.264794 -0.034146
sent_28 0.043849 0.049802 -0.199921 -0.266746 0.458297 -0.112463 0.259736 -0.046196 -0.120897 0.167696 0.158390 -0.064822 0.010388 0.075246 0.084087 -0.313276 -0.199664 -0.003543 -0.027024 0.051996 -0.038041 -0.062479 0.218658 -0.103707 -0.123985 0.280662 0.075650 -0.276748 0.180766 -0.327804 0.076022 -0.209416 -0.155054 0.047019 -0.203812 -0.268823 -0.038227 -0.111323 -0.223080 -0.132921 0.344830 0.342286 -0.323443 -0.039055 -0.165059 0.346591 0.025823 -0.316112 0.445771 -0.237160 -0.181350 0.357194 -0.146221 0.149955 0.383405 -0.002650 -0.057466 0.440171 -0.018037 -0.108978 0.080428 -0.087594 0.014625 -0.021049 0.102317 -0.142617 -0.130245 0.011096 0.352661 0.163195 -0.271074 -0.087388 -0.050770 0.015158 -0.142290 0.467319 -0.187023 -0.346464 0.003891 0.227021 0.200881 0.239130 -0.111993 -0.175941 -0.368160 0.349896 0.237309 -0.438995 -0.120320 -0.099006 -0.355143 -0.117935 -0.344055 -0.275581 0.279353 -0.225948 -0.009199 0.058604 0.122604 -0.152762
sent_29 -0.061675 -0.153591 0.411746 -0.244902 0.121675 -0.430984 0.060662 0.006398 0.002189 -0.041426 0.067017 0.123866 -0.053283 -0.086008 0.035819 -0.281625 -0.327006 -0.147094 0.171844 0.044516 0.044351 -0.158384 0.083215 0.087467 -0.229309 0.045298 -0.112990 0.071129 0.051520 -0.005815 0.048167 -0.203491 -0.005574 0.064156 0.153795 0.105692 -0.085526 -0.077720 -0.303288 -0.030435 -0.024845 0.216100 -0.283509 -0.427708 -0.195792 0.173064 0.223065 0.077366 0.023427 -0.343620 -0.193708 0.657679 0.020454 0.243176 0.382660 0.164275 -0.091259 0.476856 -0.058407 -0.185833 0.145223 -0.050748 -0.015499 -0.021878 0.097755 0.220930 0.039918 0.258443 0.371849 -0.140153 -0.192544 -0.150272 0.018209 -0.003792 -0.107307 0.062203 -0.269794 -0.069740 -0.101150 0.270839 -0.119765 0.118849 -0.109529 0.164844 -0.180665 0.265773 0.051219 -0.293911 -0.051744 0.009429 -0.200152 -0.122742 0.025702 -0.331293 0.009082 -0.013975 0.028770 0.025486 0.175895 0.105060
sent_30 0.348529 -0.078861 -0.069280 -0.044846 0.211398 -0.098681 0.200004 -0.012735 -0.053351 0.008118 -0.046661 -0.377024 0.181028 -0.418488 -0.167770 -0.067286 -0.170227 -0.171275 0.075964 -0.018543 -0.151644 -0.309327 -0.001379 0.055432 0.134309 -0.060455 -0.017782 -0.001296 0.103548 -0.047917 -0.030807 0.041356 -0.077235 0.314597 0.199356 0.003306 -0.258090 0.142243 -0.427418 -0.053582 -0.012474 0.138949 -0.330838 -0.229130 -0.173113 0.061652 -0.132613 -0.135476 0.202120 -0.350358 -0.465851 0.276154 -0.294255 0.142852 0.353153 0.045207 0.143568 0.358539 0.019926 0.012081 -0.061199 -0.133294 0.462118 -0.141708 -0.023588 -0.033589 0.155966 -0.212766 0.263856 -0.160561 -0.059675 -0.286337 0.112888 -0.018820 0.242750 -0.061022 -0.141907 -0.214911 0.126873 0.169228 0.037098 0.226776 0.210659 -0.162000 0.052699 0.405706 0.291988 -0.352200 0.187565 0.012705 -0.270606 0.189500 -0.157706 -0.078595 0.106151 -0.097636 -0.104081 0.156257 0.377151 0.139176
sent_31 0.257078 -0.118194 -0.033880 -0.372690 0.395383 -0.238651 0.446222 -0.013574 -0.163693 0.302370 -0.046610 -0.052108 0.072175 -0.180066 -0.368637 -0.210458 -0.014616 -0.040389 -0.080622 -0.375494 -0.070715 -0.268659 -0.363751 -0.189856 0.082562 -0.046592 -0.078855 -0.371812 -0.235057 0.089101 -0.217964 -0.434234 -0.197202 0.490282 0.252448 0.038614 -0.246576 -0.041255 -0.303489 -0.207836 0.122213 0.333844 -0.460631 -0.046043 0.088809 0.108495 0.063210 -0.210130 0.196608 -0.214245 -0.253475 0.238100 0.097411 -0.333303 0.146981 -0.001986 0.462460 0.442338 0.052861 -0.094412 0.042689 -0.027794 0.257747 0.275472 0.473890 0.186867 -0.229595 0.108692 0.264827 -0.279236 -0.421447 -0.346784 0.171018 -0.136644 0.324967 -0.209683 -0.357103 -0.318864 0.155611 -0.018708 0.193778 0.034081 0.391791 -0.052521 0.098372 0.261857 0.357298 -0.605115 0.149519 -0.324206 0.145451 0.141168 -0.274199 -0.075912 0.098781 0.061030 -0.004113 0.241491 0.139987 -0.067170
sent_32 0.293852 -0.221332 0.160341 -0.106323 0.510405 -0.367271 0.069968 -0.307150 0.013195 0.394897 0.558850 -0.027612 -0.058757 -0.237678 -0.004538 -0.574112 0.106532 -0.258105 -0.295003 -0.369161 0.224792 0.224767 0.115292 0.230341 -0.157044 0.179200 -0.240760 -0.216272 0.299271 -0.393470 0.045745 -0.569709 0.093750 -0.260579 -0.359325 0.079946 -0.447576 -0.051701 -0.099880 -0.093195 0.339212 -0.033350 -0.406482 -0.385296 -0.489854 0.166986 -0.177770 -0.170720 0.374010 -0.299679 0.232036 0.542897 -0.030244 0.214776 0.518045 -0.125612 -0.158622 0.180956 -0.085804 0.297579 -0.145422 -0.317278 0.111383 -0.134450 0.366164 -0.026768 -0.162508 0.042451 0.448776 -0.114144 -0.400016 0.261391 0.101762 0.107401 0.463099 0.305330 -0.132905 0.108073 -0.238816 0.053040 -0.023191 -0.098898 -0.170374 -0.515378 -0.322482 -0.026871 -0.172801 -0.245882 0.033644 -0.336119 -0.074838 -0.540255 -0.371216 -0.218756 0.117822 0.084158 0.303640 0.188094 0.206408 -0.400362
sent_33 -0.207926 0.180049 0.217548 0.148633 -0.207991 -0.153476 -0.093570 -0.207278 0.135247 0.455184 0.388322 0.116172 -0.304779 -0.040545 -0.218257 -0.246210 0.154051 -0.461780 0.131408 0.188985 -0.138659 0.094660 0.463216 0.541094 -0.460035 0.104588 0.032592 0.131466 0.088290 -0.085230 -0.408182 0.263026 -0.330197 0.130270 -0.182162 0.119803 -0.115217 0.232172 -0.046988 0.244636 0.314789 -0.013136 -0.443138 -0.050604 -0.126065 0.258377 0.403288 0.048389 0.143630 -0.290049 0.365476 0.334120 -0.596677 -0.116633 -0.389963 0.300323 -0.369637 0.340563 -0.293732 -0.178713 0.151670 -0.272994 -0.269816 0.417276 0.034022 -0.159355 -0.251495 -0.185505 0.090777 0.003326 -0.232607 0.216793 0.093289 -0.050601 -0.151587 0.495861 -0.181167 0.233864 0.040582 -0.121562 0.093224 -0.042761 -0.179898 -0.110054 -0.166698 0.103585 -0.111229 -0.483402 0.057237 -0.345320 0.005495 -0.117720 0.293066 -0.362925 0.197592 -0.095451 0.515851 -0.008165 -0.629723 -0.397350
sent_34 0.404044 -0.107512 0.386281 -0.322154 0.540045 -0.313983 -0.148284 -0.329608 -0.513974 0.397874 0.581065 -0.779024 -0.556863 0.033670 0.485249 -0.644663 0.028731 -0.241336 -0.220517 -0.037896 -0.343193 -0.329239 -0.009244 0.309760 -0.413989 -0.331159 0.155364 0.080986 0.343232 0.054397 0.020033 0.229164 -0.264571 0.400019 -0.436258 0.052955 -0.122679 -0.648375 -0.161119 -0.184436 0.190326 0.430118 -0.247822 -0.183245 -0.397280 0.209169 -0.165017 -0.111491 -0.026098 -0.424506 0.430184 0.683508 -0.302708 0.561502 0.522304 0.069789 -0.181023 0.763484 0.251168 0.370966 -0.036546 -0.609655 -0.252644 -0.020793 0.148000 0.353880 -0.323633 0.258825 0.573151 0.077667 -1.073334 -0.056054 0.026025 0.006967 -0.095988 -0.209637 -0.511656 0.390613 -0.315090 0.374473 -0.535818 -0.352378 0.057605 -0.006600 -0.585411 0.631585 0.522831 -0.301603 0.341790 0.077050 -0.115611 -0.418884 -0.633798 0.112796 -0.025778 -0.240627 0.118023 0.115179 0.067696 -0.274909
sent_35 -0.138716 0.105782 -0.010237 -0.087931 0.089175 -0.270481 0.219223 0.046441 -0.167087 0.693258 -0.373357 0.343301 -0.025518 0.113131 0.229149 0.068993 -0.181145 0.239832 0.250860 0.157664 0.267800 -0.237245 0.201955 0.261059 -0.241758 -0.074461 0.059140 -0.197090 -0.273107 -0.239745 -0.202297 -0.104113 -0.572112 0.089111 -0.103052 0.324401 0.096770 -0.156804 -0.157656 -0.034016 0.072362 0.098353 -0.362479 -0.143352 -0.477943 0.673241 0.132407 -0.101282 0.141799 -0.210621 -0.274832 0.127174 -0.064497 -0.198505 0.190679 0.360733 -0.292616 0.367153 0.006172 0.110662 0.060707 -0.217822 -0.251964 -0.147015 -0.049377 -0.002396 -0.076853 0.353829 0.438447 0.251508 -0.446146 0.064794 0.339797 -0.242294 0.386365 0.359229 -0.023186 -0.410367 -0.148472 0.478233 0.020392 -0.241621 -0.148386 -0.122189 0.002339 0.105465 0.137241 -0.387901 -0.017913 -0.473679 -0.333186 0.013587 -0.392043 -0.203741 0.125648 0.015423 0.032671 -0.203030 -0.043715 -0.191262
sent_36 0.126747 -0.104706 0.012564 -0.121290 -0.099251 -0.403902 -0.173957 0.138813 -0.247736 0.538099 -0.106325 0.088494 -0.075025 0.131707 0.013464 -0.107118 0.001975 0.005370 -0.134634 -0.099851 -0.190728 -0.083264 -0.117115 0.094933 -0.211662 -0.188697 -0.052614 -0.526036 -0.020417 0.150217 -0.027426 -0.241863 -0.244480 -0.181183 -0.126333 0.287613 -0.185864 -0.169574 -0.154529 0.206624 0.149779 -0.136447 -0.129910 -0.650336 -0.459267 0.071367 -0.115489 0.117342 0.121724 -0.518797 -0.181635 0.340039 -0.014739 -0.048653 0.047570 -0.048962 -0.357324 0.155591 -0.274885 0.027910 -0.150483 -0.193402 -0.010076 0.148026 0.022752 -0.331058 -0.109612 0.363401 0.291146 0.339506 -0.645461 -0.136719 0.303724 -0.235853 0.325602 0.274186 0.112811 -0.412928 0.294846 -0.133914 -0.234889 -0.260063 -0.006606 -0.234842 -0.424904 0.054857 0.332594 -0.232226 0.055016 -0.294269 -0.097842 0.012903 0.071075 -0.138998 0.430741 0.304058 -0.004928 0.255381 0.188908 -0.063793
sent_37 -0.182306 0.171995 0.341323 -0.155371 0.093221 -0.177129 0.129030 -0.261818 0.248830 0.429175 -0.335151 0.153875 -0.041094 0.352895 -0.344992 -0.207057 -0.041562 0.277021 0.075343 0.018863 0.095985 0.342755 -0.008022 0.192023 -0.275050 -0.089091 0.005772 0.062420 -0.165327 0.154095 -0.581486 0.320465 -0.159078 -0.486640 0.238862 -0.074891 0.268932 0.051421 -0.016255 -0.052831 -0.040738 -0.143214 0.173868 -0.360166 0.081981 0.235885 -0.105380 -0.206835 0.017307 0.007454 -0.097372 0.358553 0.043184 -0.408685 0.292167 0.115128 -0.174252 -0.139408 0.453392 0.303576 -0.254283 -0.317673 0.311074 0.202384 0.278533 0.416675 -0.223107 0.363916 0.319205 0.125761 -0.087156 0.128254 -0.000367 -0.103850 0.677942 0.664275 -0.174776 -0.075265 -0.032132 -0.327626 -0.236540 -0.092578 0.171783 -0.280244 0.209589 -0.072797 -0.077296 -0.073801 0.202674 -0.199820 0.320705 -0.249991 -0.047591 0.133570 0.350995 0.188448 0.045469 -0.171955 -0.058342 -0.317235
sent_38 0.194942 -0.048987 0.038519 0.143959 0.048158 -0.049879 0.042591 -0.067241 0.135433 -0.043454 -0.022615 0.062187 0.065926 -0.201270 0.011506 0.091311 0.019227 0.074069 0.000951 0.049228 -0.062374 -0.197248 -0.132317 -0.128364 -0.031820 -0.223996 -0.063602 0.001537 0.018028 -0.037305 0.074577 -0.065783 0.108679 -0.194045 0.129201 -0.101752 0.081831 -0.051418 0.071641 0.245766 -0.044932 0.045135 -0.031276 -0.080874 -0.091638 -0.126621 0.075883 -0.048216 0.040926 0.050338 0.076534 -0.033773 0.010890 -0.001177 0.033492 0.159671 0.017815 -0.068157 -0.063561 0.006784 0.058025 0.130307 -0.046728 -0.128843 0.090996 -0.044298 -0.179419 -0.097941 0.170091 -0.112718 -0.107942 -0.086166 0.153497 -0.089926 0.110921 0.242811 0.198916 -0.085778 0.030395 0.222050 -0.172181 0.147373 0.018394 -0.263741 0.087798 -0.012352 0.158286 -0.004009 0.041730 -0.161600 -0.177627 -0.004903 -0.071788 0.094121 0.004711 0.138503 -0.035700 0.011722 0.348587 -0.023582
sent_39 0.226389 0.022243 -0.106606 -0.104271 -0.089013 -0.226818 0.078247 0.008060 0.306659 0.080155 0.132583 0.224212 0.215952 0.038819 -0.271448 -0.207695 0.039409 -0.042922 0.277601 0.003175 0.107890 -0.089962 -0.062702 0.107585 0.021267 0.097711 0.063102 -0.390292 -0.201362 -0.209187 -0.027202 0.099417 -0.423398 0.189988 -0.293578 -0.005742 -0.242685 0.164242 0.002185 -0.123834 0.071220 0.146104 -0.217122 0.243583 -0.023734 0.199827 -0.034303 -0.305847 -0.118511 -0.042537 0.073894 0.059736 0.048353 -0.113835 0.131807 0.116998 0.139159 0.180865 0.286562 -0.056180 0.112478 -0.197560 0.111762 -0.086674 -0.160883 0.095681 -0.104172 -0.160410 -0.447114 0.337383 0.176994 -0.030686 -0.091871 0.157648 -0.000458 0.257909 0.140954 0.144078 0.004590 -0.284720 0.179261 -0.184982 0.027856 -0.121388 0.187114 -0.045843 0.020837 -0.105474 0.026964 0.045362 0.120166 0.061018 0.243911 -0.151986 0.042987 0.040205 -0.172817 -0.095986 -0.206160 -0.107724
sent_40 0.263667 0.028652 -0.091953 0.002811 -0.029196 0.141589 0.227912 -0.174889 -0.084622 0.321403 0.051507 0.131576 -0.024952 0.004694 -0.037299 0.114898 0.053825 -0.100182 -0.325120 -0.175568 0.127749 0.190692 0.210001 -0.240750 0.030130 0.109437 0.026840 0.080192 -0.146575 -0.072292 0.162896 -0.120075 0.193541 -0.159228 0.335509 -0.020300 0.061603 -0.041678 0.141604 -0.145931 0.225743 0.052991 0.015385 0.193299 0.152421 0.047493 0.031422 0.098862 -0.061144 0.031026 -0.035067 0.169181 -0.012477 0.006951 -0.074747 -0.077791 0.043079 -0.039179 0.014146 -0.074731 -0.212597 0.215935 0.327708 0.054638 -0.187797 -0.223545 -0.028275 -0.016262 -0.038986 0.110027 0.095638 0.264470 -0.257666 0.090409 -0.189285 -0.061140 -0.098262 -0.005561 0.171341 0.253657 0.064444 0.097524 0.085294 -0.115994 0.217627 -0.165936 0.116668 -0.143774 -0.057006 0.285760 -0.124730 0.001209 -0.230866 0.113545 -0.468989 0.185165 0.177677 0.018065 0.023952 -0.049998
sent_41 -0.178311 -0.055158 -0.034051 -0.260847 -0.048846 -0.144912 0.350927 0.085040 0.169023 0.651741 -0.017516 0.076601 0.250122 -0.093245 0.039337 0.151996 -0.063613 0.013197 0.036139 0.016057 -0.132765 -0.052588 0.219787 0.269791 0.141444 0.369398 -0.164447 -0.295383 0.035432 -0.091403 -0.230421 -0.158996 -0.108655 0.168972 0.020644 -0.363401 0.210552 0.270783 0.089217 0.244056 0.028777 -0.103244 -0.325045 -0.002629 0.358235 -0.141746 -0.058412 -0.149223 0.133781 -0.244282 -0.022927 0.419408 0.100321 -0.101793 -0.011314 0.039997 0.097492 0.165679 0.048314 0.138674 -0.401956 -0.228953 0.116419 0.213592 0.099353 -0.247216 -0.054447 -0.185421 -0.217600 0.299649 -0.135074 0.053468 0.198744 -0.014155 0.220261 0.415048 -0.131275 0.141360 0.172193 -0.216951 0.003199 -0.312987 -0.274714 -0.132097 -0.095497 0.014037 0.166956 -0.478369 0.147138 -0.062472 -0.103542 -0.083761 0.123106 -0.379795 0.154854 0.059897 -0.130013 -0.074335 0.308423 -0.011554
sent_42 -0.134217 0.023315 0.132320 0.140968 -0.175653 0.267197 0.546729 -0.034031 -0.120958 0.497924 0.102147 0.071306 0.129767 -0.276995 0.285327 0.098088 0.033342 -0.224991 -0.251893 -0.043906 0.061401 0.138028 0.358735 -0.148918 0.164700 -0.071885 -0.436740 0.573824 -0.081528 -0.415690 0.400548 -0.420330 0.362058 -0.042380 0.015070 -0.147255 0.341179 0.052772 0.478259 -0.595236 0.758625 0.526180 -0.458063 0.167349 -0.588787 -0.043357 -0.162840 0.465379 -0.243849 0.212651 0.346870 0.627831 -0.489543 0.069482 -0.134101 -0.188833 -0.034523 0.158722 -0.317045 -0.201234 -0.112286 0.316298 0.128614 0.549260 0.117800 -0.725314 0.005213 0.035166 -0.139962 0.028233 -0.006004 0.279313 -0.255093 -0.097043 -0.128416 0.035091 0.029133 0.094211 -0.234579 0.515832 0.320535 0.095302 -0.683402 0.033976 -0.148050 -0.091449 0.181319 -0.547292 0.187472 0.484848 -0.188649 -0.376376 0.184979 -0.334351 -0.526568 -0.081330 0.288447 0.449041 -0.077626 -0.097739
sent_43 0.193244 0.184638 0.125035 -0.245537 -0.021970 0.153177 0.196971 -0.310522 -0.117395 0.233670 -0.249597 0.026294 0.033570 -0.092997 -0.044292 -0.129098 0.109812 0.017696 -0.015543 0.005444 -0.000988 0.067331 0.064305 0.133350 -0.161802 0.001182 -0.148026 0.190078 0.057649 -0.127901 -0.150359 0.169133 -0.002572 0.178365 -0.216625 -0.052188 0.024973 -0.118586 0.077343 -0.191325 0.367994 0.231995 -0.009493 0.261666 -0.186456 0.286818 0.025881 0.178893 0.076937 0.173289 -0.120552 0.022672 -0.044163 -0.220029 0.040454 -0.073466 0.029909 0.035615 0.158581 0.055184 -0.013891 0.048489 -0.002324 -0.045780 -0.015152 -0.033870 0.015911 -0.124521 0.093706 -0.004477 -0.093268 0.078718 0.039291 0.012357 0.209901 0.042138 0.017574 0.188434 -0.019877 0.112031 -0.068137 0.024483 -0.065474 -0.092490 -0.018392 -0.135443 -0.027572 -0.150268 -0.096688 -0.148559 0.088505 -0.051646 -0.286702 0.073586 -0.259307 -0.039455 0.194784 -0.026546 -0.114215 -0.073059
sent_44 0.091754 0.176907 0.213929 -0.089855 0.225653 0.404188 0.319229 -0.215934 -0.419835 0.038747 0.037994 -0.030899 0.201549 0.255968 0.026344 -0.269898 0.067866 0.052541 0.071429 0.099735 0.216970 0.092409 0.119078 0.440561 -0.218185 -0.085984 -0.235217 -0.070817 0.017248 0.177517 0.484791 -0.123488 0.133720 0.037397 0.148877 0.209681 -0.099087 -0.091015 -0.309747 -0.237699 0.031275 0.037711 0.359652 0.017811 -0.177886 0.225541 -0.137665 0.064844 0.132136 -0.207991 0.387190 0.241122 -0.149719 -0.177865 -0.159944 0.020356 0.001725 -0.432289 -0.053302 0.053749 -0.555407 0.133649 0.189854 -0.090314 -0.257984 -0.169026 0.268699 -0.007919 0.688628 0.027566 -0.327677 -0.142970 -0.228721 -0.232601 0.320820 0.093949 -0.129537 0.259402 0.095395 0.206589 -0.273716 -0.177251 0.429136 0.277478 0.091095 -0.226043 0.207453 0.068300 -0.016039 0.076574 -0.200608 -0.246791 -0.247927 -0.054488 -0.111381 -0.409440 0.130811 0.334746 -0.013228 0.244688
sent_45 0.079383 -0.258057 -0.380612 -0.093935 0.024677 0.189863 0.100199 -0.209258 0.178797 0.410994 0.092948 0.092336 0.100408 0.398101 0.180404 -0.320028 0.112567 0.013823 -0.086038 -0.352894 0.352514 0.372884 0.078649 0.036632 0.231845 0.143237 -0.172622 -0.687677 -0.053461 -0.327216 -0.137065 -0.079593 -0.215273 -0.059597 -0.282169 0.280936 0.030340 -0.171709 0.145166 0.051232 0.340116 -0.259846 -0.048228 0.007715 -0.210452 0.357922 -0.161070 -0.114075 0.335828 -0.254702 0.174747 -0.000252 -0.145212 0.064945 0.166700 0.237227 -0.181538 0.225567 0.031634 0.175076 -0.107288 -0.246302 0.265380 -0.015067 0.023585 0.147951 -0.196721 -0.039183 0.104286 0.139269 -0.065198 0.347646 -0.079009 0.015921 0.274167 0.216255 -0.122429 -0.143259 0.168377 -0.537887 -0.052682 -0.158567 0.192057 -0.265790 -0.066999 -0.114980 0.327447 -0.118397 -0.049634 -0.000674 -0.006442 -0.076770 -0.171126 -0.054267 -0.035034 -0.053542 0.253375 0.002266 -0.285056 -0.394917
sent_46 0.207674 0.022521 -0.208339 0.013621 -0.022120 0.077902 0.381475 -0.122739 -0.047412 0.427325 0.096416 0.208911 0.114864 -0.042204 0.017634 0.102127 -0.204648 -0.099218 -0.185095 -0.130095 0.066143 0.123034 0.309999 -0.139017 0.296133 -0.126649 -0.236875 0.119581 -0.120209 -0.259792 0.042842 -0.192836 0.079415 -0.244365 0.038044 -0.168665 0.087107 -0.142098 0.281534 -0.087728 0.353331 0.249956 -0.091077 0.081217 -0.137679 0.086787 0.139050 0.139955 0.136982 0.022449 -0.102263 0.205941 -0.346691 -0.156873 0.036055 0.085881 0.031410 -0.113643 -0.087377 -0.040386 -0.220225 0.415327 0.287567 -0.026254 0.077989 -0.290206 -0.072799 -0.047929 0.146297 0.069288 0.064639 0.456727 -0.237143 -0.168376 -0.074389 -0.109345 0.034055 -0.152704 0.083005 0.193566 0.040925 0.176099 0.103443 -0.174778 0.163172 -0.164900 0.092122 -0.233329 -0.091193 0.101232 -0.139641 0.188577 0.000473 0.035350 -0.248334 -0.110420 0.243721 0.098847 -0.013971 -0.075242
sent_47 0.267557 0.184911 0.034580 -0.056824 0.094675 -0.414685 -0.176852 -0.337902 -0.106378 0.021987 -0.098853 0.278056 0.289047 -0.053303 -0.001805 0.035297 -0.125731 0.247241 0.159772 -0.168551 0.005152 -0.213447 -0.408060 0.215363 -0.173511 0.060859 0.281195 -0.457633 -0.474938 -0.065593 0.105762 -0.529123 -0.063106 -0.104281 0.052468 -0.028472 0.003783 0.231859 -0.371843 -0.532422 -0.380894 -0.170415 0.082546 -0.221761 0.025098 0.269622 -0.085472 -0.247747 -0.299248 -0.462311 -0.178507 0.175276 -0.510903 0.062821 0.085194 -0.335916 0.211082 0.184002 0.358397 0.411852 0.092090 -0.295426 0.194605 -0.427837 -0.032534 -0.001945 -0.077609 -0.014113 -0.196674 -0.042171 -0.225081 -0.128278 0.270831 0.161008 0.384448 0.296989 -0.234824 0.011356 -0.022267 0.113754 0.180754 -0.516404 0.357884 -0.350519 -0.131699 0.066649 0.432497 -0.395113 0.304141 0.025731 -0.400058 -0.200769 -0.098700 0.048751 0.142459 0.017121 -0.128985 0.529077 -0.081827 -0.003346
sent_48 -0.241232 0.204017 -0.234825 0.180776 0.454723 -0.176007 -0.076305 0.100056 0.157457 -0.138557 0.191411 -0.132150 -0.107327 0.130572 0.158921 0.148564 -0.251586 -0.001014 -0.146725 0.237343 0.042355 0.085954 0.339426 0.016734 0.033309 0.173620 0.131204 -0.161915 -0.271106 0.211662 0.342775 -0.570904 -0.232468 0.202331 -0.004428 -0.459041 0.330892 0.244060 -0.175788 -0.234236 -0.072879 0.027218 0.049841 -0.401851 -0.192502 0.286561 0.114880 0.264977 -0.276065 -0.020801 0.167979 0.364683 -0.387079 0.387855 0.421356 0.229351 -0.258655 0.063655 0.061893 0.125014 -0.048450 -0.062215 -0.046927 -0.151174 0.106742 -0.193809 -0.222514 -0.091179 0.500450 -0.117682 -0.270823 0.002128 -0.358651 0.034220 -0.103819 0.430405 -0.337300 -0.415165 0.317951 0.205635 0.049774 -0.267807 0.230681 -0.112085 -0.160428 0.383199 0.421381 -0.313540 0.249197 -0.036255 -0.094677 0.153974 -0.123982 0.014360 0.523237 -0.124781 -0.009529 0.185063 -0.125921 -0.349842
sent_49 0.015388 -0.004464 -0.026018 -0.008537 0.015008 0.009452 0.007163 0.016715 -0.015748 0.017158 -0.006030 -0.019405 -0.010549 -0.005036 0.006240 0.019394 -0.032043 -0.008083 0.018215 -0.001297 0.031300 -0.005032 -0.020897 -0.037814 0.026186 0.000881 -0.027616 -0.016664 -0.006027 -0.011684 0.008518 -0.008721 0.013578 0.020214 -0.015615 0.002035 -0.005168 0.001153 -0.020252 0.000149 0.002426 0.042320 -0.012472 -0.022945 -0.043283 -0.017571 -0.024705 -0.007888 -0.030624 -0.018701 0.017750 0.014484 -0.050733 0.005345 -0.018922 0.000233 -0.015953 0.030594 0.010040 -0.015919 0.023772 -0.030797 0.002933 0.049842 -0.000183 -0.040797 -0.004652 0.015136 -0.013322 -0.005312 0.011462 -0.026932 -0.026259 -0.015293 0.002649 0.038552 0.020054 0.004258 0.015307 -0.048445 -0.010991 -0.033096 -0.018134 -0.051350 -0.021668 0.047239 0.070861 -0.030454 0.046738 0.024298 -0.013086 0.018879 0.029300 0.013941 0.014378 0.018263 0.034995 0.066473 -0.000602 -0.038454
sent_50 -0.092880 -0.137104 0.070213 0.057555 0.025607 -0.210850 0.025953 -0.314345 0.027748 0.225811 -0.090458 0.035265 0.114801 0.120128 0.072784 -0.028390 0.217044 0.234179 0.024950 0.038352 -0.063392 0.012967 0.295578 0.087731 -0.101783 -0.003724 0.013002 0.013447 -0.149149 0.188467 0.076140 0.138400 0.018474 -0.109714 -0.347507 -0.028278 0.178727 0.047924 -0.017806 0.006297 0.447015 -0.129839 -0.224885 -0.164295 -0.500885 0.402001 -0.017277 0.241236 -0.061980 -0.406299 -0.219616 0.134375 -0.601925 -0.274088 -0.035857 0.132909 -0.193714 0.182739 0.135847 0.092616 0.127387 0.020245 0.033962 -0.119047 -0.103963 -0.068969 -0.010460 -0.083207 0.406356 -0.039965 -0.025777 0.430957 0.053404 -0.227334 0.211549 0.186523 -0.114935 -0.342460 0.134686 0.004454 0.054022 0.040707 0.037805 -0.156337 -0.243319 -0.118097 -0.155159 -0.000236 0.156149 -0.272203 0.272162 -0.021153 0.040002 0.146518 0.111172 -0.188172 0.381844 0.097979 -0.246460 -0.265560
sent_51 0.052220 0.032326 0.031404 -0.014379 0.066609 0.015384 -0.014631 0.028708 0.043428 0.002604 -0.102256 -0.019178 -0.057196 0.037134 -0.058747 0.023146 0.007915 -0.002572 -0.062729 -0.025238 -0.008829 -0.011342 0.012889 0.001462 0.004275 0.034606 0.061207 -0.013008 -0.008982 0.030618 -0.063544 0.012243 -0.025431 0.049986 0.051875 0.003332 -0.031943 0.005439 0.102360 -0.022917 0.011829 -0.022369 -0.027045 0.052775 0.058364 0.027929 0.035357 -0.027786 0.069449 -0.002259 0.071310 -0.005205 0.097073 0.016700 0.056735 0.041179 -0.027449 0.048143 -0.016903 0.030996 0.025778 -0.030723 -0.018533 0.107551 0.003602 0.071555 -0.003462 -0.031373 -0.005846 0.071714 0.011637 0.042960 0.021195 0.078207 -0.039682 -0.004786 -0.077681 -0.030988 -0.021593 -0.007220 -0.017714 -0.009661 0.026648 -0.005532 0.023511 0.033397 -0.049530 0.018232 -0.033643 0.029923 -0.053099 -0.084002 -0.164648 -0.008949 -0.049569 0.099349 -0.080931 -0.064555 0.014417 -0.000671
sent_52 -0.001456 -0.071025 0.024845 -0.031227 0.069096 -0.109520 0.045761 -0.036811 0.119022 -0.016507 -0.055977 0.063727 0.036651 -0.065513 -0.058294 -0.103198 -0.052384 -0.036332 -0.001743 -0.040240 0.049476 0.034975 0.038949 -0.048793 0.038923 -0.026244 0.055452 -0.100558 0.015118 -0.023326 0.015751 -0.074155 0.019856 0.023280 0.003751 0.040234 -0.037838 -0.060381 0.022465 0.005131 0.044041 0.011340 -0.097559 -0.011901 -0.020287 0.022864 0.013760 -0.063463 0.073675 -0.039176 -0.060582 0.145701 0.001540 0.014806 0.083460 0.102735 -0.021264 0.213107 0.014334 -0.035448 0.011034 -0.002703 0.021433 0.021485 0.032344 -0.029167 -0.029414 -0.009547 0.027562 0.040286 -0.020899 -0.075765 -0.056769 0.032416 -0.005817 0.015159 -0.004356 -0.084391 0.000288 -0.000643 -0.003434 0.083368 0.010009 -0.073554 -0.022230 0.061972 0.014526 -0.045485 -0.061022 -0.037516 -0.035154 -0.030071 -0.003685 -0.048920 0.021356 0.003414 -0.051012 0.022296 0.048893 -0.105251
sent_53 0.394892 0.365445 -0.074082 -0.263136 0.111098 0.058484 0.222349 -0.293673 0.093337 0.228923 -0.107652 0.379015 -0.010669 -0.382974 -0.065440 -0.176861 -0.320089 -0.089528 -0.132765 -0.024462 -0.048759 0.066791 0.396122 0.198685 0.132405 0.273952 -0.402547 0.069658 0.077892 -0.185658 -0.202398 0.125888 0.134505 -0.138022 -0.275239 0.012166 -0.127987 -0.037881 0.352950 -0.288293 0.399376 -0.248124 -0.153942 0.370518 -0.183172 0.095754 0.245796 0.335097 0.086642 0.266846 -0.245862 -0.052378 0.210509 -0.464449 0.288971 0.062456 -0.076675 -0.501423 -0.034535 0.286654 -0.430058 0.295598 0.285219 -0.200043 -0.078038 -0.088343 0.018488 -0.591099 0.000114 -0.024901 0.168453 0.088933 -0.086433 -0.019202 0.082223 0.137148 0.341779 -0.069242 0.072714 -0.112523 -0.071957 0.389234 0.028974 0.122252 0.301246 -0.592706 -0.198211 0.054632 -0.366429 -0.259676 0.280559 -0.035606 0.084370 0.011674 0.051940 -0.190263 0.137080 -0.136463 -0.411590 -0.201246
sent_54 0.436074 -0.241136 -0.151339 -0.357710 -0.474860 0.467389 0.757173 -0.451922 -0.005498 0.948062 0.132293 0.131460 0.345944 -0.271168 0.225576 -0.044420 -0.162687 -0.339398 -0.214968 -0.281992 0.446163 0.424979 0.767294 0.096323 0.396585 0.005107 -0.043115 0.585629 0.080505 -0.507546 -0.076525 0.079257 0.034353 0.293904 0.013138 -0.472857 0.028557 0.019148 0.429890 0.032736 0.339518 0.476724 -0.199443 0.360188 -0.312555 0.022705 0.023836 0.323216 -0.135598 0.365725 -0.075261 0.074654 -0.481310 -0.134584 -0.029296 -0.081596 0.173718 0.426356 0.075118 -0.151338 0.010704 0.023545 -0.017843 0.355819 0.223704 -0.448836 -0.044929 -0.096706 -0.577596 0.221368 0.155977 0.725039 0.140228 -0.164284 -0.259500 -0.485708 0.332464 0.329782 0.014197 0.423087 0.177875 0.300048 -0.343315 0.064379 0.151976 -0.227693 -0.055615 -0.440497 -0.453708 0.407491 0.226264 0.299698 0.476912 -0.106151 -0.499296 0.008812 0.371039 0.021481 0.009680 -0.140742
sent_55 -0.042395 -0.131479 -0.393112 -0.272573 -0.212207 0.191708 0.232145 -0.105190 0.311827 -0.091444 -0.110956 -0.008704 -0.221969 0.231024 0.220093 -0.215939 0.230886 0.025548 -0.253343 0.033144 0.248671 0.617205 0.249294 -0.435989 -0.305338 0.049223 0.111945 -0.059134 0.212479 -0.107922 -0.377895 0.428544 -0.262948 -0.246201 -0.042796 0.311316 0.032394 -0.060732 0.244938 0.259807 0.141252 -0.310723 0.292001 -0.131472 -0.227723 0.122274 -0.021218 -0.123063 0.240879 -0.130190 -0.132163 -0.056141 -0.049551 -0.057117 -0.016151 0.086267 0.037067 0.216885 -0.031410 0.089410 0.139882 -0.023425 0.056431 0.033651 0.033583 0.032800 0.053728 -0.241154 -0.243623 0.171440 0.232673 -0.025089 -0.135313 0.176451 -0.222743 0.094020 0.285159 0.109830 0.215421 0.005310 -0.094581 0.114813 -0.228374 -0.332440 -0.009263 -0.256399 0.047110 0.139602 -0.252874 -0.088607 -0.202241 0.125431 -0.115991 -0.387304 0.032797 0.169475 0.113579 -0.215200 -0.054078 -0.255752
sent_56 0.555303 0.171017 -0.091822 0.077151 -0.010965 -0.211884 0.173493 -0.041882 0.106949 0.046036 0.059969 0.221572 0.054286 -0.257343 0.179643 0.150876 0.075847 0.157547 0.409632 -0.210385 0.202787 -0.022816 -0.123654 -0.107538 -0.082897 -0.009607 0.023462 -0.043248 -0.204902 -0.333760 -0.293821 0.208111 0.068102 -0.175629 0.091922 0.444769 0.002382 0.117912 -0.120932 0.115713 0.212391 -0.237102 -0.054145 -0.060483 -0.481538 0.254828 0.029464 -0.396287 -0.018311 -0.055896 -0.348928 -0.104721 -0.369171 -0.275575 -0.196045 0.119749 0.109316 -0.074635 -0.098712 0.173746 -0.097000 0.181411 0.310380 0.128441 -0.118240 -0.178603 0.235679 -0.171247 -0.027833 -0.038512 0.143541 0.113822 0.188590 -0.104675 0.057590 0.221867 -0.001363 -0.165932 0.095414 0.026806 0.091693 0.202370 -0.330748 -0.332525 0.529850 0.000669 0.112933 -0.115254 0.233448 -0.215848 -0.290592 0.091234 -0.009505 -0.219933 -0.192530 0.009723 0.036075 0.284836 -0.055450 -0.182354
sent_57 0.356854 0.141201 0.127280 -0.713418 0.364953 0.088542 0.024912 -0.358532 -0.234295 0.070020 -0.636299 -0.153168 -0.223148 -0.543117 -0.010569 -0.290460 0.057688 0.361087 0.127949 0.121377 0.047261 0.213052 0.292332 -0.149824 -0.195761 0.530317 0.359782 0.177173 -0.653201 0.342534 0.410841 -0.066769 0.119063 -0.141788 0.236395 0.468171 -0.178061 0.388281 -0.033961 0.201933 -0.181746 0.164896 0.157475 0.344261 -0.490663 0.571003 0.302707 0.541960 -0.201360 -0.125140 -0.214504 0.518055 -0.041968 -0.038196 0.071028 -0.028999 -0.471134 -0.089458 0.130784 0.658743 0.192280 0.012500 -0.118986 0.166862 -0.465636 -0.292384 0.225755 -0.423659 -0.357651 -0.190912 0.130303 -0.090505 0.228665 -0.135547 -0.068886 0.427883 -0.061759 -0.228203 0.143341 0.052344 -0.023148 0.062246 -0.520533 -0.047874 -0.064385 -0.037209 0.207149 -0.176712 -0.105261 -0.492896 -0.296780 -0.343631 -0.345693 0.154284 -0.300070 0.304816 0.163557 0.260519 -0.383262 0.054518
sent_58 -0.191156 0.118501 -0.006045 0.093256 0.153849 -0.058123 -0.486071 -0.168628 -0.282169 -0.061611 0.035403 -0.699324 -0.132480 -0.160982 -0.414358 0.255368 -0.052557 0.009372 0.094051 0.237496 0.231742 -0.120131 0.080120 0.091814 -0.214244 -0.064920 -0.071172 -0.008208 0.082227 -0.202749 0.129925 0.225178 -0.428870 0.205005 -0.091890 0.035284 0.058760 -0.053273 -0.532458 -0.040118 -0.209581 0.000916 -0.311164 0.201599 0.068972 -0.054456 -0.335735 -0.145342 0.120751 -0.552089 0.105923 0.090502 -0.518014 0.243608 -0.187491 0.062470 -0.028223 0.133328 0.152972 -0.081147 0.058592 -0.066271 0.087202 -0.270245 0.026232 0.069789 0.109927 -0.220168 0.637440 -0.367766 -0.272520 -0.154833 -0.216058 -0.143763 0.136645 0.309126 -0.398060 0.204805 -0.149323 0.000819 0.157931 -0.215532 0.103327 -0.171696 -0.260489 0.432051 0.146036 -0.068309 0.400035 0.297901 -0.268830 0.271893 0.046232 0.073380 0.368163 -0.320292 0.276262 -0.015062 0.583388 0.059086
sent_59 0.270027 0.310717 -0.108976 0.059740 0.139992 0.145839 0.248330 -0.191615 0.137182 0.143793 -0.282615 0.140749 0.070973 0.262542 -0.059144 -0.248803 -0.016128 0.216711 -0.267151 0.044108 0.012477 0.173394 0.164387 -0.021827 0.339022 -0.024046 0.046150 0.239956 -0.242990 0.078987 0.009352 -0.592073 -0.256001 -0.075916 -0.332533 -0.133829 0.020495 0.243301 -0.133424 -0.197559 0.117381 -0.027367 0.036314 -0.032651 -0.421063 0.296946 -0.085668 0.073897 -0.194105 -0.095769 0.055129 0.145273 -0.311599 -0.139057 0.027429 -0.232854 -0.053253 -0.040658 0.007897 0.097268 -0.170696 0.051744 0.141780 -0.009840 -0.115545 -0.222207 -0.258273 -0.285431 -0.414737 0.046057 0.125499 0.176467 -0.030854 0.016548 0.379848 0.264837 0.219174 -0.148994 0.191110 -0.123376 0.120134 0.121882 -0.046468 -0.376558 0.105381 -0.147444 -0.169662 -0.125195 -0.031826 -0.036582 -0.016625 -0.014067 0.176371 0.001198 0.241070 0.144556 0.168203 0.236603 -0.380300 -0.434421
sent_60 -0.344304 0.081513 0.179157 -0.526090 0.108747 -0.353439 0.111343 0.137187 0.135268 -0.023057 -0.051804 0.464961 0.170572 -0.324256 0.091987 -0.305608 -0.090523 -0.220652 0.304245 0.406786 -0.121214 0.196863 0.249272 0.057965 -0.426153 0.073734 -0.036702 -0.074835 -0.108157 0.164254 -0.111493 0.161360 0.273477 -0.345391 0.172590 -0.174045 0.162860 0.205933 0.190751 0.577391 -0.267755 -0.129557 -0.290234 -0.126150 0.377885 -0.314551 0.433411 0.035470 0.195294 -0.025354 0.156641 0.180494 -0.083111 -0.158544 -0.029691 0.056777 0.206624 0.096796 0.316870 -0.224344 0.072663 0.098707 -0.101407 -0.063876 -0.161919 0.097175 0.170677 0.125317 -0.158112 -0.082158 0.047541 -0.156032 0.088820 -0.225777 -0.039292 0.418867 0.299933 -0.040539 0.268297 -0.288398 -0.284920 0.139559 -0.111599 0.095574 -0.099350 -0.102652 0.298066 -0.316959 -0.124646 0.091783 0.077881 -0.090597 0.529848 -0.211289 0.075049 0.235460 0.293541 -0.104816 -0.043842 0.025624
sent_61 -0.016242 0.118421 0.145729 -0.069971 0.174750 0.059989 0.307220 -0.073543 -0.132182 0.352379 -0.225778 0.122285 -0.385260 0.147524 0.316272 0.183543 0.289473 0.090048 -0.321420 -0.145823 0.087087 0.287880 0.220840 -0.195570 -0.074721 0.133254 -0.053616 0.159763 -0.319282 0.101178 0.166091 0.002626 0.245010 0.034710 0.328226 0.054271 0.369875 -0.290545 0.212962 -0.312500 0.096659 -0.135024 0.157788 0.227580 -0.085849 0.299108 -0.125034 0.156516 -0.044664 0.149494 0.094789 -0.270494 0.068521 -0.006850 -0.233932 -0.062744 -0.108613 0.050935 -0.085313 -0.034595 0.058988 0.143113 -0.081013 0.230277 -0.236147 -0.113037 -0.085433 0.106841 0.065292 0.168777 -0.119589 0.235970 -0.044065 -0.008043 -0.168418 0.114109 -0.092090 -0.009777 0.157427 0.368463 -0.107734 -0.022602 -0.262425 -0.044987 0.110278 -0.086250 0.064114 -0.041822 0.199942 0.128788 -0.180834 -0.205210 -0.389254 0.134328 -0.299592 0.216393 0.214420 0.072971 0.372745 -0.245903
sent_62 0.181599 0.387073 -0.209169 -0.171865 0.111047 -0.454903 -0.082421 -0.222210 -0.128904 -0.250338 -0.213005 0.179274 0.002129 -0.015447 -0.079539 0.101875 -0.013626 0.020321 -0.080473 -0.075969 0.244147 0.154933 -0.162902 -0.278952 -0.469312 0.255945 0.597387 -0.244920 -0.225535 -0.001785 -0.116090 0.212854 -0.033348 -0.204548 0.071586 0.017046 -0.233281 0.263621 0.271591 -0.327454 0.022044 -0.056291 -0.144973 -0.235039 0.014144 -0.077649 -0.030782 -0.137148 0.066872 -0.084245 -0.170736 0.758952 0.226304 -0.195595 0.264971 0.097495 0.126677 -0.080874 0.508515 0.285520 -0.021052 -0.330633 0.007978 0.098358 -0.149498 0.166754 0.078965 0.316738 -0.253373 0.085171 -0.012445 -0.340229 0.008828 0.004393 0.067996 0.068367 0.126723 -0.317205 0.135643 -0.035133 -0.041631 -0.376280 0.016450 -0.130932 0.033308 -0.216626 0.267850 -0.215407 0.115786 0.079806 -0.004875 -0.308710 -0.481604 -0.036739 -0.114440 0.426060 0.057921 -0.003168 -0.379009 -0.254374
sent_63 -0.307079 0.120838 0.068018 -0.299433 0.023274 0.126259 0.317862 -0.122436 0.182157 0.160521 0.118702 -0.162689 0.207338 0.054376 0.329464 -0.249480 -0.051809 0.002479 -0.002511 0.071066 0.222150 0.354574 0.340879 0.091875 0.176671 0.072173 0.150124 0.222466 0.193247 -0.112931 -0.047031 0.076370 0.239560 -0.059882 0.047578 -0.782255 0.405606 0.150961 0.212562 0.138711 -0.161981 -0.180784 0.087473 -0.182142 0.153927 -0.347155 -0.124261 -0.104434 0.276798 0.164676 0.080322 0.098653 -0.527577 -0.036835 -0.214182 -0.121745 0.366494 0.129028 0.122340 -0.095041 -0.190705 0.025607 -0.178400 0.364855 0.449852 -0.236834 0.248401 -0.172228 -0.092752 0.020849 -0.085234 0.294988 0.134657 -0.038817 -0.044373 -0.207561 -0.010245 -0.002640 0.018594 0.219364 -0.096370 0.111356 -0.220769 0.144306 -0.307212 -0.019638 -0.195637 -0.034119 -0.203515 0.518742 0.175807 -0.142927 0.220471 -0.317874 0.167312 -0.148718 -0.030307 0.192925 0.270712 0.002322
sent_64 0.206406 0.090670 -0.183634 0.252243 0.310182 0.074912 0.072082 -0.133906 -0.010972 0.222300 0.130314 -0.385335 -0.115838 -0.404842 -0.066805 0.220983 0.278020 0.108959 0.004164 0.265318 0.149707 0.344233 0.322965 -0.240550 0.135054 -0.000577 -0.307592 0.054847 -0.092588 -0.200811 0.092590 0.007128 0.245146 0.043136 0.062765 0.088863 0.397396 -0.089859 0.311619 0.091676 0.209618 -0.212767 -0.245594 0.419145 -0.205064 -0.217064 -0.208731 0.008153 -0.215546 0.400961 0.440804 0.307605 -0.049126 -0.008131 0.068076 0.267100 0.308534 0.281633 -0.139428 0.366687 0.105851 0.016342 0.181593 0.045362 0.236773 -0.119804 0.066498 0.071827 0.181519 -0.020870 -0.169764 0.024084 -0.280331 0.075221 -0.628132 0.152667 -0.202711 0.203915 -0.195154 -0.020364 0.313806 0.154431 -0.419693 0.227574 -0.126496 0.160075 0.230843 -0.081640 0.300225 0.557514 0.070081 0.067066 0.258703 -0.329221 0.081424 -0.141280 0.406161 -0.166257 0.498778 0.054833
sent_65 -0.279375 0.221638 0.066332 -0.050618 -0.242249 -0.183154 -0.011552 -0.083749 0.154333 -0.058376 0.352976 0.323199 0.179811 -0.319358 -0.276243 -0.102146 -0.290054 -0.240403 0.025907 -0.043972 -0.024104 0.018536 0.233956 0.093551 0.118807 0.177519 0.077752 0.182312 -0.129209 -0.169459 0.058691 0.089860 -0.222723 -0.102015 -0.060610 -0.145469 -0.039999 0.257413 0.052458 -0.220844 -0.197965 -0.060306 -0.061985 0.140899 0.143859 -0.137201 0.024764 0.063891 -0.150623 0.223941 0.076137 0.145584 -0.088008 -0.086348 0.137750 0.097622 0.211384 0.091176 -0.014813 -0.313438 0.008949 0.037439 0.110736 -0.127292 -0.087748 -0.151637 0.121409 -0.077043 -0.388461 -0.108394 0.098182 0.006372 -0.207308 -0.066145 -0.086562 -0.035089 0.193810 0.156151 -0.299039 -0.014670 0.004786 0.021579 0.050278 0.037338 0.139622 0.056243 -0.331891 -0.124945 -0.076337 0.175078 0.134880 0.119867 0.516792 0.088978 0.188693 -0.168312 0.130541 -0.071789 -0.236550 0.032090
sent_66 0.089049 -0.236971 -0.142113 0.110351 0.062647 0.309755 -0.189398 -0.444500 0.162758 0.085344 0.121855 -0.021154 -0.230137 0.072241 -0.143840 -0.039582 -0.431815 0.054708 0.334537 0.028051 0.466848 0.216570 0.126446 0.263881 0.061790 -0.156494 -0.283199 0.182225 0.195877 -0.057466 -0.077643 0.083444 0.022805 -0.132229 0.017878 0.111701 -0.040977 -0.184760 -0.117707 0.086967 -0.031720 0.166013 0.088560 -0.082302 -0.305778 0.196456 -0.062008 0.040782 -0.381850 -0.093749 -0.188489 0.318708 -0.492379 0.241522 -0.047524 0.242287 -0.472190 0.137468 0.084017 0.173976 0.065016 -0.070253 0.171667 0.201334 0.237684 0.115365 -0.177479 -0.154534 0.461274 -0.167507 0.179347 0.242312 -0.219464 -0.057804 -0.113219 0.133496 -0.016483 0.018820 0.139324 -0.109645 0.175464 0.173491 0.130005 -0.050503 -0.043838 0.076822 -0.033935 0.083931 -0.070952 0.219371 -0.076157 -0.000013 0.306931 -0.103679 0.018707 -0.232311 0.295658 0.148013 -0.185914 -0.113707
sent_67 -0.202892 0.044690 0.039692 0.055452 -0.154517 0.168842 0.324964 0.033354 -0.091966 0.105834 -0.071527 0.196080 0.066649 -0.449868 -0.021151 0.025341 0.035316 0.044350 0.045267 0.046870 0.030153 0.094463 0.300673 -0.058258 0.206465 0.099353 -0.341534 0.292927 0.184939 -0.231401 -0.007401 -0.316279 0.182885 -0.168162 -0.330411 0.118572 0.092140 0.194114 -0.243552 -0.233413 0.256138 0.111692 -0.381707 0.038046 -0.321906 0.121084 0.145656 0.201725 -0.167267 -0.124860 -0.299674 0.046422 -0.529031 -0.307572 -0.235666 -0.676051 0.039608 0.115994 -0.020032 -0.103430 0.184446 0.101744 0.091746 0.174906 0.135498 -0.326726 0.273395 -0.114113 0.172365 -0.077916 0.080139 0.319992 -0.089701 -0.109878 0.058138 0.288620 0.010367 -0.034805 -0.152520 0.048402 0.296107 0.232765 -0.059614 -0.135526 -0.280507 -0.184396 -0.073103 -0.245838 -0.119951 0.149263 0.162000 0.112827 0.283993 -0.109778 0.135481 -0.347127 0.470799 0.232708 -0.040945 -0.354384
sent_68 0.011345 -0.084139 0.051067 -0.247735 -0.078686 0.365197 0.460968 -0.311291 -0.310688 0.276622 0.137445 0.439025 0.114714 -0.395469 -0.043487 0.070827 -0.187339 -0.116689 -0.011875 -0.069244 -0.122047 0.133766 0.493808 0.278383 0.215014 -0.170357 -0.255917 0.119469 0.297770 0.103037 -0.054671 -0.387844 0.082725 0.034823 0.168057 -0.214976 0.030403 -0.259592 0.543643 0.045805 0.597027 0.507518 0.088724 0.148208 -0.176475 0.060960 0.708135 0.941414 -0.524737 0.421415 -0.169428 0.092589 -0.547403 -0.379671 -0.339913 -0.199168 -0.162966 -0.233908 -0.186371 0.190668 -0.378467 0.653113 -0.007245 0.773558 0.385211 -0.480947 0.266550 0.044348 0.559669 0.044495 -0.401803 0.356973 -0.191490 -0.124199 -0.115013 -0.089939 0.048687 0.019731 -0.011804 0.140193 0.129656 0.218283 0.335572 0.480302 -0.200557 -0.650548 -0.053766 -0.072918 -0.634117 -0.081404 0.474090 0.213464 0.468750 0.230437 -0.268477 -0.412533 0.544629 0.631167 -0.499110 0.360696
sent_69 0.053596 -0.037304 -0.164513 -0.124818 0.156789 -0.205519 0.100223 -0.218737 0.206985 0.120444 0.395800 0.224199 0.067661 -0.002710 0.183323 -0.125648 -0.037131 0.279378 0.047539 -0.392001 0.514300 0.120715 0.097342 0.020184 0.139638 0.329696 -0.342438 0.080626 0.209278 -0.605000 -0.002607 -0.179157 -0.026445 -0.147799 -0.339354 0.051382 -0.031840 0.004578 -0.317607 -0.278908 -0.007705 -0.127665 0.032989 -0.048428 -0.162178 -0.014606 -0.188819 -0.258763 -0.346501 -0.010217 -0.218629 0.307276 0.039657 -0.044040 0.277463 -0.323120 0.133863 0.133867 0.212031 0.092509 -0.347753 0.019770 0.219464 -0.232227 0.107562 0.096530 0.237287 0.103096 0.082820 0.146501 -0.012318 0.363439 0.042157 0.128109 0.109193 -0.063277 -0.076327 0.046088 -0.176126 -0.016193 0.260009 -0.059831 -0.028403 0.120943 0.091471 0.024078 -0.532467 -0.046461 -0.091076 0.558370 0.040134 -0.178491 0.466444 -0.206837 -0.386057 -0.177093 0.091729 -0.153244 0.203798 -0.096872
sent_70 -0.029641 0.095369 0.172510 -0.068086 0.460336 -0.418604 0.293792 0.150597 0.476384 0.003360 -0.183249 0.110296 0.313333 -0.351701 -0.443056 -0.235462 0.179648 -0.102752 0.508881 0.327971 0.256809 0.215508 -0.036678 0.231670 -0.371129 0.040615 0.069251 -0.084629 0.066393 -0.196205 -0.480143 0.248661 -0.118118 -0.030054 -0.184752 -0.241192 -0.000432 0.287648 -0.192921 0.339090 0.080602 0.180474 -0.295217 -0.132712 -0.286400 -0.002700 -0.106737 -0.561831 0.389855 -0.053933 0.341736 0.258403 -0.029746 0.006405 0.249659 0.431979 0.154296 0.146984 -0.032403 -0.265078 0.255569 -0.231376 -0.064918 -0.002134 0.050272 0.223933 -0.075604 -0.037940 0.451625 0.002787 0.040834 -0.166714 -0.083497 -0.113020 0.300120 1.019205 -0.126750 -0.009816 0.042912 -0.269188 0.173866 0.101744 -0.131312 -0.239220 0.404234 0.121209 0.098759 -0.367691 0.318551 -0.179184 -0.185403 -0.376289 -0.049748 -0.400376 0.172106 0.169012 -0.150366 -0.179018 0.408595 -0.166639
sent_71 0.100438 -0.075223 0.142293 -0.081173 -0.217426 0.110849 0.076035 -0.297198 0.059564 0.045279 -0.146476 0.050746 -0.083308 0.015567 -0.019409 -0.238938 0.175454 0.068178 0.003164 -0.150475 -0.160492 0.133326 0.139137 0.084632 -0.164809 -0.304527 -0.146579 0.182544 -0.005017 -0.018779 -0.295892 0.366799 -0.104295 -0.118003 0.118885 0.385996 -0.075247 -0.464750 0.279064 0.061070 0.293131 0.007835 -0.031143 0.147671 -0.084711 0.278108 0.188048 -0.104809 0.413181 -0.154306 -0.137156 -0.050184 -0.129117 -0.228788 -0.117003 -0.207279 -0.139994 -0.135702 0.168405 0.253146 -0.195201 0.065530 0.204669 0.078276 -0.010090 0.138178 0.042809 -0.166590 -0.076416 0.280994 -0.044113 0.312980 0.269409 0.085265 0.367826 0.007041 0.139367 0.049832 0.130475 0.107872 -0.078349 0.362839 0.036153 -0.317241 0.087685 0.017099 0.001232 -0.014797 -0.155574 -0.277522 -0.254787 0.022143 -0.103053 0.132561 -0.213060 0.038254 0.186488 -0.117506 0.025581 -0.176346
sent_72 0.037415 0.107039 0.151097 -0.151781 0.105818 -0.027492 0.019026 0.050229 -0.112258 0.213687 0.082694 0.062953 0.166484 0.128594 -0.172776 -0.047943 -0.213032 0.069067 -0.000644 -0.089369 0.014613 -0.116085 0.263027 0.236297 0.073464 0.040025 -0.111313 -0.100544 0.014062 0.124998 -0.008716 -0.117378 -0.203489 0.088872 -0.060480 0.206565 -0.063054 0.087959 -0.139333 -0.015989 -0.022693 -0.100118 -0.005374 0.054700 0.043194 0.089911 0.203301 0.159349 -0.331492 -0.247007 0.201072 0.142052 -0.030962 -0.152125 0.122130 -0.033882 -0.003277 0.101613 0.043088 0.013214 -0.361586 0.032054 0.385162 -0.096087 -0.153975 -0.012891 -0.021633 -0.017433 0.013479 0.032882 -0.093175 0.042905 -0.208320 -0.006052 0.063555 0.047294 -0.197092 0.087514 -0.031936 -0.312681 0.041568 -0.035355 0.346345 0.185612 0.122952 -0.104860 -0.154904 0.042775 -0.094827 0.070629 0.217817 0.111099 0.360937 0.097441 0.057013 -0.126293 0.063682 -0.004836 -0.334438 0.092931
sent_73 -0.127733 0.340253 -0.190987 0.265175 -0.042782 0.327740 -0.048221 0.047133 0.131236 0.009531 -0.455382 -0.237082 -0.006326 -0.097989 -0.199578 0.368458 -0.176991 0.209404 -0.163770 0.040361 0.087938 -0.056847 0.156806 -0.012030 0.680174 -0.009067 0.109612 0.167630 -0.406459 0.659225 0.067816 -0.358383 0.031328 0.445878 -0.288717 0.103491 0.219586 0.219748 0.208614 -0.020279 0.188852 0.148349 -0.138493 0.228318 -0.227824 -0.228934 0.206712 0.657754 -0.456021 -0.269808 -0.055866 -0.014625 -0.229855 -0.343240 -0.429862 -0.117956 -0.142398 -0.334697 0.086753 -0.271852 -0.377161 0.452526 0.052983 -0.034705 -0.270485 -0.340042 -0.109686 -0.340854 -0.196804 -0.040549 0.147896 0.313937 -0.139849 -0.446201 -0.060621 -0.388061 0.219119 -0.261232 0.605199 -0.288584 0.393324 -0.213980 0.342821 0.240655 0.352840 -0.083685 -0.245349 -0.096125 -0.111096 0.258696 0.359979 0.440026 0.137431 0.217784 -0.113900 0.015989 -0.039267 -0.167303 -0.386134 -0.195664
sent_74 0.142060 0.045702 0.009768 -0.187134 -0.016151 0.088375 0.016181 0.021682 0.016542 0.018934 -0.217657 -0.150833 -0.031150 -0.140646 -0.050895 0.051064 0.064350 0.090498 -0.107711 -0.124391 -0.031876 -0.012524 0.137142 -0.134209 -0.026570 0.003650 0.095050 0.127389 0.014816 0.122478 -0.047356 0.172224 -0.034605 -0.145017 0.150830 -0.043417 0.080966 -0.065589 0.143637 0.085317 -0.000545 0.062501 0.026431 0.028728 0.143177 -0.098842 0.036524 0.005021 0.100642 -0.008926 0.095082 0.028384 0.212487 -0.014444 0.090337 -0.016704 -0.000082 -0.041954 0.043601 0.067082 -0.154736 -0.023723 0.063707 0.075156 -0.022101 -0.018353 0.079114 -0.058130 -0.164810 0.054980 -0.057086 0.101020 0.007941 -0.045476 0.069803 -0.035744 -0.071207 -0.023215 0.143137 0.107937 -0.164225 0.034642 -0.112804 -0.129757 0.033729 -0.057286 0.177146 0.148588 -0.005905 -0.064764 -0.001658 -0.010669 0.000611 0.150626 0.016137 0.156238 -0.009256 -0.010702 0.085373 0.092919
sent_75 0.209344 -0.280668 -0.138760 -0.178345 -0.028969 0.071024 0.014423 -0.078578 -0.049606 0.283351 -0.016053 0.102623 -0.175903 0.008810 0.144630 0.030890 0.279524 0.313490 0.095641 -0.068458 0.104988 0.421760 -0.051732 -0.342401 -0.446469 -0.045001 -0.308867 0.172377 -0.019984 -0.186730 -0.003931 0.253527 0.064479 -0.346725 -0.032917 0.001438 0.134382 0.024578 0.135893 0.148281 0.050353 -0.050562 0.163658 -0.108384 -0.038765 0.251631 -0.265675 -0.238171 0.110395 0.206755 -0.276977 0.122797 0.093704 -0.019754 0.040697 -0.106524 0.342062 -0.152454 0.067761 0.356908 0.075125 0.154740 0.009729 -0.113593 -0.040194 -0.056899 0.208179 -0.115545 0.209327 -0.061030 0.148601 0.542257 0.152239 -0.019471 -0.074701 -0.263452 -0.183918 -0.253104 0.071908 0.236807 -0.258298 0.127732 -0.248867 -0.348928 -0.335386 0.019097 -0.074915 0.184229 0.027280 -0.071574 -0.264743 -0.021762 -0.363773 -0.318168 -0.355121 0.125919 -0.101996 -0.047086 0.399566 0.032568
sent_76 -0.058331 0.266587 0.014337 -0.128604 0.172397 -0.127892 0.014791 -0.026061 0.553011 0.145125 0.052538 0.026660 0.150817 0.133442 -0.056149 -0.059555 -0.172954 -0.072407 0.151297 -0.119591 0.274931 0.056029 0.413422 0.279550 -0.132056 0.352461 -0.046168 0.194153 -0.053511 0.150021 -0.188171 0.296839 0.413478 -0.085328 -0.120885 -0.289234 0.185304 0.250133 0.350616 0.184421 0.129935 0.061750 -0.211374 0.131694 0.081463 -0.114476 0.144615 0.120159 0.064822 0.111715 0.331065 0.070068 -0.252444 -0.047869 0.094247 0.223497 -0.258849 0.217700 0.020638 -0.332943 -0.230949 -0.015383 -0.063351 0.166452 -0.134006 -0.193814 -0.288115 0.026724 -0.205491 -0.008079 0.279441 0.407680 0.057149 -0.178054 -0.019650 0.595220 -0.074259 -0.230348 0.414559 -0.499941 0.118788 0.074449 -0.175171 0.026349 0.269072 -0.006737 -0.250856 -0.154817 -0.186967 0.400113 0.044325 -0.409125 0.334380 -0.169638 -0.313603 0.165332 -0.201369 -0.142375 -0.223330 -0.202355
sent_77 0.292486 -0.011511 -0.078224 -0.073656 0.035426 0.038247 -0.131986 -0.261485 -0.180847 0.035820 -0.049153 -0.170356 0.169142 0.267894 -0.042283 0.162254 -0.020541 0.399988 -0.206493 -0.216965 0.364278 0.129640 0.009430 -0.013782 -0.252361 0.093198 -0.119004 -0.083112 0.137615 0.259499 -0.016826 -0.270668 0.150467 -0.069488 0.253724 0.093288 0.207333 -0.245869 0.068754 -0.193136 0.071153 -0.312322 0.155744 0.205405 0.337948 0.277312 -0.060436 -0.073211 0.312277 0.078652 0.125235 0.010861 0.148507 -0.062251 0.040392 0.252204 0.211197 0.236095 -0.065497 0.153752 -0.243681 0.106275 0.318329 -0.239851 0.129848 0.041474 -0.128961 0.218199 0.363479 -0.282103 -0.161408 0.212270 -0.167460 0.116242 -0.115822 -0.208557 -0.390595 0.282710 0.035042 -0.044436 -0.068799 -0.082343 0.245443 -0.018590 -0.047176 -0.220019 0.420693 0.169066 -0.059114 -0.153767 -0.052021 0.034710 -0.569769 0.016452 0.179618 -0.250908 -0.132846 -0.235057 0.115897 0.067248
sent_78 0.517321 0.349664 -0.475448 -0.072323 0.396718 -0.319324 -0.509896 0.002326 0.366868 -0.290783 -0.004741 -0.038929 -0.228808 -0.290535 0.055893 0.241998 -0.246412 -0.228951 -0.023807 0.101194 0.075512 -0.129018 -0.203547 0.374553 -0.195738 0.224844 0.284075 -0.236609 -0.246232 0.094512 -0.168965 0.297233 -0.312529 -0.107251 -0.082340 -0.073175 -0.165355 0.267500 0.229577 0.058607 -0.328415 -0.859459 0.050453 -0.141165 0.004954 -0.022893 0.050925 -0.043335 -0.145551 0.335923 0.027762 -0.418154 0.072244 0.269335 0.279800 0.224008 -0.243495 -0.421971 -0.042216 0.696714 -0.482457 -0.250901 0.126548 -0.050296 0.004603 0.076572 0.041489 -0.601497 -0.281019 -0.083351 -0.016975 -0.089384 0.178741 0.048814 0.309449 0.008229 0.116601 -0.182592 0.289405 -0.179479 0.063060 -0.233559 0.159941 -0.114536 0.465331 0.219781 0.166477 0.245996 0.081904 -0.183148 -0.014014 -0.040947 -0.180576 0.010625 0.367641 0.229316 -0.370805 0.140738 -0.389127 -0.084341
sent_79 -0.275594 -0.585878 -0.001785 -0.096272 -0.063413 0.052341 0.087069 -0.339660 0.105884 -0.101469 0.608705 0.315302 -0.029050 -0.204451 0.176448 -0.085722 -0.300141 0.207094 0.059034 -0.136015 0.505103 0.747095 0.358847 -0.013716 -0.326539 0.237350 -0.543065 0.234074 0.361791 -0.343345 -0.054773 -0.177174 0.183497 0.225701 -0.105168 -0.185556 -0.052616 0.204971 0.147683 -0.212937 -0.011308 -0.002557 -0.199343 -0.006987 -0.018745 0.017503 -0.320624 0.166007 -0.285274 0.337840 -0.396117 0.245243 -0.377916 0.238694 -0.000258 0.122597 0.370372 -0.206957 0.199342 0.178095 -0.222614 0.226697 -0.230238 0.050068 0.061100 -0.139762 0.394095 -0.169972 0.418421 -0.589466 0.340761 0.465590 -0.085502 -0.169504 0.181140 0.021345 0.079647 0.223662 -0.068919 0.012703 -0.088102 0.045323 -0.191668 0.012171 -0.464031 -0.038588 0.000238 -0.048089 -0.178022 -0.072596 -0.059205 0.116092 0.493194 -0.404695 0.075245 -0.534996 0.025154 0.307934 0.167335 -0.325238
sent_80 0.334764 0.532072 0.132879 -0.118867 0.066715 0.153166 0.101830 0.002334 -0.362100 -0.048366 -0.705174 -0.377399 -0.151890 0.009197 -0.224107 0.017192 -0.357983 0.278347 -0.024066 -0.217612 0.252207 0.261853 0.196328 0.364184 0.204332 -0.021879 0.065356 0.075983 -0.104241 -0.044508 -0.090354 -0.093694 -0.188211 0.352301 0.204682 0.231314 0.095065 -0.257170 0.121897 -0.531457 -0.173635 0.085399 0.274619 0.063669 -0.193435 0.528355 0.039887 0.332665 -0.260317 0.146189 -0.258383 0.090708 -0.021914 0.360750 0.196910 -0.242839 -0.314072 -0.081220 0.142284 0.406703 -0.295018 -0.099552 0.346331 0.215619 0.083045 -0.142310 -0.110072 -0.059539 -0.108452 0.193572 -0.165064 0.103887 -0.179512 -0.090595 0.297336 0.469373 -0.312001 -0.060269 0.177736 0.271689 -0.016810 0.113607 0.235316 -0.314192 0.211699 -0.144181 0.164601 -0.087800 -0.361762 0.118552 -0.264870 0.256553 -0.446054 0.278357 0.130682 -0.163173 -0.200161 0.411495 0.070882 0.003521
sent_81 0.097928 -0.354156 -0.010526 -0.257681 -0.196445 0.168116 -0.007840 -0.383880 -0.126359 0.219462 0.002344 0.011384 0.192326 -0.047865 0.005380 0.018256 -0.007511 -0.023443 -0.079398 -0.120816 -0.105940 0.175841 -0.013009 -0.018352 0.160802 -0.032355 0.166679 0.168276 -0.103554 0.334521 -0.000074 -0.066149 0.016846 -0.088064 0.195723 0.025910 0.030323 -0.183706 0.144346 0.211299 0.084384 -0.055493 0.184437 -0.030097 0.004262 0.177827 -0.142504 0.307333 -0.022601 -0.160357 -0.305953 0.016250 -0.291342 0.023557 -0.088886 -0.016275 0.011464 0.064539 0.096586 0.242454 -0.191417 0.065390 0.227180 -0.002746 0.087523 -0.072309 -0.019031 -0.157811 -0.194867 -0.178470 -0.030752 0.149411 0.111199 0.063459 0.304433 -0.377999 -0.056578 0.228502 0.088753 0.047623 0.065717 0.004709 -0.027283 -0.221073 0.129407 -0.047236 0.050505 -0.002456 0.013451 -0.177469 -0.057462 0.107431 -0.180001 0.224544 -0.205953 0.058230 0.117171 0.142577 -0.010687 0.131540
sent_82 0.366696 0.089690 0.133127 0.481379 -0.064250 0.029398 0.064386 0.332660 -0.262885 0.143689 -0.030407 -0.265506 0.077288 0.194039 -0.154449 -0.365512 0.067333 0.076613 0.328530 0.284965 0.121876 0.269205 -0.328658 0.428279 0.181524 -0.637988 -0.229438 -0.492932 -0.027211 -0.047390 0.125267 -0.396899 -0.045393 0.273227 -0.229682 0.269361 -0.176459 -0.192314 0.107716 0.183177 0.239166 -0.048258 0.209073 -0.172280 -0.459346 0.163637 -0.155842 -0.148002 0.269244 -0.223513 -0.104438 0.482081 -0.350840 -0.097462 -0.216013 -0.012616 -0.118956 -0.602256 0.234415 0.080342 -0.314116 0.381724 0.431264 0.051938 0.049695 -0.136675 0.034721 -0.148908 0.454183 0.282298 -0.184931 0.227360 0.024411 0.080676 0.193315 -0.147557 0.196144 0.028753 0.304761 -0.391794 -0.175991 -0.023486 0.504387 -0.075414 -0.118978 0.039207 0.162372 -0.095508 -0.114726 0.012403 0.067052 0.140661 -0.321890 -0.272929 -0.009295 -0.070868 -0.276277 0.009741 0.414795 -0.241370
sent_83 -0.010237 0.292292 0.020418 -0.015280 0.528633 -0.199189 0.290064 0.013989 -0.086012 0.183194 -0.262507 -0.010079 -0.045395 0.148884 -0.172763 -0.223206 -0.078622 -0.115746 -0.461169 -0.087921 0.110023 0.230773 0.350243 0.158439 0.045193 0.244085 0.148265 0.049875 0.107871 0.200594 -0.084081 -0.410330 0.137723 0.085457 0.194685 -0.223524 0.107388 0.017738 0.191101 -0.139247 -0.134195 -0.393723 0.138683 -0.045796 0.071810 0.218526 -0.024756 0.096179 0.072765 0.216650 0.314304 -0.276918 -0.048342 -0.003794 0.274654 -0.142198 0.037683 0.332461 -0.063996 -0.008108 -0.036346 -0.257930 0.139897 -0.105983 -0.067309 -0.111149 -0.000460 0.364533 0.111057 0.064112 -0.324519 0.263400 0.030019 0.118972 0.088714 0.082400 -0.102807 0.032962 0.101959 0.167857 -0.080849 0.156497 0.449025 -0.183816 -0.158420 -0.052234 -0.014644 -0.110631 -0.361082 0.032650 0.103524 -0.272616 -0.569764 0.223134 0.321703 0.303945 -0.040983 0.032603 0.112656 -0.030061
sent_84 -0.108246 0.373755 0.376839 0.297349 0.029903 0.136168 0.245308 0.129185 -0.146466 0.205450 -0.454307 0.056900 -0.171233 0.301966 -0.109070 0.329602 -0.181399 0.361469 0.020669 0.497583 0.045976 0.229607 0.130257 -0.007665 0.565178 -0.311492 -0.547701 0.303374 -0.400065 0.051341 0.226979 -0.423850 0.256891 0.174699 -0.229578 0.103216 0.447236 0.111903 -0.215890 0.022620 -0.031254 0.041517 0.006398 -0.059677 -0.239229 0.012455 0.084874 0.394914 -0.336448 -0.101093 0.185417 0.354739 -0.343357 -0.159584 -0.378881 -0.088579 -0.014009 -0.337705 -0.148595 -0.003465 -0.201905 0.465942 0.040880 0.096018 -0.168596 -0.116418 -0.122263 -0.098318 0.276318 -0.027170 0.119295 0.122743 -0.327914 -0.139995 0.058481 0.559126 -0.149716 0.082945 0.068173 -0.317120 -0.218930 -0.069588 0.040814 0.047771 0.074636 0.019133 -0.097134 -0.198906 0.165058 0.532658 -0.224926 0.263864 0.189607 -0.187484 -0.063782 -0.082592 0.151606 0.137279 0.180364 -0.293495
sent_85 0.338968 0.061328 -0.012838 -0.084682 0.485586 -0.334608 0.030337 0.564554 -0.024746 -0.081176 0.100178 -0.116624 -0.299443 -0.280683 -0.130969 0.272679 -0.130421 -0.221893 0.369231 0.222465 -0.066349 -0.228103 0.100695 -0.227792 -0.286861 -0.193024 -0.050552 -0.537034 -0.246216 -0.329410 0.169710 0.573797 -0.415605 -0.217515 0.095419 0.164397 -0.249205 0.295609 -0.203465 0.396161 -0.275581 0.107784 -0.438367 -0.636205 -0.048062 -0.020143 0.427958 -0.288606 0.247629 -0.467314 0.087589 0.612058 0.318878 0.287601 0.617858 0.236947 0.064760 0.077135 0.183846 0.143455 0.394419 -0.131971 0.232613 -0.166484 0.097572 0.323053 0.013232 -0.193173 0.655382 -0.084619 -0.087344 -0.255930 -0.293122 -0.190004 -0.142517 0.708928 -0.394705 -0.672636 0.048170 0.130099 -0.423866 -0.083559 0.121497 -0.454122 -0.073119 0.411112 0.201392 -0.157868 0.361349 -0.067526 -0.527205 0.347763 -0.449722 -0.233097 0.137508 0.131853 0.395385 0.024155 0.513202 -0.117276
sent_86 0.220863 0.059086 -0.305596 -0.004142 0.266663 -0.109646 -0.458550 -0.212059 0.039820 0.035767 -0.089226 -0.494622 -0.082699 -0.119401 -0.118783 0.243799 -0.295069 -0.034944 -0.002985 0.100758 0.276420 0.008795 0.016089 -0.151407 0.017463 0.476151 0.100069 -0.251277 -0.282373 0.046734 0.429420 0.053258 -0.184433 0.098352 0.342942 0.013828 -0.002577 -0.025054 -0.319018 0.017423 -0.219823 -0.084249 -0.127156 0.089553 -0.120612 0.144718 -0.469774 -0.231293 0.050823 -0.322835 0.038206 0.263792 0.041706 0.506447 0.284231 0.431908 -0.424211 0.144182 0.096335 -0.112479 -0.032221 -0.335930 0.327749 -0.282288 -0.407024 -0.055588 -0.195066 -0.142273 -0.058876 -0.073387 0.052009 -0.295494 -0.048122 -0.164773 -0.116655 0.676450 0.137800 -0.159945 0.353805 0.015624 0.119375 -0.069275 -0.154449 -0.271748 0.048822 0.475590 0.460307 -0.313429 0.355881 0.082375 -0.610778 -0.079124 -0.228005 0.168083 0.157725 0.166276 -0.188737 -0.276387 0.303133 -0.098058
sent_87 0.055949 -0.152441 -0.045006 0.087404 0.244560 -0.248129 0.258954 0.124295 0.525995 -0.107938 -0.402524 -0.075878 0.073967 -0.633575 -0.183489 0.115183 -0.220576 -0.014154 -0.098783 -0.146312 0.598987 -0.035154 -0.072219 0.089484 -0.035088 -0.164563 -0.207958 -0.084610 0.447880 -0.128497 -0.276652 -0.329815 0.021076 0.061029 -0.005058 0.199363 -0.034282 0.218064 -0.375550 0.469939 0.021138 0.162647 -0.453540 -0.438484 0.017379 0.000469 0.456428 -0.290016 -0.249607 -0.081009 -0.177320 0.347678 0.157850 -0.072961 0.379972 -0.137061 -0.083561 0.537612 -0.064826 -0.170465 -0.292943 -0.105503 0.337715 0.035894 0.341811 -0.159394 -0.028846 -0.016281 0.516933 0.021632 -0.280991 -0.009977 -0.054458 -0.165048 0.217343 0.294617 -0.162477 -0.149703 0.204031 0.272408 0.098509 0.179831 0.564081 -0.565248 -0.049367 0.246875 0.189211 -0.276896 -0.357707 -0.342323 0.000332 0.121828 0.134052 -0.223691 -0.054705 0.058855 -0.381893 -0.093379 -0.136769 -0.323594
sent_88 -0.102716 0.244039 -0.099163 0.387361 0.318221 -0.616695 0.071992 0.204364 0.576298 0.225373 -0.302449 0.064540 0.216488 -0.564156 -0.156094 0.319791 -0.029013 -0.224508 0.378051 0.190190 0.022564 -0.135286 0.183935 0.630044 0.149589 0.289101 0.170380 -0.019120 -0.102886 -0.090197 -0.419341 -0.005548 0.169506 0.297701 -0.342962 -0.358949 0.322265 0.253782 0.449142 0.213349 0.220994 -0.128193 -0.458817 -0.075760 -0.145501 -0.259058 0.206103 -0.087807 -0.229430 -0.005222 0.379135 -0.119439 -0.367610 -0.139500 0.003948 0.272638 -0.148580 0.305892 -0.162926 -0.150460 -0.071537 -0.431221 -0.055848 0.066665 -0.091385 -0.294069 0.009546 -0.144642 -0.254697 0.271089 0.018289 0.567895 0.072744 -0.231215 0.031527 0.475410 -0.297430 -0.178201 0.305215 -0.148027 0.433266 -0.143099 0.133146 -0.065434 0.292176 0.131663 -0.119931 -0.308738 0.148974 0.032811 0.322410 -0.313441 0.391845 -0.006497 0.017184 0.058746 -0.255965 -0.102425 -0.292606 -0.176745
sent_89 -0.117006 -0.129810 0.040245 -0.027361 0.006943 -0.112773 0.457536 -0.024593 0.293237 0.328481 0.117462 0.130206 -0.092444 -0.041525 -0.117171 -0.404099 0.037627 -0.157893 -0.168885 -0.045021 0.046588 0.437300 0.696857 -0.051910 0.271958 0.252608 0.248533 -0.099749 0.172181 -0.212490 0.019763 -0.198725 0.161525 -0.236842 0.067465 -0.318881 0.186335 0.268345 0.295043 0.020371 0.018376 0.172725 -0.037652 -0.195122 0.113228 -0.113067 0.074880 -0.175729 0.093257 -0.028370 0.299635 0.544576 0.051301 0.239381 0.315718 -0.048813 -0.217177 0.152016 0.115872 0.035646 -0.086206 -0.373199 -0.292375 0.191573 0.082575 -0.057461 -0.350048 0.156539 -0.377255 0.444865 -0.026091 0.278235 -0.100925 -0.062092 -0.179996 0.710430 -0.128922 -0.144836 0.186616 0.102521 -0.301470 -0.006514 -0.284019 -0.317814 -0.173102 -0.326061 0.200799 -0.269839 -0.184378 0.070108 0.060285 -0.233473 0.157193 -0.260091 0.386331 0.119161 0.013266 0.152742 0.021817 -0.356582
sent_90 0.284483 -0.153707 0.165411 -0.098575 -0.056983 -0.083916 -0.031077 -0.039340 0.238424 0.132981 -0.236942 0.024558 0.161243 -0.551920 0.084346 -0.071640 -0.017311 0.051761 0.195214 -0.005962 -0.097132 -0.143178 0.095135 0.217924 0.164655 -0.192748 -0.024868 -0.124168 0.029501 -0.189968 0.138078 -0.346364 -0.096298 -0.083960 -0.218683 0.115960 -0.029344 -0.138448 -0.035080 0.222122 0.216280 0.365773 -0.193013 -0.082808 -0.292206 0.123336 0.252119 0.060160 0.038784 -0.105024 0.032913 0.513354 0.059768 0.242649 0.291267 -0.007518 -0.389557 0.130549 -0.056679 0.351737 -0.159969 -0.144365 0.072088 -0.084850 -0.001832 -0.159766 0.087062 -0.241344 0.034466 0.196858 -0.185020 0.185135 0.016989 0.079721 0.331000 0.315325 -0.082693 0.038929 0.053686 0.136993 -0.247134 -0.035980 -0.232926 -0.368391 -0.165975 0.053764 0.313287 -0.056523 -0.048345 -0.361955 -0.182735 -0.007734 0.160001 0.067485 -0.069850 0.024096 0.036326 0.064153 -0.003524 -0.176887
sent_91 -0.009771 -0.170790 0.098383 -0.404260 -0.089040 0.171352 0.343261 -0.479342 0.103788 0.110240 -0.012550 0.177966 0.184426 0.112637 -0.323433 -0.463074 -0.188552 0.287105 -0.047196 -0.381566 0.019664 0.314258 0.040195 0.023778 0.001139 0.372098 0.007682 -0.077259 -0.161598 0.181385 -0.191965 -0.112951 -0.122658 -0.016541 0.349426 0.155463 0.103003 0.105472 0.221457 -0.363722 0.070858 0.048971 0.093951 0.141773 -0.079218 0.326162 -0.141421 0.152999 -0.110889 -0.047975 -0.014011 0.270276 0.173667 -0.123719 0.365217 -0.102530 0.237548 0.128062 0.254281 0.368940 0.071266 -0.478473 0.137758 0.098982 0.233780 0.150641 -0.178629 0.048901 -0.023537 -0.031452 -0.048060 0.040206 0.019056 -0.071287 0.307292 0.587597 -0.216683 0.069695 0.051202 0.020869 -0.103201 0.216663 0.141253 -0.158757 0.115538 -0.267912 0.244034 -0.188773 -0.355207 -0.013396 0.058453 -0.051190 -0.268806 0.073823 0.449837 0.001235 -0.019519 0.125940 0.017706 -0.077981
sent_92 -0.104186 0.055868 -0.003515 0.017024 0.132401 -0.137357 0.104273 0.003973 -0.094952 0.259712 0.115283 0.215035 0.077570 0.007592 0.229226 0.073805 0.182219 0.051196 -0.031484 -0.033746 0.157306 0.224640 0.278426 -0.010014 -0.250301 0.054395 -0.121706 0.053457 -0.000184 -0.194731 0.004865 -0.047194 0.173073 -0.091338 -0.006368 -0.023808 0.170389 0.001321 0.066143 -0.065262 -0.001346 -0.288088 -0.012681 0.108243 0.065736 0.080384 0.010896 -0.092868 0.032940 0.113880 0.115435 -0.244543 -0.231689 -0.125933 -0.185950 0.037364 0.202961 0.018120 -0.018765 -0.006152 -0.142152 0.158068 -0.016803 -0.197730 -0.168162 -0.180610 0.061715 0.050792 0.006321 -0.013310 0.025753 0.227256 0.024518 -0.062815 -0.074474 -0.015166 -0.094844 0.004329 -0.096043 0.060789 0.068269 -0.012424 -0.099714 0.065879 -0.008530 -0.117259 -0.054306 -0.019743 0.112643 -0.033713 -0.060768 -0.110777 0.129044 -0.099921 -0.180214 -0.150967 0.069158 0.040848 -0.012573 -0.058557
sent_93 0.119528 0.032092 -0.154363 -0.138607 -0.018235 0.045576 0.007347 -0.030122 -0.084969 0.011289 -0.245597 0.008612 0.025395 -0.219599 -0.012945 0.381306 0.115233 0.045368 0.105377 0.046542 0.126518 0.179621 0.065353 -0.103394 -0.039916 0.029382 0.065024 0.057943 -0.246200 0.092783 0.003059 0.165541 0.090704 0.134626 0.105237 0.066284 0.133188 -0.103608 0.213238 0.065221 -0.034412 -0.024462 -0.009866 0.042895 -0.122109 -0.045709 0.051601 0.151486 -0.071926 0.158301 0.104779 -0.108006 0.096964 -0.108208 -0.174302 0.144173 0.117534 -0.083342 -0.082250 0.185063 0.118897 -0.133946 -0.161130 0.148431 0.084903 -0.136725 -0.011614 -0.035597 -0.219836 0.026517 0.057451 -0.138642 -0.004404 -0.143443 -0.102138 0.009984 -0.025591 -0.050897 0.135288 0.117137 0.174500 -0.050451 -0.231116 0.052213 0.254956 -0.017849 0.225288 0.016917 0.168052 -0.035894 -0.019778 0.158186 0.019537 0.023256 0.002860 0.079500 0.169777 0.124938 -0.001789 0.016197
sent_94 -0.059355 0.079449 -0.119429 0.019061 -0.006910 0.144176 0.055150 0.000238 0.108080 -0.021741 0.023296 0.079817 -0.009121 0.124541 0.108009 0.031600 -0.076405 0.009729 -0.202053 -0.084484 0.038559 -0.023361 0.098631 -0.141207 0.096740 0.064691 0.018871 -0.105212 -0.016275 -0.061375 0.069709 -0.101023 -0.094734 -0.049105 0.039829 -0.048274 -0.007014 -0.030797 0.105568 -0.070249 0.067005 -0.005923 -0.024479 0.036213 0.048312 -0.071886 0.045643 0.007833 0.101074 -0.038924 0.023942 0.005191 0.124192 -0.023244 0.043167 -0.000218 -0.013241 -0.038900 -0.016243 -0.107605 -0.113799 0.121530 0.010504 -0.018714 -0.021794 -0.031416 0.007681 -0.081656 -0.073513 0.094295 -0.003007 0.019935 0.000394 -0.007005 -0.027377 -0.025857 0.131969 -0.118310 0.042653 0.072624 -0.063663 -0.013518 0.008694 0.009677 -0.015401 -0.046999 -0.070459 0.018023 -0.133288 0.115478 -0.092141 0.033527 -0.018635 -0.023682 -0.025828 0.022995 0.020044 -0.097819 0.022295 -0.058170
sent_95 0.196667 0.088772 -0.121291 0.145878 0.198115 -0.077142 0.195144 0.069802 -0.421504 0.290470 -0.152011 0.006455 0.180554 0.052571 0.008870 0.051697 -0.044319 -0.085321 -0.053995 0.135594 -0.169015 0.070657 0.047248 0.093784 0.136336 -0.133796 -0.083553 0.058330 -0.145763 -0.006984 0.089571 -0.359494 0.154412 0.009153 -0.170449 -0.195058 -0.027498 -0.087198 0.200498 -0.068413 0.241087 0.219231 -0.315098 -0.027906 -0.136697 0.092423 0.022032 0.092234 -0.076894 -0.046122 0.023241 0.089678 -0.438189 0.059925 -0.185216 -0.088225 0.029133 0.141209 -0.080212 -0.108230 0.161186 0.248044 0.223586 0.181877 -0.018347 -0.318345 -0.270370 0.051775 -0.185029 -0.042827 0.001166 0.165044 -0.057544 -0.159805 -0.044106 0.179354 0.063385 -0.107587 0.028287 -0.030995 0.323817 0.198975 0.017962 -0.193018 -0.075691 -0.047392 -0.040916 -0.250955 0.117448 0.061042 -0.016788 0.015867 0.070000 0.003995 -0.070255 -0.119169 0.217446 0.335206 -0.016558 -0.033015
sent_96 -0.002102 0.073975 -0.029208 0.049738 0.182446 0.034981 -0.015328 -0.084424 0.015803 0.087502 0.043435 0.029831 -0.152460 0.009845 0.040392 -0.053409 0.100315 0.032652 -0.107262 0.054495 0.135406 0.173349 0.060287 -0.079615 -0.154720 0.048668 0.064354 0.013666 -0.039994 -0.071350 0.011059 -0.091074 -0.011705 -0.106700 0.209493 -0.082078 0.011039 -0.011248 -0.109976 -0.033407 -0.136211 -0.115043 0.085771 -0.071675 0.018786 0.053283 -0.025883 -0.168383 0.149448 0.047505 0.011322 -0.121565 -0.046315 0.044683 -0.038224 0.015030 0.020097 -0.055647 -0.037510 -0.009168 -0.005145 0.009994 -0.017197 -0.078411 0.027710 0.031516 0.049005 0.001442 0.212516 -0.007540 -0.103799 0.040756 0.106620 0.006125 -0.041653 0.030300 -0.020671 -0.101773 0.035705 0.252488 -0.007330 0.037876 0.036788 -0.026203 -0.035342 0.086133 0.022641 -0.059002 0.004489 0.060001 -0.156553 -0.090455 -0.150185 -0.079346 0.027777 0.052020 0.029419 -0.084171 0.213194 -0.023883
sent_97 0.526596 -0.581956 0.052522 0.294205 -0.272523 0.727891 0.072169 -0.434156 0.140971 -0.195759 -0.018631 -0.231606 -0.114501 -0.331608 0.057508 -0.380570 0.638522 -0.035507 -0.167298 0.075715 0.391894 0.727224 0.396355 0.182608 0.175991 0.127143 0.310592 0.406028 0.114965 0.067010 0.140416 -0.047372 0.022536 0.296354 0.170868 0.238291 -0.006956 0.220738 -0.021907 0.145176 0.251128 -0.714062 -0.129201 0.093589 -0.073948 0.148984 -0.295114 0.350907 -0.024277 0.495120 -0.602359 -0.028414 -0.342031 0.336549 -0.177702 -0.187723 0.051569 -0.068819 0.150743 0.249966 -0.452213 0.385851 0.259440 0.506389 -0.048873 -0.105142 0.765507 -0.824270 0.284769 -0.522221 -0.009413 0.568273 0.055264 0.419515 0.783082 -0.395516 0.048643 0.244408 0.187231 0.235495 0.008912 0.440981 -0.127120 -0.138196 -0.032394 0.137318 -0.444219 0.499506 -0.420274 0.183393 0.389740 0.344988 0.033886 -0.169704 -0.148017 -0.143379 0.537731 0.121630 0.531608 -0.419374
sent_98 0.207927 0.538602 -0.117957 0.299896 -0.094905 -0.109950 -0.084781 0.146732 -0.152929 0.157057 -0.290830 -0.074280 -0.254811 -0.060298 0.058144 0.268011 -0.393111 0.046524 0.111066 0.305059 0.577749 -0.168058 0.312217 0.001064 0.215489 0.023754 -0.276919 0.187803 0.085805 -0.370192 0.231926 -0.079240 0.063990 -0.104951 -0.337420 -0.190265 0.082232 -0.026662 -0.236903 -0.386193 0.051578 -0.011410 -0.373395 -0.069573 -0.170219 -0.303199 0.138412 0.115760 -0.007889 -0.470720 -0.007352 0.321057 -0.376750 0.001728 -0.460795 0.159583 -0.284573 -0.382794 -0.226503 -0.392913 -0.104830 0.441452 -0.039334 0.300612 -0.184114 -0.434911 0.065075 -0.406976 0.229274 0.103123 0.140149 0.173400 -0.396425 -0.093519 -0.495582 0.053481 0.123731 -0.102461 0.192537 0.042076 0.134502 0.037395 -0.240389 0.317433 0.111984 -0.261228 0.263390 0.115331 0.184713 0.611345 0.031136 0.065833 0.670843 -0.420286 0.140388 -0.298498 0.291302 0.308445 0.056383 -0.122925
sent_99 -0.000627 0.003632 0.001802 -0.003106 0.000841 0.004440 0.000075 0.004674 -0.001337 -0.002093 0.003399 0.003697 -0.002983 0.002195 0.000921 0.003945 -0.003506 0.002630 0.001900 0.002950 -0.000467 -0.002716 -0.002139 -0.001957 0.003403 0.000372 0.000636 -0.002158 0.003342 0.002049 0.003781 -0.003685 0.003496 -0.004479 0.003771 -0.002603 0.003857 -0.001207 0.003429 0.000396 0.000642 0.004840 0.004637 -0.003857 -0.001359 -0.002495 -0.000517 -0.003736 0.000116 0.003656 -0.001476 -0.003444 -0.001927 0.002429 -0.004087 0.002356 0.001139 0.002403 -0.004910 0.002205 -0.001794 0.001330 -0.004462 0.000564 0.004416 -0.001799 0.000227 -0.000923 0.000697 -0.004317 -0.001381 0.000207 -0.004152 -0.000324 0.002722 -0.000570 -0.001091 -0.002271 -0.004481 0.002618 -0.000142 -0.003387 -0.004339 0.002579 0.000884 0.000588 -0.002937 0.000943 0.004342 0.002255 0.000866 0.003653 0.004966 0.003651 -0.003208 0.001947 -0.002038 -0.004405 -0.003920 0.002628
sent_100 0.095202 0.058609 0.080161 -0.034436 -0.107304 0.004860 0.241835 -0.017069 -0.237348 0.233019 -0.172577 0.265396 0.144989 0.104179 -0.061993 0.115816 0.141270 0.028795 -0.134750 0.050679 -0.196385 0.105967 0.104611 -0.085511 -0.147364 -0.076773 -0.080095 0.101187 -0.282816 0.183286 0.074911 -0.163161 0.037460 -0.060318 0.001039 -0.107027 0.070342 -0.028497 0.257627 -0.094475 0.327031 0.170251 -0.177986 0.136054 -0.087896 0.176812 0.048525 0.267575 0.038568 -0.057119 -0.044128 0.073666 -0.064624 -0.235693 -0.226192 -0.071484 0.131063 -0.134860 -0.014689 -0.168778 0.122316 0.408105 0.051940 0.113150 -0.095096 -0.164973 -0.108329 0.023687 -0.053623 -0.011051 0.052309 0.199360 -0.045037 -0.149052 -0.003552 0.091027 0.114242 0.009971 0.137322 0.088996 0.109130 0.071273 -0.112879 -0.039780 0.083261 -0.320220 -0.057721 -0.132408 0.038127 -0.099566 -0.019789 0.082339 0.001127 -0.035652 -0.144346 0.081237 0.275688 0.084374 0.097937 -0.010609
sent_101 0.322953 -0.027643 0.105640 0.116494 0.027243 0.026552 0.130824 0.063654 -0.039081 0.238468 0.109978 -0.126130 0.169022 -0.207222 -0.015457 0.260743 -0.063380 -0.374523 0.132973 0.187181 0.072089 -0.120015 0.177675 0.022514 0.303467 0.281248 -0.268010 0.161185 -0.093792 -0.262860 0.463617 -0.046827 0.693453 0.406848 -0.261772 -0.263629 -0.028983 0.293345 0.073643 -0.332439 0.282239 0.295391 -0.442131 0.253780 -0.327860 -0.094155 -0.166397 0.228078 -0.107521 0.151344 0.375689 0.147099 -0.207411 0.109678 0.023770 0.190237 -0.133186 0.076789 -0.257750 -0.202447 0.354449 -0.325771 -0.221769 0.177904 -0.092863 -0.350664 -0.280364 -0.158587 -0.263812 -0.069697 0.512707 -0.106501 -0.227226 -0.044325 -0.388663 0.346817 -0.077014 0.037978 -0.104014 -0.071841 0.250460 0.009820 -0.488086 0.173679 0.019277 0.009600 0.108579 -0.266563 0.279267 0.255847 0.081344 -0.310411 0.143044 -0.211520 -0.167173 -0.084307 0.017675 0.282897 -0.231076 -0.268834
sent_102 0.130454 -0.113690 -0.212878 -0.121809 0.046489 -0.043990 0.082025 -0.139843 -0.158829 0.196992 -0.225817 -0.099818 -0.211049 -0.096796 0.032999 -0.229453 -0.345147 -0.112845 -0.005049 0.249569 -0.069374 0.027025 -0.139310 0.073179 0.101944 -0.095031 0.027814 0.076894 -0.035514 0.135377 -0.239734 0.125678 -0.439804 -0.119376 0.045109 -0.203473 -0.006395 -0.066398 0.010260 -0.012970 0.044841 0.092591 -0.244068 -0.326144 -0.016210 0.120315 0.046407 -0.032146 -0.019236 -0.149042 -0.342187 0.083250 -0.404341 0.189102 0.089070 0.302915 -0.072614 0.143502 0.059389 0.019257 0.025780 0.020242 0.191026 0.267615 0.226147 0.216779 -0.209222 -0.241168 0.103652 -0.178507 -0.248316 -0.045731 0.033116 -0.330221 0.072142 0.120409 0.030631 -0.010560 0.021483 0.075752 -0.127238 0.042647 0.234686 -0.188846 -0.157068 0.059235 0.448741 -0.291076 0.092762 -0.212791 0.016772 0.141778 -0.162955 -0.152732 0.401177 -0.366692 -0.048730 0.201784 -0.306820 0.036664
sent_103 -0.200417 -0.089494 -0.105755 -0.027409 0.244086 -0.172867 -0.089991 -0.082800 0.058036 -0.081506 -0.128417 -0.119778 -0.027845 0.039213 -0.235521 -0.335139 0.090680 0.094433 0.058423 -0.035696 -0.269444 -0.121632 -0.280962 0.101053 -0.155350 -0.208794 0.223939 -0.197032 -0.206181 0.223594 -0.074335 -0.269812 -0.572536 -0.370629 0.347189 -0.110371 -0.048266 -0.111312 -0.121872 0.130905 -0.017117 0.081238 -0.183980 -0.177579 0.006367 0.170930 -0.058929 -0.301542 0.356959 -0.471422 0.032140 0.173103 -0.227832 0.157734 -0.026722 -0.039152 -0.085013 -0.051678 0.047336 0.236605 0.082753 -0.026714 0.127457 0.138110 0.277562 0.200394 0.015102 -0.048860 0.395112 -0.031009 -0.464505 0.031679 0.220918 -0.060940 0.537335 0.235183 -0.208858 -0.241456 0.153953 0.215325 0.170863 0.130908 0.172764 -0.331642 -0.186639 0.170300 0.196251 -0.090200 0.152144 -0.374455 -0.229772 -0.131982 -0.130157 0.036698 0.449300 0.102694 0.098584 0.270799 0.240134 0.213862
