2844 10
sent_0 -0.040587 0.307301 0.197858 0.457939 0.256607 0.191322 -0.408965 -0.247381 0.133650 0.249909
sent_1 0.338585 0.719246 -0.394282 -0.054108 0.240446 -0.534742 -0.231889 0.280130 0.054792 0.085059
sent_2 0.785036 -0.235707 -1.398149 0.079474 0.173483 -0.249848 0.147052 -0.469299 -0.181756 -0.377258
sent_3 0.777228 -0.175563 -1.558132 -0.194731 0.083017 -0.754283 0.065913 -0.192354 0.112088 -0.127045
sent_4 0.772512 -0.060379 -1.101264 0.352802 0.178449 -0.399425 0.295046 -0.022672 -0.111372 -1.048578
sent_5 0.922828 -0.079488 -1.129250 0.454234 0.041814 -0.799390 -0.197983 -0.325215 0.038303 -0.063272
sent_6 0.737282 -0.110568 -1.465888 0.216974 -0.236690 -1.101261 0.237044 -0.726730 0.231810 -0.202854
sent_7 0.195995 0.040673 0.352175 0.104609 0.690797 -1.395243 0.161900 -0.513487 -0.266542 -0.556791
sent_8 0.483243 0.846438 -0.895059 -0.286717 0.164783 -0.618947 0.023588 -0.704292 0.096133 -0.119880
sent_9 0.320881 -0.020737 -0.342488 0.242895 0.104778 0.071929 -0.542465 0.008418 -0.193852 0.177079
sent_10 0.426397 -0.021832 -0.784174 0.987041 -0.030980 0.337313 -0.249667 -0.341744 0.064689 -0.240048
sent_11 0.141891 0.048662 0.198729 0.597819 0.237588 0.141064 -0.452825 -0.481813 0.140382 0.458101
sent_12 0.077341 0.048050 0.207396 0.267138 0.013405 0.346239 -0.250145 -0.127697 -0.031246 0.001220
sent_13 0.028421 -0.053286 -0.135245 0.022382 -0.238890 0.073842 -0.160265 -0.191561 0.360877 -0.003550
sent_14 0.738463 -0.254593 -0.198394 0.214245 0.311842 -0.293773 0.038543 -0.476547 0.256146 -0.395251
sent_15 1.282019 0.261522 -0.766841 0.632887 0.061146 -0.842665 -0.129702 -0.517402 -0.140706 -0.077479
sent_16 1.276834 0.076546 -1.270438 0.218959 0.135283 -0.840430 0.145241 -0.567714 -0.189327 -0.429601
sent_17 0.198124 0.049773 0.295581 0.077675 0.296410 0.217324 -0.035028 -0.331453 -0.224343 -0.043689
sent_18 0.201625 -0.199175 -0.045985 -0.200773 -0.370473 -0.659002 0.062859 -0.087755 0.373373 -0.026750
sent_19 0.468979 -0.561092 -0.349484 0.058473 -0.034524 -0.892753 0.223156 -0.357772 0.228079 -0.332149
sent_20 0.133341 0.486322 -0.382153 0.227838 -0.163262 -0.259842 -0.611705 -0.230767 0.138074 -0.185334
sent_21 0.157535 -0.107515 -0.821996 0.406008 -0.525043 -0.500818 -0.149286 -0.615096 0.572927 -0.032771
sent_22 0.771491 0.447930 -0.817662 0.466280 -0.015335 -1.082304 -0.199011 -0.355021 -0.143940 -0.319615
sent_23 0.767477 0.233179 -0.814894 0.477200 0.257992 -1.061639 0.181340 -0.270061 -0.155704 -0.385339
sent_24 0.265524 0.487646 -0.329758 0.287903 -0.030518 0.160448 -0.478120 -0.475071 -0.103647 0.042091
sent_25 0.045031 0.011839 0.113763 0.390967 0.012490 0.580442 -0.315260 0.134047 -0.124060 0.215641
sent_26 0.969867 0.355038 -0.747548 0.600178 0.391871 -0.268536 0.396019 -1.015086 -0.060413 -0.161506
sent_27 0.529615 0.123112 -0.395419 0.227220 0.487109 -0.590016 0.225447 -0.657807 -0.056813 0.427083
sent_28 0.489427 0.430015 -0.835200 0.430064 0.340764 -0.873641 0.118047 -0.751274 0.020602 -0.080140
sent_29 0.363363 0.264018 -0.431328 0.560546 0.140442 -0.818116 0.120580 -0.372583 0.109707 -0.398595
sent_30 0.150578 0.407898 -0.755236 0.659777 -0.513991 -0.693156 0.050940 -0.404440 0.331967 0.107813
sent_31 0.505284 0.177589 -1.027910 0.234332 0.083871 -0.590879 -0.276758 -0.223725 0.308056 0.475902
sent_32 0.810721 0.436220 -0.310190 0.199875 0.665513 -1.010977 -0.220319 -0.532261 -0.255484 -0.393080
sent_33 0.740453 0.081321 -0.252937 0.415593 0.466889 0.114410 -0.105195 -0.972032 0.309263 -0.282350
sent_34 1.024678 -0.063534 -0.470474 -0.155981 0.154710 -1.410681 0.012989 -0.563088 -0.014970 -0.349902
sent_35 0.695468 0.150111 -0.241562 0.173164 0.587062 -0.755614 0.246981 -0.635582 0.102349 -0.190169
sent_36 0.722857 -0.081472 -0.451120 0.559874 0.282638 -0.613269 0.216430 -0.306656 -0.154074 -0.352269
sent_37 0.538460 -0.285235 -0.100924 -0.278963 0.335347 -0.479497 0.855504 -0.301753 0.184324 -0.374876
sent_38 0.191939 0.000998 -0.004668 -0.075337 -0.267509 -0.251938 -0.075697 -0.082041 0.212716 -0.139572
sent_39 0.079654 -0.018031 0.002180 0.080662 0.003501 0.092956 0.249912 -0.337790 -0.011672 -0.475109
sent_40 -0.270520 0.597752 0.334744 0.024415 0.159722 0.143107 -0.129243 -0.238210 -0.087957 0.133142
sent_41 0.329859 0.074074 -0.201055 0.369922 0.228824 0.317992 0.098835 -0.460673 -0.027257 -0.008870
sent_42 0.587832 0.547181 0.424726 0.575166 0.349191 0.998988 -0.547566 -0.688504 -0.396055 -0.209791
sent_43 0.030927 0.387582 0.352688 0.022735 -0.003485 0.125360 0.107309 -0.411433 0.004937 0.189422
sent_44 0.083264 0.454195 -0.429633 -0.199764 0.223472 -0.107976 -0.387052 -0.055183 -0.765615 -0.010039
sent_45 0.462826 0.054024 -0.190552 -0.144591 0.830850 -0.138678 0.218253 -0.573349 -0.408780 0.020398
sent_46 0.085413 0.808322 0.268411 0.392794 0.152434 0.559858 -0.415006 -0.683614 -0.078040 0.310986
sent_47 0.456803 0.110501 -0.646569 -0.339854 -0.078932 -0.306259 0.314513 0.094270 -0.025372 -0.426559
sent_48 0.466031 0.495454 -0.710012 0.362371 0.059604 -0.046671 0.063120 -0.734389 0.112433 -0.596322
sent_49 0.148645 0.036816 -0.067074 -0.025374 -0.021237 0.122354 0.070304 0.031650 0.054163 -0.037474
sent_50 0.251189 0.027423 0.013095 0.671057 0.194404 0.633313 -0.032585 -0.666698 0.141347 -0.152368
sent_51 -0.019409 0.037812 -0.007261 -0.139509 0.073968 -0.139489 0.056249 -0.100518 0.081486 0.121999
sent_52 0.124491 0.053492 -0.060816 0.175170 0.136268 -0.207770 -0.005665 -0.112397 0.128165 -0.053065
sent_53 -0.221121 0.260004 0.873252 0.350069 0.424694 0.542008 -0.138613 -0.483735 0.127772 0.150461
sent_54 -0.001870 0.638200 0.996785 0.854040 0.331215 1.318431 -0.722774 -0.492769 0.095077 0.394727
sent_55 -0.043265 0.012122 0.730417 -0.209049 0.217299 -0.171758 0.420021 -0.343362 -0.040661 0.160337
sent_56 0.101245 -0.007802 0.095732 -0.133434 0.185868 0.208589 0.274074 -0.091191 0.120288 -0.338707
sent_57 -0.076612 -0.580123 0.445058 0.137411 -0.045276 -0.265025 0.376182 -0.531457 0.413186 0.129106
sent_58 0.337420 0.459217 -0.761874 0.003534 -0.501175 -0.212497 -0.228799 -0.288988 0.084572 -0.024423
sent_59 0.335052 0.305934 0.096671 0.488604 0.150868 0.588332 -0.290030 0.013626 -0.426289 -0.092853
sent_60 0.417462 -0.163718 0.073355 0.208198 -0.168565 -0.142505 0.152096 -0.353891 0.558679 -0.291105
sent_61 -0.199834 -0.007855 0.625863 -0.434579 0.401153 -0.076709 -0.055274 -0.011815 0.273824 0.096484
sent_62 0.183311 -0.063672 -0.023133 -0.351006 -0.048808 -0.260849 0.652310 -0.341876 0.142254 -0.395528
sent_63 -0.085072 0.308016 0.152280 0.090697 0.146586 0.397923 -0.217637 0.036792 0.313780 0.269064
sent_64 0.173994 -0.176972 0.243917 -0.148845 -0.056349 0.020667 -0.066711 -0.349480 0.283309 -0.166013
sent_65 -0.143124 0.279453 -0.029895 0.325179 -0.110290 0.500116 -0.233119 -0.138758 0.153219 -0.074516
sent_66 0.399473 0.083944 -0.097066 0.306187 0.693303 0.138209 -0.140242 -0.404644 -0.083300 -0.269633
sent_67 0.194146 0.425869 0.133383 0.523336 0.213013 0.995859 -0.147871 -0.319629 -0.300490 0.149013
sent_68 0.074289 0.551555 0.489391 0.674379 0.358429 1.608311 -0.809193 -0.763241 0.057449 0.495194
sent_69 -0.074531 0.410740 0.178421 0.012468 0.681173 0.043968 0.347713 0.110924 -0.765931 -0.433374
sent_70 0.869764 0.077571 -0.664151 0.137398 -0.229958 -0.708411 0.814812 -0.530918 0.424161 -0.784553
sent_71 0.086935 0.070781 0.625094 0.071796 0.105846 -0.320025 0.052289 -0.447489 0.079132 0.377119
sent_72 0.144066 0.079934 -0.249070 0.392840 0.182390 0.190635 -0.233586 -0.213520 -0.471484 0.073510
sent_73 -0.119178 0.162148 0.317587 0.650435 -0.181487 1.230954 -0.469063 -0.260778 -0.310570 0.536192
sent_74 0.083870 -0.237009 0.275048 -0.085004 -0.350132 -0.186867 0.276840 -0.129046 0.074567 0.437974
sent_75 -0.431195 0.162798 0.654238 -0.154120 -0.198834 -0.582698 0.293863 -0.035112 -0.119763 0.321312
sent_76 0.239385 -0.148595 0.049070 0.298168 0.468727 0.232472 0.211231 -0.548528 0.027190 -0.445015
sent_77 -0.241702 0.389154 0.083621 -0.381782 0.269343 -0.393881 -0.347502 -0.039125 -0.019030 0.382674
sent_78 -0.106931 -0.702956 0.430319 -0.319618 -0.491360 -0.288294 0.593877 -0.279077 0.450691 0.057435
sent_79 0.086035 0.542028 0.956251 0.186262 0.310437 0.467665 -0.357287 -0.180060 0.086676 -0.279552
sent_80 0.307272 0.309176 0.347887 -0.172558 0.279919 0.094825 -0.165364 -0.675117 -0.034122 0.079404
sent_81 -0.334473 -0.133972 0.377175 0.263277 -0.055448 0.154816 -0.287853 -0.024733 0.167445 0.469992
sent_82 0.386702 0.698938 0.001301 0.032118 -0.042144 -0.254104 -0.144905 -0.224118 -0.286610 -0.153984
sent_83 0.446551 0.685621 0.226167 0.078573 0.318461 -0.245823 -0.273560 0.132374 0.370354 0.068106
sent_84 0.358506 0.208302 0.056485 0.276275 0.202740 0.521980 0.020571 -0.245102 -0.178423 -0.081173
sent_85 1.134407 -0.151112 -1.280436 -0.356234 -1.003794 -1.649768 0.305242 -0.858089 0.649693 -0.239462
sent_86 0.360412 -0.214876 -0.539324 -0.042086 -0.251092 -0.832867 0.203161 -0.419688 0.473767 -0.513284
sent_87 0.722461 0.207146 -0.361082 0.656919 0.347286 -0.392866 0.219237 -0.717696 -0.063789 -0.079442
sent_88 0.696273 -0.192993 -0.049880 0.436422 0.164030 0.585660 0.479482 -0.554371 0.253782 -0.670094
sent_89 0.567391 0.021616 -0.048952 0.282581 0.462961 -0.050970 0.138389 -0.534128 0.070238 -0.441599
sent_90 0.559473 -0.191535 -0.147353 0.517756 0.128436 -0.286332 0.291715 -1.008091 -0.133230 -0.158040
sent_91 -0.016360 0.038238 0.057875 -0.010601 0.590240 -0.034062 0.150136 -0.466919 -0.110908 -0.299196
sent_92 -0.164315 0.331507 0.261273 -0.211947 0.389681 0.139026 -0.072554 0.065904 0.009147 -0.061311
sent_93 0.032578 -0.649693 0.343715 -0.091177 -0.191873 0.439016 0.098822 -0.209405 0.355551 0.224635
sent_94 -0.193038 0.123044 0.098179 0.069573 0.117184 -0.023594 -0.065747 -0.121742 -0.172909 0.129445
sent_95 0.667790 0.242328 -0.120680 0.230760 0.037930 0.463244 -0.550017 -0.252919 -0.215066 -0.140336
sent_96 -0.026908 0.384473 0.015706 -0.127435 0.060891 -0.720527 0.166317 0.057238 0.226032 0.048773
sent_97 -0.782049 0.369400 0.984254 0.258345 0.137937 0.332732 -0.316969 -0.099307 0.491542 0.539106
sent_98 0.536427 0.501878 0.103330 0.431434 0.077728 0.764616 0.020579 -0.069424 -0.047260 -0.004549
sent_99 0.031251 -0.021620 0.002785 -0.016058 0.005467 0.047440 -0.018830 0.016880 -0.017403 0.027448
sent_100 -0.084723 0.355066 0.248165 0.192842 -0.160769 0.320474 -0.464002 -0.102419 -0.042034 0.200983
sent_101 0.371534 -0.312585 -0.294031 0.213183 0.129566 0.739505 -0.155173 -0.075560 0.461936 -0.519907
sent_102 0.681476 -0.002840 -0.209251 0.284331 -0.073685 -0.200269 0.034165 -0.545772 0.365502 0.295706
sent_103 0.438337 -0.180738 -0.717730 -0.049785 -0.218026 -1.016362 0.211114 -0.378140 0.147907 0.352119
sent_104 0.795898 0.410990 -0.591169 0.037760 0.039995 -0.744250 0.131647 -0.092058 -0.202737 -0.082762
sent_105 -0.181999 -0.179506 1.039382 0.028900 -0.436288 0.290008 -0.294156 0.119434 0.816497 -0.017589
sent_106 -0.026074 -0.165659 0.687750 0.086115 -0.117453 0.712302 -0.510750 0.054012 -0.092635 0.391862
sent_107 0.709345 -0.068949 -0.579838 0.603112 0.189565 -0.003670 -0.053901 -0.338193 0.272591 -0.580256
sent_108 0.457858 -0.308703 0.462104 0.023430 -0.011632 -0.463351 0.319176 0.242466 0.007968 -0.234089
sent_109 0.532669 -0.174274 -0.098993 0.299431 -0.083339 0.608736 -0.232634 -0.142619 0.231731 -0.225173
sent_110 -0.056909 0.358524 0.457615 -0.016404 -0.060239 0.350786 -0.264197 -0.181450 0.020095 0.229921
sent_111 0.236793 -0.093702 0.048211 -0.054417 -0.045693 -0.515374 0.306898 0.384925 -0.144053 -0.771675
sent_112 0.533132 -0.476448 0.290090 0.170164 0.015890 0.137415 0.322976 -0.418274 0.571618 -0.363097
sent_113 -0.164778 -0.079526 0.694568 -0.458853 -0.403010 0.354293 -0.307012 0.072574 0.367773 0.172685
sent_114 0.653619 -0.496966 -0.767040 0.357665 0.309995 0.730303 -0.073625 -0.146319 0.126293 -0.264163
sent_115 -0.201103 -0.334162 0.729279 0.230905 -0.317915 0.394214 0.019558 -0.157901 0.244971 0.257710
sent_116 0.395961 0.096090 -0.475391 -0.044868 -0.102458 -0.510286 -0.202070 -0.257300 -0.199247 0.191441
sent_117 0.229747 0.058433 0.285618 -0.121877 0.058765 0.328130 0.195714 -0.224337 0.298453 -0.320284
sent_118 -0.284665 0.831292 0.306659 0.432101 0.392504 0.212608 -0.070267 -0.685429 -0.390630 -0.059879
sent_119 0.648477 0.225849 -1.248743 0.567507 0.276590 -0.501723 0.151986 -0.479176 -0.139457 -0.444180
sent_120 0.811204 -0.042038 -0.170766 0.394416 -0.341856 -0.416846 -0.078061 -0.104473 0.495029 -0.146856
sent_121 0.396751 -0.597979 0.118642 0.304259 -0.089421 0.516090 0.070257 -0.161856 0.419019 -0.162567
sent_122 -0.162454 0.710188 -0.064357 0.369461 0.543197 0.359303 -0.083541 -0.552271 -0.363829 0.182253
sent_123 0.086382 0.284676 0.273855 -0.014034 0.246675 0.219248 -0.086071 -0.164412 -0.118892 0.033156
sent_124 0.426638 -0.015426 -0.666109 0.210222 -0.080484 -0.851892 0.337539 -0.142773 0.350730 -0.454026
sent_125 0.599777 0.092101 -0.731337 0.343873 0.404413 -0.478058 0.368297 -0.363300 0.018727 -0.303967
sent_126 -0.018263 0.083085 -0.632870 -0.245096 -0.193405 -0.178816 -0.329107 0.299492 -0.114186 -0.130674
sent_127 -0.492486 -0.151316 1.010337 -0.169936 -0.398514 0.111381 -0.026165 -0.220331 0.831081 0.523648
sent_128 0.685563 0.183906 -1.013752 -0.191503 0.010411 -1.121407 0.432739 -0.121027 -0.304837 -0.165651
sent_129 0.582907 -0.143844 -0.546968 0.466052 -0.096587 0.076442 -0.122336 -0.472386 -0.198460 -0.593872
sent_130 0.417582 0.350809 0.129600 0.502350 0.016242 0.379229 0.060341 -0.801961 0.669219 -0.299017
sent_131 0.452010 -0.394642 0.536039 0.375857 0.271779 0.805155 -0.127596 -0.112206 0.004349 -0.702226
sent_132 0.712310 -0.322046 -0.558078 0.065373 0.114014 -0.467050 0.396868 -0.336689 -0.047056 -0.748462
sent_133 -0.120180 -0.005790 0.295793 0.324027 -0.216184 0.433911 -0.065738 -0.018674 0.227282 -0.391470
sent_134 -0.420506 0.341075 0.097470 0.389820 -0.031472 -0.243634 -0.465278 -0.051941 0.579814 -0.218868
sent_135 0.238464 -0.231775 0.186653 0.265130 0.381314 0.261366 -0.435778 -0.463167 0.260938 0.362899
sent_136 -0.025750 0.296024 0.195753 -0.361471 0.055476 -0.913357 0.335790 -0.095293 -0.035146 0.090233
sent_137 0.418730 0.221375 0.529504 0.403312 0.900291 0.650557 0.431110 -0.858280 0.037255 -0.028314
sent_138 0.210336 0.418490 -0.595286 0.300943 -0.196298 -0.524769 0.390147 -0.450234 0.067997 0.282771
sent_139 0.725564 -0.243338 -0.481735 -0.156404 0.148510 -0.020832 0.363956 0.102293 0.235571 -0.576070
sent_140 -0.358350 0.392548 0.792669 0.365329 0.411260 1.233832 -0.406591 -0.463237 0.177475 0.074808
sent_141 0.155231 0.086403 0.087197 0.393570 -0.109741 0.809087 -0.102704 -0.673321 -0.009349 -0.219954
sent_142 -0.255722 0.353023 -0.646336 0.333578 -0.303205 -0.304894 0.168095 -0.248468 0.375954 -0.399596
sent_143 0.083387 0.471183 -0.629761 0.465872 -0.274177 0.081349 -0.767583 0.130925 0.455960 -0.320596
sent_144 -0.170298 0.054704 0.232469 0.011339 -0.122079 0.219700 -0.368253 -0.513386 0.349249 -0.136819
sent_145 0.085183 0.411526 0.121411 0.709036 -0.300595 0.750791 -1.062716 0.146610 -0.192436 0.300581
sent_146 0.006634 0.009015 0.168804 0.049074 0.189930 0.096891 0.204520 0.148393 -0.246290 -0.251755
sent_147 0.106586 0.229697 0.383241 0.363112 0.204924 0.576759 -0.517932 -0.625048 -0.125203 0.274410
sent_148 0.172863 -0.037143 0.174175 0.570605 0.192328 1.307532 -0.225565 -0.619628 0.188380 -0.160510
sent_149 -0.203985 -0.130796 0.376976 -0.197507 -0.379254 -0.422408 -0.032764 -0.108761 0.882036 -0.002125
sent_150 0.856605 0.109075 -0.719081 0.058269 0.020896 -0.311813 0.138111 -0.105215 -0.235620 -0.462711
sent_151 0.288245 -0.576156 -0.470195 0.337569 -0.656336 -0.275224 0.159772 -0.503090 0.785697 -0.499326
sent_152 0.063054 0.533756 0.908844 0.859176 0.197769 1.426031 -0.354484 -0.224108 0.183623 0.491031
sent_153 0.241414 -0.189716 0.176928 0.459078 -0.485243 0.290386 -0.109459 -0.165918 0.551717 -0.026662
sent_154 -0.022644 -0.328181 0.225033 0.160312 0.288747 -0.574098 0.308382 -0.155813 0.009077 -0.013103
sent_155 0.387779 0.625263 -0.109724 0.515437 -0.049803 0.095370 -0.332976 -0.228228 0.111613 0.111692
sent_156 0.499088 -0.080100 -0.322847 0.098895 -0.006293 -0.555382 0.026367 -0.614958 -0.312528 -0.312936
sent_157 -0.148537 0.456310 0.366741 0.115695 0.325032 0.681723 -0.369118 -0.176709 -0.527759 0.088175
sent_158 0.211245 0.318477 -0.745125 0.360884 -0.060997 -0.794514 -0.206859 -0.006634 -0.204242 -0.049745
sent_159 1.116925 -0.251011 -0.964602 -0.164791 0.176881 -0.548277 0.857267 -0.772549 -0.251723 -0.736077
sent_160 -0.003689 0.506134 0.078992 0.103878 0.379373 0.196975 -0.668242 0.035063 -0.283612 0.291851
sent_161 0.258726 0.121731 -0.102692 -0.171687 0.276664 -0.821586 -0.101942 -0.058020 0.150168 -0.417466
sent_162 -0.391729 0.419971 0.332488 -0.120229 -0.033924 0.199850 -0.112211 0.331967 -0.215820 0.275101
sent_163 -0.359124 -0.321190 0.683181 0.102236 -0.301851 0.389838 0.118781 -0.102284 0.705490 0.509273
sent_164 0.482617 0.368235 0.151875 0.512441 0.020057 -0.196249 -0.143286 0.155307 0.162572 0.116229
sent_165 0.821426 0.298971 -0.520593 -0.126162 0.208950 -0.229309 0.727644 -0.334371 -0.226109 -0.639405
sent_166 0.158015 0.755667 -0.311062 0.015868 0.100057 -0.746475 -0.459512 0.244418 -0.193779 0.534681
sent_167 0.439468 0.280316 -0.351671 0.343217 0.384095 -0.092691 0.084312 -0.519827 -0.687300 -0.247737
sent_168 -0.268403 -0.215332 0.749253 0.186776 -0.193544 -0.006334 0.084673 -0.251446 0.570001 -0.098402
sent_169 -0.504950 -0.074226 1.121565 0.363491 0.006204 0.497704 -0.017163 -0.077421 0.408074 0.639093
sent_170 -0.567632 -0.827387 0.533074 -0.629874 -0.714266 -0.096896 0.433028 -0.335684 1.069598 0.071723
sent_171 0.246280 -0.101168 -0.053479 0.523764 0.039531 -0.371281 0.049277 -0.569360 0.394584 0.205982
sent_172 0.535298 0.346792 -0.166246 0.027144 0.385220 -0.005069 0.486670 -0.753049 -0.096864 -0.676895
sent_173 0.469662 -0.187515 -0.041264 0.276119 -0.022649 -0.035009 -0.100735 -0.418284 -0.020137 0.072632
sent_174 -0.790593 0.176037 1.093703 -0.035406 0.032409 0.181694 -0.312769 0.313743 0.390508 0.466066
sent_175 0.660284 0.220643 -0.722905 0.095349 -0.241809 -0.960973 0.260418 -0.535398 0.243751 -0.336101
sent_176 0.264481 -0.021065 -0.470377 -0.121142 0.223819 -0.413704 0.729726 -0.318053 0.085908 -0.403731
sent_177 0.406538 -0.156055 0.077041 -0.270960 0.235763 -0.310682 0.619101 -0.219718 -0.095236 -0.158022
sent_178 0.469299 -0.649197 -0.386200 0.205860 -0.372581 -0.687682 -0.399475 0.016375 0.329073 -0.369101
sent_179 0.075752 0.280504 -0.159531 0.111269 -0.018765 -0.137106 -0.189963 0.219643 0.065424 0.122146
sent_180 0.630848 0.156891 -0.338100 0.301375 0.278584 0.101481 0.069647 -0.273195 -0.465078 -0.008900
sent_181 0.119631 0.018201 -0.187364 0.120682 -0.418829 -0.013837 -0.085369 -0.105086 0.336886 0.446078
sent_182 -0.062456 -0.500607 0.583197 -0.015844 -0.236014 -0.222619 0.673875 -0.401294 0.488899 -0.168715
sent_183 0.688016 0.453752 -0.665567 -0.256434 -0.429431 -0.811701 0.272143 0.048545 0.156470 -0.691027
sent_184 0.213871 0.504539 -0.317062 0.319239 -0.214341 -0.043708 0.020981 -0.237462 -0.048177 -0.458359
sent_185 -0.362357 -0.361649 0.256223 0.026239 -0.460416 -0.057516 -0.294267 -0.221382 0.865561 0.643652
sent_186 0.336419 0.024051 0.650044 0.072842 0.474587 0.068623 0.524031 -0.259253 -0.379630 -0.603897
sent_187 -0.167313 0.304214 0.968154 0.318161 0.620138 0.760116 -0.064766 -0.121749 0.018187 0.222774
sent_188 0.284435 -0.046157 -0.877130 0.071887 0.119797 -1.136748 -0.228935 -0.255668 0.181124 0.347624
sent_189 0.683349 -0.036451 -0.514258 0.183442 0.246110 -0.417633 0.218328 -0.464934 -0.284011 -0.495685
sent_190 0.462435 -0.341036 -0.732299 0.218064 -0.446187 -0.667291 -0.410939 -0.092334 -0.112360 0.222469
sent_191 0.283637 0.635744 -0.715807 -0.130638 -0.084680 -0.863064 0.068751 0.347229 -0.093568 -0.151669
sent_192 0.884380 -0.032388 -0.173837 0.510752 0.530822 0.515921 0.427973 -0.828342 0.093132 -0.316971
sent_193 0.173456 0.545484 -0.074800 0.124195 0.375546 0.463728 0.119831 -0.343388 -0.221346 -0.197327
sent_194 0.015399 0.264469 0.701227 0.190701 0.301277 0.517176 -0.313621 0.014650 -0.061906 0.130241
sent_195 0.124232 0.390816 0.397377 -0.177717 0.366858 0.019028 0.253877 -0.247555 -0.147252 0.045921
sent_196 -0.112019 -0.350730 0.795508 -0.611811 -0.606623 -0.564662 0.414238 0.087787 0.705442 0.161506
sent_197 0.535112 0.002770 0.075061 0.182152 0.231864 0.563609 -0.214291 -0.071281 0.060111 -0.219977
sent_198 0.226886 0.091197 -0.271329 -0.229742 0.018221 -0.260807 0.384902 -0.334054 0.124857 0.006031
sent_199 0.403318 -0.005226 -0.367782 -0.412638 0.031318 -0.753701 0.411182 -0.063390 -0.313904 -0.492161
sent_200 0.292384 0.367635 0.314931 0.185218 0.239379 0.144057 -0.266625 -0.137873 -0.024590 -0.187715
sent_201 0.167520 0.166653 -0.279554 0.007705 0.087788 -0.368149 -0.013329 0.047311 0.392379 -0.154964
sent_202 0.254256 0.152987 -0.067580 0.403275 -0.137418 0.420540 -0.078530 -0.155212 -0.247157 -0.139626
sent_203 -0.176585 0.203666 0.690279 -0.114114 0.614934 0.562425 -0.027466 -0.125734 -0.363407 0.116741
sent_204 0.566912 0.047391 -0.368226 -0.041933 -0.106796 0.152385 0.122526 0.027004 -0.071458 -0.454915
sent_205 -0.038858 -0.484758 0.364682 -0.026835 0.024267 0.365998 0.252568 -0.761654 0.612159 0.397460
sent_206 0.256819 -0.451231 0.460743 0.043608 -0.224010 -0.043732 -0.034394 0.069806 0.210356 -0.111431
sent_207 0.179702 -0.186788 0.147959 0.166808 0.388127 0.510523 0.003811 -0.640547 0.267067 -0.210084
sent_208 0.245621 -0.142776 0.252649 0.326174 0.169953 0.763332 0.025884 -0.124471 -0.128608 -0.333101
sent_209 0.283191 0.395729 -0.324885 0.718816 -0.290049 0.282319 -0.482515 0.259652 0.108047 -0.387360
sent_210 0.452001 0.431063 -0.362639 0.103415 0.240720 -0.397618 -0.041178 0.033744 0.020237 -0.418815
sent_211 -0.272407 0.702856 0.111864 0.471365 0.208949 0.809613 -0.791295 -0.193539 -0.040074 0.214599
sent_212 -0.055847 -0.096989 0.243741 0.106401 -0.021541 -0.003401 0.314310 -0.234821 0.217074 -0.007409
sent_213 -0.112929 0.022775 0.197982 0.813220 0.241752 0.334427 -0.345928 -0.712167 0.431529 -0.028443
sent_214 0.706867 0.157888 -1.160534 0.169581 -0.413400 -0.811146 0.072941 0.068679 -0.193491 0.011884
sent_215 -0.125722 -0.015550 0.255169 0.081438 0.547497 0.245113 0.243493 -0.260427 -0.573278 0.084928
sent_216 0.021447 0.106663 -0.322498 0.255106 0.123342 0.094658 -0.011655 -0.227322 -0.065427 -0.137986
sent_217 -0.076194 0.442074 -0.122401 0.443840 0.350863 0.470294 -0.804163 -0.157464 0.075533 0.466570
sent_218 -0.618663 0.056216 0.302859 -0.022155 -0.368965 0.536484 -0.579025 0.230491 0.332958 0.312861
sent_219 0.330035 0.286952 0.263745 0.259639 0.456061 0.337151 0.212086 -0.655353 0.006688 -0.029284
sent_220 0.149499 -0.545993 -0.039734 -0.196609 -1.383741 -0.356720 0.536460 -0.491612 0.772407 0.292128
sent_221 0.288320 0.292967 -0.286876 0.380569 0.062614 0.726383 -0.221133 -0.551398 -0.035783 0.027634
sent_222 0.332809 0.282740 0.227303 -0.021641 -0.368461 -0.046174 0.001617 -0.039394 0.470413 0.385879
sent_223 0.228138 -0.037482 -0.241298 -0.253220 -0.259879 -0.683069 0.284404 -0.312228 -0.154695 -0.076372
sent_224 0.502645 -0.583076 -0.161631 0.174965 0.241594 0.133727 0.391745 -0.509507 -0.275544 -0.201771
sent_225 -0.107073 1.139260 0.841237 -0.233813 0.665603 -0.345793 0.040878 0.039523 -0.392591 -0.057675
sent_226 -0.087144 -0.296258 0.122870 -0.105751 0.504215 0.449348 0.252549 -0.203585 -0.243976 -0.128551
sent_227 0.349977 -0.410999 -0.362990 0.329805 0.361742 -0.413482 0.291046 -0.887551 0.208801 -0.064356
sent_228 -0.160045 0.540628 0.275037 0.590172 -0.181903 0.724226 -0.417665 -0.237391 -0.323489 0.068983
sent_229 0.013360 0.188781 -0.691552 0.135201 0.137638 -0.974298 0.103281 -0.135938 0.050315 -0.110443
sent_230 -0.308897 -0.186034 1.177612 0.278326 0.285593 1.064245 -0.031277 -0.371189 0.736904 0.328540
sent_231 -0.023560 0.313387 0.855162 0.102000 0.572580 0.119896 -0.505730 -0.081609 -0.503805 0.296287
sent_232 0.417332 -0.216748 0.084593 -0.048848 0.114649 0.183728 0.090931 -0.115193 -0.110356 -0.396138
sent_233 0.283227 -0.301627 -0.853701 -0.032780 -0.086402 -0.714617 0.184834 -0.447636 -0.108465 -0.146920
sent_234 0.257352 0.476532 0.671434 0.329717 0.040985 0.170188 0.156491 -0.472939 -0.053101 0.112725
sent_235 0.382855 0.377615 -0.334176 0.583950 0.302041 0.614335 -0.506456 -0.083529 0.204132 0.132908
sent_236 -0.138876 -0.013599 0.437753 0.015582 -0.080258 0.159002 0.202082 -0.348127 0.119178 0.155637
sent_237 -0.527461 0.352323 0.274594 -0.460462 -0.415432 -1.206093 0.070786 0.323884 0.337745 0.532641
sent_238 0.459749 -0.267261 0.428925 0.125550 0.120890 -0.382512 0.442921 0.207100 0.095015 -0.288374
sent_239 -0.204522 0.517025 0.838502 0.331885 0.567552 0.189680 -0.603357 -0.121099 -0.070928 0.236865
sent_240 -0.048041 -0.006050 0.412194 0.135774 0.122747 0.065713 0.027310 -0.251469 -0.030651 -0.045103
sent_241 -0.052138 0.135886 0.365148 0.268233 0.500309 0.788753 -0.159587 -0.278328 -0.412878 0.002541
sent_242 0.594985 0.241918 -0.235339 0.018310 0.080001 -0.475635 -0.127242 -0.070065 -0.091204 0.166691
sent_243 0.086081 0.547986 -0.064810 -0.456722 0.410662 -1.109993 0.171707 0.301444 0.159182 -0.509287
sent_244 0.711842 -0.058596 -0.652346 0.122705 -0.133723 0.472023 0.179842 -0.289424 -0.133614 -0.335213
sent_245 0.133243 0.495241 0.092174 0.142561 0.067242 0.617524 -0.010602 -0.603154 0.213563 0.041138
sent_246 0.493521 0.095584 -0.711681 0.280940 0.035726 -0.029499 0.129220 -0.103625 0.411844 -0.133484
sent_247 0.011992 0.103440 -0.028680 0.044664 0.059977 -0.028121 -0.044314 -0.034117 0.073075 0.083262
sent_248 0.044654 -0.226695 0.451251 0.036577 -0.194976 -0.330536 -0.130921 -0.643455 0.931728 0.320182
sent_249 0.241833 0.198986 0.352332 0.202308 0.310292 0.242280 0.125615 -0.712136 0.404880 -0.145831
sent_250 0.339864 0.396779 -0.762188 0.191007 -0.245900 -0.240078 -0.446620 0.061267 -0.229452 0.084013
sent_251 0.314256 0.490268 -0.670412 0.037452 0.885086 -0.327884 0.328343 -0.266319 -0.277082 -0.900775
sent_252 0.103182 0.479789 0.233325 0.228728 0.844407 -0.704945 -0.215731 -0.294841 -0.587264 -0.148660
sent_253 -0.865151 -0.237294 0.501291 -0.275462 0.153301 -0.123857 0.205525 0.235409 0.164250 0.033185
sent_254 0.375348 0.200270 -0.257116 0.720380 0.196906 0.913813 -0.104366 -0.350662 -0.189934 -0.377355
sent_255 -0.299545 0.219935 0.394494 -0.044919 0.307876 0.221820 0.038845 -0.223258 -0.154037 0.198519
sent_256 0.399122 -0.011793 0.124140 -0.028338 0.291077 0.135157 0.235963 -0.264806 0.048257 -0.301141
sent_257 0.437839 0.421949 -0.573380 0.147858 0.070108 -0.724225 0.607780 -0.527198 0.011353 0.013824
sent_258 0.458344 -0.281100 -0.214538 -0.055682 -0.165539 0.101045 0.530996 -0.606524 0.054876 0.123372
sent_259 0.541579 0.088739 -0.103163 -0.173454 -0.585354 -0.981271 -0.087755 0.065900 0.300650 -0.087753
sent_260 0.262358 0.105759 0.465561 -0.235367 0.255560 -0.510444 0.150173 -0.242474 -0.390034 -0.031295
sent_261 0.453624 0.299176 -0.203842 0.648789 0.048954 -0.021965 -0.509392 -0.108737 -0.221739 0.252918
sent_262 -0.104217 0.581756 -0.049112 0.084632 -0.237638 0.033968 -0.148283 -0.232888 -0.274626 0.185234
sent_263 0.026539 0.139164 0.551329 0.156648 0.416309 0.850999 -0.198096 -0.149515 0.085818 0.014475
sent_264 0.023913 0.618044 0.504403 0.596057 0.561902 0.845592 -0.623857 -0.424349 -0.216408 0.239645
sent_265 0.137720 0.157293 0.104850 -0.071410 0.180177 0.077522 -0.054938 0.309001 -0.046809 0.071743
sent_266 0.502064 0.884289 -0.553386 0.051681 -0.108614 -0.387360 -0.204058 0.082124 -0.078363 -0.228231
sent_267 0.282708 0.278961 -0.314795 0.410530 -0.002256 -0.260157 -0.026914 -0.379626 0.100470 0.401132
sent_268 -0.164123 0.928010 0.389151 0.409478 0.563534 0.312634 -0.520677 -0.349863 0.345674 0.208307
sent_269 0.258394 0.313551 -0.316712 0.715099 0.280469 0.032403 -0.104930 -0.951571 -0.240946 0.111439
sent_270 -0.094723 0.741864 1.012235 0.536698 0.427494 0.676261 -0.441901 -0.394154 0.149778 0.211170
sent_271 0.143612 0.089867 0.398572 0.760818 -0.376333 0.442129 -0.358339 0.308194 0.246994 0.278425
sent_272 -0.169564 -0.047493 0.019196 -0.054644 0.028817 -0.112954 0.021860 0.035571 0.102738 -0.061448
sent_273 0.016546 0.428746 0.369765 0.390210 0.481816 1.106714 -0.899052 -0.043287 -0.339510 0.226744
sent_274 0.101246 0.306144 0.447130 0.059893 0.347376 0.398875 0.070092 -0.150904 -0.460604 0.162376
sent_275 0.468248 -0.276228 -0.371569 0.036343 0.123798 0.100334 0.167919 -0.512306 0.410028 -0.388473
sent_276 0.294396 0.020658 -0.207883 0.123687 0.041699 0.083665 0.000136 -0.527785 -0.053187 -0.267819
sent_277 -0.173815 0.547917 0.497484 -0.398827 0.284811 -0.366166 0.008515 -0.204435 -0.067410 -0.035403
sent_278 0.264660 0.394241 -0.116865 0.970325 0.226854 0.830311 -0.619383 0.274549 -0.160846 0.047231
sent_279 0.308631 0.452312 -0.548305 -0.098234 -0.173226 0.300143 -0.081324 0.012226 -0.157527 0.125891
sent_280 0.663475 0.437909 -1.091555 0.185283 0.287305 -1.288859 0.328492 -0.226473 0.225940 -0.682314
sent_281 -0.058595 0.126372 0.185436 0.652937 0.375539 0.453001 -0.347259 -0.814784 0.274502 0.278185
sent_282 0.613797 -0.093085 -0.252261 0.450714 0.426233 0.281314 0.040451 -0.497873 0.708148 0.077026
sent_283 0.166055 -0.701217 -0.223535 -0.119062 0.226246 -1.093262 0.243446 -0.320519 -0.156367 0.172153
sent_284 0.292593 0.681584 0.309742 0.006826 0.390715 -0.230446 -0.345819 -0.060702 0.051053 -0.039498
sent_285 0.254306 0.308110 0.096911 0.065975 0.333343 0.265892 -0.124154 -0.353613 0.239726 -0.239065
sent_286 -0.416718 0.354820 0.261684 0.456843 0.051523 0.557094 -0.161136 -0.221165 0.259857 0.321105
sent_287 0.057587 0.563579 -0.649654 0.283469 -0.372837 -0.420199 -0.219668 0.031359 -0.168531 0.132812
sent_288 0.448303 0.380690 -0.877622 0.218114 0.150486 -0.295642 -0.092884 0.033675 -0.227057 -0.338691
sent_289 0.162080 0.306426 -0.202822 0.273917 0.273132 -0.572840 -0.366032 -0.053264 0.576459 0.019791
sent_290 -0.194642 0.424162 -0.212544 -0.155707 0.343651 -0.388515 0.010983 0.123195 0.102644 0.285103
sent_291 -0.173136 -0.431450 0.044624 -0.323070 -0.246695 -0.263743 0.236240 0.116215 -0.253185 -0.271699
sent_292 0.371323 -0.467661 0.344179 0.394217 -0.227466 0.536393 0.087569 -0.364396 0.635478 -0.215560
sent_293 0.809725 -0.576754 0.028544 0.054385 -0.587625 -0.196272 -0.172375 -0.518908 1.238854 -0.398264
sent_294 -0.079263 -0.590511 0.578088 -0.216880 -0.206656 0.440497 0.491634 -0.638182 0.951146 0.208611
sent_295 0.346651 0.323528 -0.542300 -0.194229 0.039538 -0.515910 0.036804 -0.044807 -0.258097 -0.142644
sent_296 0.337294 -0.165243 0.313075 0.465685 0.005275 0.504764 -0.034100 -0.760567 0.027458 0.047488
sent_297 0.765686 -0.038114 -0.820815 0.198047 -0.375990 -0.579965 -0.237458 -0.820106 0.179475 -0.066376
sent_298 0.556337 -0.047508 -0.640733 0.198711 0.395285 0.253851 -0.111279 -0.080684 0.089712 -0.497170
sent_299 1.133839 0.063666 -0.763462 -0.136684 -0.336927 -0.844484 0.508374 -0.537662 0.079982 -0.198937
sent_300 0.387032 0.142389 -0.221885 0.250431 -0.081751 0.839908 -1.182763 -0.460626 0.326982 0.473954
sent_301 0.013557 -0.037861 0.023689 0.034623 0.024390 0.047657 -0.043537 0.024375 0.000173 0.054088
sent_302 0.332512 -0.151751 0.238637 0.451861 0.032762 0.662036 -0.022620 0.075561 0.379203 -0.015555
sent_303 -0.305834 0.170843 0.575026 0.649420 0.627854 1.114534 -0.217468 -0.312657 0.080610 -0.015362
sent_304 -0.084505 -0.104464 -0.209348 -0.148055 0.051445 0.213515 0.100479 0.070220 -0.185678 -0.077443
sent_305 -0.036683 0.009348 0.023211 0.005433 0.023114 -0.011332 0.040560 -0.062783 0.022113 -0.004095
sent_306 0.496968 0.189636 -0.381078 -0.065319 0.203620 -0.196439 0.147758 -0.518142 0.284386 -0.212370
sent_307 0.010209 0.111890 0.682337 0.060200 0.493553 -0.460287 -0.120706 -0.265706 -0.036532 0.328675
sent_308 -0.451947 -0.520065 0.760705 0.290724 -0.243536 1.418809 -0.051810 -0.217317 0.354152 0.154325
sent_309 0.054096 0.370420 -0.070386 0.370227 0.117141 0.559484 0.156487 -0.257936 -0.112794 -0.379893
sent_310 -0.304393 0.267038 0.822183 0.352054 0.183648 0.375402 -0.455967 -0.130976 0.027236 0.613739
sent_311 0.031880 0.487734 -0.281173 -0.002328 0.109518 -0.268089 0.000188 -0.261615 0.183234 -0.056006
sent_312 -0.343717 0.458959 0.025741 0.150361 -0.232655 -0.224262 -0.496655 0.122409 0.622234 0.571833
sent_313 -0.070616 0.550791 -0.194134 -0.145393 0.117275 -0.388648 -0.257777 0.084713 0.233592 0.047299
sent_314 0.200427 -0.082849 -0.399123 -0.201395 -0.179023 -0.526492 0.041029 -0.205407 0.620258 0.293843
sent_315 0.362189 -0.179393 -0.022611 -0.060164 -0.495452 -0.725853 0.605750 -0.620254 0.215188 -0.023607
sent_316 0.406844 0.051121 -0.073225 -0.077268 0.409218 -0.637422 0.194360 -0.207255 -0.245931 -0.351237
sent_317 0.309546 0.810964 0.247933 0.680528 0.169846 0.191003 -0.192572 0.086637 -0.122341 0.120256
sent_318 0.130795 -0.372055 0.671772 -0.104223 -0.184373 -0.107654 0.016393 -0.074334 0.404755 -0.047985
sent_319 0.221462 0.142445 0.434677 0.137821 -0.079395 0.236420 -0.186680 0.083709 -0.101901 -0.295442
sent_320 -0.038830 0.531769 -0.030473 -0.301303 0.278756 -0.466420 -0.075401 0.083200 -0.165733 0.113124
sent_321 -0.053583 0.006036 0.240829 0.673465 -0.008330 0.538087 -0.610191 -0.086925 0.164522 0.320909
sent_322 0.341080 -0.119773 -0.565379 0.124052 -0.515728 -0.494066 -0.303551 -0.073215 0.350825 0.165984
sent_323 0.517758 0.618422 -0.584846 0.873244 0.338564 0.152210 -0.620444 -0.175877 -0.049802 -0.052721
sent_324 -0.009292 0.042137 0.365990 -0.035235 -0.003084 0.137618 -0.224427 -0.283768 0.081869 0.482397
sent_325 0.187641 -0.025877 -0.060807 -0.007266 0.396110 0.067552 -0.274367 -0.506471 -0.538174 0.300577
sent_326 0.598244 -0.627769 0.070632 0.398766 0.019581 -0.079550 -0.040626 -0.077438 0.679461 -0.428686
sent_327 0.334887 0.124336 -0.425819 -0.572773 -0.327494 -0.305443 0.613903 -0.160017 0.028875 -0.394394
sent_328 -0.097506 0.649626 0.025903 0.445114 -0.026217 0.185486 -0.484091 -0.507172 0.198590 0.642773
sent_329 0.089011 0.342138 -0.338135 0.217885 -0.241215 -0.596599 -0.077009 -0.449469 0.280227 -0.044872
sent_330 0.374361 0.221195 -0.439103 -0.240038 0.158080 -0.713852 0.683379 -0.125551 -0.479100 -0.401481
sent_331 -0.186714 -0.582149 0.732791 -0.044737 -0.439962 0.432848 -0.075437 -0.333651 0.635932 -0.074410
sent_332 0.282345 0.123627 -0.231009 0.107309 0.117670 -0.497485 -0.002238 0.163330 -0.127207 -0.240251
sent_333 0.048655 0.250746 0.274376 0.380455 0.114297 0.384553 -0.433160 -0.388310 0.562210 0.506617
sent_334 -0.357690 0.379041 0.209958 0.559105 -0.309439 0.302194 -0.127218 0.147330 0.599495 -0.027011
sent_335 0.006516 0.291192 -0.613987 -0.101324 -0.730403 -0.398547 -0.083579 0.116491 0.389649 0.301717
sent_336 0.689955 0.269905 -0.247700 0.685400 0.372091 0.557272 -0.143123 -0.379626 -0.288071 -0.562384
sent_337 0.311832 -0.336994 -0.026657 -0.190886 0.113397 -0.464333 0.216703 0.091260 0.133914 -0.010931
sent_338 0.586125 0.114119 -0.495894 0.611559 0.436246 -0.282209 -0.095639 -0.011467 -0.337968 -0.223918
sent_339 -0.126654 -0.351541 0.424640 -0.012616 -0.171789 -0.269612 -0.001723 -0.125899 0.174684 -0.222367
sent_340 0.301979 0.083064 -0.629827 -0.031783 -0.524802 -0.611718 0.291186 0.184640 0.459508 0.095662
sent_341 0.549006 0.386114 -0.690373 0.292192 -0.242353 0.330097 0.104746 -0.545943 0.317858 0.046005
sent_342 0.421674 -0.190955 -0.646880 0.134317 0.138932 0.073105 0.164507 -0.127281 -0.078320 -0.541509
sent_343 0.116027 -0.416646 0.201708 0.208278 0.311103 0.223147 0.555341 -0.724717 0.373162 -0.432852
sent_344 -0.205483 0.295624 0.422124 0.500985 0.241951 0.550693 -0.448902 -0.123657 0.391894 -0.158337
sent_345 0.374713 -0.338191 -0.894359 -0.214011 -0.351669 -0.325045 0.207087 -0.102381 0.109584 -0.135072
sent_346 -0.186378 0.436514 0.053416 0.091623 0.572880 0.232496 -0.218508 -0.363901 0.125403 0.370192
sent_347 0.272132 -0.326654 0.868047 0.558893 0.350056 0.899132 -0.254765 -0.314196 0.335097 0.113333
sent_348 0.200739 -0.346634 0.293104 -0.336712 -0.907177 -1.207182 0.436996 -0.022590 0.678707 0.528664
sent_349 0.437476 -0.634017 0.043682 -0.448005 -0.101842 -0.574734 0.516182 -0.649864 0.504036 0.127178
sent_350 -0.345683 -0.535689 0.328058 -0.135190 -0.246718 0.155287 -0.036099 -0.435536 0.228387 0.367157
sent_351 0.472693 -0.121157 -0.282376 0.558286 0.059772 -0.192949 -0.008521 -0.177386 -0.430297 0.167959
sent_352 0.357717 -0.133091 0.114736 0.687634 -0.010834 0.446628 -0.043616 -0.695200 0.754285 0.022404
sent_353 -0.278065 0.535966 0.775939 -0.203518 0.062702 0.568775 -0.544458 -0.329143 0.196118 0.660258
sent_354 -0.340546 -0.097295 0.293849 -0.254487 -1.117294 -0.072773 -0.372712 -0.204189 0.476193 0.810160
sent_355 0.111125 0.215520 0.555643 -0.242999 0.618799 0.062736 0.390796 -0.078981 -0.126594 -0.213780
sent_356 0.058486 0.361443 0.266101 0.537805 -0.089411 0.425484 -0.288317 -0.263100 -0.051249 0.144676
sent_357 -0.301734 0.313482 0.999271 0.277230 0.171964 0.543409 -0.122416 -0.402045 0.294180 0.684948
sent_358 -0.107943 0.108884 0.055361 -0.433731 -0.459067 -0.414854 0.514244 -0.405090 0.655284 -0.129903
sent_359 0.030606 0.247544 -0.481918 0.061565 0.161306 0.412208 -0.492298 0.432716 0.099878 -0.007866
sent_360 0.147851 0.415917 -0.106694 0.377868 0.157028 0.168887 -0.268376 -0.074121 -0.303541 -0.110913
sent_361 0.571376 0.124770 -0.191317 0.233513 0.337266 0.084220 0.595785 -0.822377 0.117544 -0.697282
sent_362 0.288201 0.215891 0.228470 0.230593 -0.262998 0.674505 0.041554 -0.080371 -0.165950 0.034686
sent_363 0.649793 0.020665 -0.413615 0.184811 -0.136172 -0.154445 -0.204422 -0.091545 0.249365 -0.360174
sent_364 -0.571188 -0.035895 0.521230 0.353535 -0.482293 0.329372 -0.107704 -0.496017 1.396228 0.165129
sent_365 0.081417 0.257717 0.600763 -0.518451 0.499785 -0.179659 0.573181 -0.390270 0.111276 -0.374560
sent_366 -0.359365 -0.513947 0.586282 -0.563339 -0.122223 0.115180 -0.115963 0.057175 0.083349 0.739939
sent_367 0.563843 0.303639 -0.798159 0.100038 0.195554 0.201551 0.185607 -0.327681 -0.379987 -0.020287
sent_368 -0.054206 0.420625 0.575039 0.011573 0.114469 0.248807 -0.668350 -0.128461 -0.151287 0.015738
sent_369 0.369646 0.721466 0.000163 0.191550 0.279416 -0.029345 -0.313576 -0.327768 -0.250169 -0.161481
sent_370 -0.240982 0.084310 0.656431 -0.171897 0.369237 0.402358 0.225328 -0.359379 -0.137859 0.199265
sent_371 0.145160 0.126972 0.667618 0.273048 0.293407 0.594992 -0.641100 -0.369988 0.047611 0.293466
sent_372 0.993198 -0.112056 -0.478459 0.321406 -0.187417 -0.183844 0.422956 -0.313115 0.258014 -0.300935
sent_373 1.232249 0.501374 -1.241821 -0.149504 0.264571 -0.134634 0.269582 -0.437312 -0.404159 -0.159027
sent_374 -0.384161 0.006370 0.913257 -0.266323 -0.169046 -1.117006 0.103383 0.181896 0.494884 0.773283
sent_375 0.127568 0.219567 -0.367552 -0.150926 0.273404 -0.673081 0.138496 -0.372469 -0.204018 -0.248795
sent_376 -0.051671 0.533400 0.241915 0.945385 -0.468854 1.088383 -0.573927 0.085498 0.021470 0.175538
sent_377 0.423208 -0.179246 0.301768 0.013781 0.350982 0.201311 0.614608 -0.685200 0.378039 -0.405778
sent_378 0.533185 0.041906 -0.506831 0.109195 -0.289574 -0.365325 0.146730 -0.005410 0.041784 -0.602000
sent_379 0.245445 -0.350817 0.634480 -0.113484 -0.183077 0.156556 -0.037982 -0.374185 -0.136009 0.294339
sent_380 0.526405 -0.366574 -0.219825 0.276689 0.133954 -0.469662 -0.022689 -0.293189 -0.091679 -0.061502
sent_381 0.321018 -0.033282 0.278377 0.894978 0.469239 0.507833 -0.331663 -0.164400 -0.281631 -0.091656
sent_382 -0.139579 0.110353 0.281216 0.042442 0.012301 0.371888 0.120080 -0.353766 0.558274 -0.195397
sent_383 -0.088254 -0.299915 0.249514 0.204133 0.024228 0.069263 -0.110413 0.414219 0.198429 0.297402
sent_384 -0.210895 0.458055 1.085922 0.658358 -0.096150 0.764310 -0.404574 -0.294857 -0.066096 0.506303
sent_385 0.123495 0.113265 0.443053 0.753176 -0.341882 1.041792 -0.411437 -0.197974 0.511802 -0.020541
sent_386 0.531003 0.233143 -0.387030 -0.014573 0.015950 -0.179429 0.143141 -0.178638 0.147223 -0.134104
sent_387 0.383046 -0.065810 -0.226056 0.368723 -0.133014 -0.017357 -0.194994 -0.802656 0.099681 -0.049276
sent_388 0.403559 0.576583 0.132803 1.189065 -0.168004 1.109477 -0.247937 0.257258 0.013439 0.009786
sent_389 0.037860 0.019812 0.136052 0.372009 -0.005089 -0.025764 0.146311 -0.175137 0.292548 0.221309
sent_390 0.045007 0.663011 1.005691 0.504899 0.645963 0.625554 -0.575213 0.148725 -0.196667 0.025816
sent_391 -0.686983 -0.426263 0.773484 -0.457592 -0.503053 0.467704 0.047377 0.090431 1.004578 -0.185733
sent_392 -0.273476 0.672503 0.082018 -0.311276 0.266930 -0.548833 -0.851232 0.569766 -0.293144 -0.028439
sent_393 0.496100 0.107954 -0.651023 -0.180914 0.009853 -0.506348 0.441306 -0.088750 0.115344 -0.017634
sent_394 0.185800 -0.385062 0.235239 -0.508938 0.011247 -0.819257 0.586004 0.021201 -0.340242 -0.146700
sent_395 0.600315 -0.193113 -0.331216 0.732402 0.047959 1.105205 -0.066689 -0.467204 0.140710 -0.328304
sent_396 -0.004781 0.284540 0.416732 0.241024 0.383645 0.415030 -0.075950 -0.202913 0.046829 0.251965
sent_397 -0.107830 0.276628 0.336391 -0.021694 0.103749 0.284564 -0.291315 -0.053074 -0.027057 0.018761
sent_398 0.295803 0.309312 -0.631594 0.314893 0.010257 0.529135 -0.028403 0.102351 -0.112652 -0.324022
sent_399 0.156680 -0.040314 -0.325380 -0.256270 -0.191455 -0.810644 0.488772 -0.066500 0.000752 -0.099659
sent_400 0.877009 -0.107392 -0.087478 0.758573 -0.176660 0.749923 -0.689375 0.006819 -0.138499 -0.137624
sent_401 -0.632642 0.307555 0.323694 0.010694 -0.116731 -0.067139 -0.140685 0.126444 0.144174 0.285420
sent_402 -0.166418 0.062305 0.762248 0.017724 -0.031310 0.794444 -0.333450 -0.144187 0.202564 0.319561
sent_403 0.545990 0.311789 -0.248418 0.628718 0.329122 0.771278 -0.276708 -0.205316 -0.242878 -0.202089
sent_404 0.494309 0.023791 -0.929872 0.836061 -0.045678 -0.360397 -0.589265 -0.211463 0.035561 -0.122923
sent_405 0.450267 0.358930 -0.714148 -0.193035 0.571005 -0.814266 0.343622 -0.461003 -0.149786 -0.114137
sent_406 -0.051587 0.159276 0.752064 0.059703 0.346428 0.538106 -0.277139 0.126983 -0.516802 0.167472
sent_407 0.346077 0.166512 -0.027544 0.496303 0.259742 0.089074 -0.305656 0.083783 -0.272749 -0.053652
sent_408 0.465105 -0.188370 -0.038697 0.031174 0.302267 -0.718819 0.286429 -0.428473 -0.157791 -0.131392
sent_409 0.097491 0.251380 0.067942 -0.013503 0.010446 0.446878 -0.071850 -0.295054 0.024658 0.088658
sent_410 0.229586 -0.393245 0.025059 0.035143 0.166751 0.158169 0.050533 -0.327220 0.023335 -0.198482
sent_411 -0.651089 0.226658 0.975013 0.201674 -0.305965 0.858332 -0.017952 -0.416912 0.267396 0.407202
sent_412 0.574574 0.077499 -0.288289 -0.004282 -0.250978 -0.411528 -0.064591 0.080930 0.244764 -0.509191
sent_413 0.176474 -0.246752 0.230302 -0.068373 0.163393 -0.196426 0.731474 -0.206576 -0.318871 -0.221214
sent_414 -0.061084 0.713477 0.323738 0.155998 0.602232 0.937670 -0.196061 -0.447204 0.162165 0.108338
sent_415 -0.096590 -0.706203 0.463739 0.220788 -0.074944 0.553673 -0.051385 0.198751 0.316029 -0.264433
sent_416 -0.058662 0.044712 0.354552 -0.061392 0.072096 0.529219 0.054153 -0.133833 -0.084010 0.236782
sent_417 0.306456 0.427160 -0.233416 0.472853 0.442607 -0.019696 0.239412 -0.139786 -0.415885 -0.191049
sent_418 0.070584 0.463255 0.134249 0.166850 0.119538 0.039314 -0.419826 -0.051521 0.485812 0.239862
sent_419 0.637559 0.513727 -0.652391 0.582110 -0.395724 -0.109539 -0.723774 0.102148 -0.072195 -0.501490
sent_420 0.046529 0.693239 0.018614 0.356558 -0.034567 0.081765 -0.293591 0.042455 0.117124 0.301353
sent_421 0.640999 0.172800 -0.585645 1.046641 -0.269421 0.900921 -0.408741 -0.243838 0.034343 -0.055536
sent_422 0.362769 -0.221818 -0.025275 0.539789 0.339434 0.789469 -0.069509 -0.687863 -0.117812 -0.259133
sent_423 0.138038 0.105490 0.112484 0.399200 0.393087 0.954590 -0.138772 0.035620 -0.113295 0.107500
sent_424 0.135718 0.211314 0.044794 0.079724 -0.010364 -0.021883 0.078470 -0.370342 0.119622 -0.289034
sent_425 -0.607882 0.039998 0.759328 0.075589 0.594362 0.653127 -0.201888 -0.082102 -0.255937 0.092488
sent_426 0.021430 -0.192794 0.277115 -0.023551 0.063157 -0.238569 0.087290 -0.417903 0.388277 0.131167
sent_427 -0.173805 0.863060 0.159058 0.195789 0.118121 -0.137849 -0.289649 0.110557 0.392832 0.245435
sent_428 -0.200909 0.407949 0.292992 0.210226 -0.128144 0.596355 0.032021 -0.155651 0.435103 -0.043685
sent_429 0.430791 -0.347481 -0.262579 0.081145 0.301508 0.686081 0.197697 -0.280738 0.020606 -0.350926
sent_430 0.363772 0.147087 -0.528811 -0.315535 0.188993 -1.213769 0.567836 0.009220 -0.052335 -0.140488
sent_431 0.024834 0.611476 0.954470 0.093659 0.906275 0.113894 -0.019263 0.208492 -0.653188 -0.090359
sent_432 0.315147 -0.132482 -0.208959 0.065842 -0.135271 0.026153 -0.189739 -0.499359 0.261908 0.168312
sent_433 0.505914 -0.243224 -0.175381 0.342912 -0.141256 -0.281701 0.392510 -0.385949 0.211452 -0.467008
sent_434 -0.354171 0.132543 0.460783 -0.007059 -0.086131 0.225207 0.181715 -0.191052 0.336253 0.166066
sent_435 0.434161 0.152771 0.184056 0.151530 -0.073774 -0.296273 0.238171 -0.581467 -0.233294 -0.219834
sent_436 0.070474 0.017956 -0.177447 0.399657 0.402298 0.574203 0.043806 -0.616064 -0.339138 0.006482
sent_437 0.079953 0.132145 -0.215164 0.411293 -0.164762 0.092958 -0.624126 -0.038581 0.456389 0.268142
sent_438 0.142964 -0.398312 -0.262853 0.065919 -0.273953 0.047552 0.128341 -0.271657 0.319180 -0.112871
sent_439 -0.253021 0.425140 0.463133 0.369716 0.070812 0.394726 -0.497610 -0.153943 0.002569 0.107756
sent_440 0.268335 0.214306 0.077182 0.749281 0.214433 0.797806 -0.124210 -0.220216 0.185349 -0.123265
sent_441 0.562876 0.052724 -1.198094 0.087780 0.204551 -0.237036 0.326004 -0.739349 -0.044991 -0.367843
sent_442 0.102904 -0.356887 0.042733 -0.100178 -0.019336 -0.245363 0.779272 -0.063054 0.241824 -0.122276
sent_443 0.939214 0.983758 -0.425715 -0.364591 0.486222 -2.540950 0.825298 0.321491 -0.332416 -0.679848
sent_444 0.147397 -0.121148 -0.044342 0.238105 0.268214 -0.088867 -0.154645 -0.192905 -0.204919 -0.269945
sent_445 0.058342 -0.112223 0.244943 0.219675 0.136506 -0.227720 0.016002 -0.083381 0.248257 -0.072076
sent_446 -0.020158 -0.304874 1.037316 0.361803 0.547508 0.265662 0.133818 -0.604731 0.288705 -0.193454
sent_447 -0.048198 0.087272 0.013515 0.076209 -0.140697 -0.034826 0.097314 -0.133830 -0.055210 0.052119
sent_448 0.334589 0.658981 0.162769 0.268594 0.309826 -0.750085 -0.349293 -0.074374 0.059556 0.055943
sent_449 0.288431 0.063203 0.508449 0.146602 0.506675 0.262219 -0.125883 -0.211795 0.149063 -0.173142
sent_450 0.306418 0.188267 -0.148703 -0.053803 0.260874 -0.077144 -0.134568 -0.239216 -0.130656 -0.111410
sent_451 0.769525 0.416923 -0.984614 -0.281419 -0.358246 -1.165182 0.543776 0.462668 -0.006526 -0.313633
sent_452 0.282617 -0.240230 -0.274124 -0.039274 0.398776 -0.386465 0.235383 -0.525035 0.055823 0.007447
sent_453 0.675614 0.091867 0.064759 0.286887 0.282754 0.730740 0.221004 -0.432861 -0.212572 -0.560589
sent_454 0.439921 -0.468568 -0.787730 -0.239254 0.078082 -0.899830 0.501587 -0.431625 0.095796 -0.418675
sent_455 0.259304 0.537143 0.093700 0.438341 0.401749 0.462704 0.059062 -0.425218 -0.448175 0.131775
sent_456 -0.200305 0.060029 0.007906 0.370093 -0.208109 0.314755 -0.107432 -0.334518 0.375293 -0.148611
sent_457 -0.311365 0.348906 0.471493 0.266528 0.171686 0.655913 -0.533393 -0.036183 0.256859 0.472767
sent_458 0.177964 0.037747 -0.435707 0.660691 -0.621698 0.411916 0.148525 -0.000583 0.811784 -0.469959
sent_459 0.387253 0.004371 -0.869103 0.450598 0.139541 -0.623056 0.723597 -0.743069 -0.094542 -0.360230
sent_460 -0.117422 -0.091599 -0.099216 0.066241 0.170533 -0.216312 -0.094310 -0.345301 0.226342 -0.112921
sent_461 0.096442 0.531788 0.366348 0.470234 0.160670 0.497236 -0.723274 0.000949 0.364744 0.343293
sent_462 -0.058848 -0.149260 0.412727 0.217873 0.238763 0.965121 0.227536 -0.405553 -0.024874 -0.346082
sent_463 0.066860 0.099364 0.127274 0.068961 0.352250 0.249420 -0.244103 0.042189 -0.231714 0.087649
sent_464 0.446741 0.478987 0.571006 0.619974 0.153368 0.740992 -0.327745 -0.089656 -0.063791 0.096302
sent_465 -0.199382 0.769464 0.312206 0.671493 0.295773 1.086843 -0.667700 -0.133508 -0.158894 0.169404
sent_466 -0.152463 0.406882 0.330934 0.499132 -0.233981 0.105299 -0.216707 -0.203431 0.047262 0.580869
sent_467 0.453635 -0.230891 -0.250512 0.084356 -0.048593 0.129933 0.084217 -0.180929 -0.013805 -0.105840
sent_468 0.219720 0.016308 0.119736 0.313443 0.284120 0.474098 0.247568 -0.568835 -0.081363 -0.082959
sent_469 0.254225 0.104067 -0.308017 0.066383 -0.154486 -0.065146 -0.145897 -0.150485 0.083198 0.144357
sent_470 0.144834 -0.012863 -0.373611 -0.110043 -0.085168 -1.195824 0.292361 -0.194327 0.636000 0.243354
sent_471 0.434650 0.319438 -0.012577 0.021517 -0.109838 -0.565763 0.281729 -0.037321 -0.392859 -0.076669
sent_472 -0.156356 -0.201604 0.268677 0.090529 -0.281314 0.162534 0.248489 -0.130716 0.334417 0.010667
sent_473 -0.049099 0.358121 0.324629 -0.252038 0.073708 -0.540862 0.158002 0.175155 -0.163910 0.271047
sent_474 -0.009383 0.483522 -0.267393 0.121620 0.106866 -0.304071 -0.162534 -0.228768 -0.340503 -0.203363
sent_475 0.340008 0.097335 -0.120561 0.449549 0.275054 0.363469 -0.108242 -0.202276 0.092368 -0.232751
sent_476 0.162636 0.345725 0.200227 0.076500 0.127036 0.250644 -0.191420 -0.136084 -0.107488 0.112816
sent_477 -0.033118 0.501396 0.317938 0.663207 -0.054645 0.627834 -0.252063 0.109758 -0.063083 0.129136
sent_478 -0.882134 -0.187121 0.548437 -0.109204 0.157431 0.535712 0.157990 -0.717258 0.798306 0.135101
sent_479 0.366093 0.331796 0.058513 0.347376 -0.080796 -0.043563 -0.093255 0.020443 -0.084649 -0.205672
sent_480 0.578006 0.150619 -0.178175 0.695007 0.576819 0.180776 0.386048 -0.873103 0.158829 -0.452698
sent_481 0.019021 0.454919 0.439078 0.077476 0.323183 0.402455 0.285423 -0.338104 -0.103150 0.139535
sent_482 -0.040557 -0.178186 0.331593 -0.372680 -0.232270 -0.131591 0.263116 -0.177639 0.455007 -0.238153
sent_483 -0.017878 0.011325 -0.119353 0.280979 0.250714 0.892581 -0.294736 -0.201767 0.395630 -0.034177
sent_484 0.080610 -0.130918 0.465831 -0.320664 -0.497922 -0.203897 0.326096 -0.067817 0.790531 0.081655
sent_485 0.384171 0.284898 0.178551 -0.065442 -0.096360 -0.335786 -0.023473 -0.020835 0.159457 -0.299810
sent_486 0.578778 0.085660 -0.059878 0.172855 0.357024 -0.044964 0.314290 -0.531519 -0.313822 -0.118717
sent_487 -0.116483 -0.077272 0.411178 -0.082771 0.073293 -0.013204 0.121058 -0.342461 -0.019909 0.193308
sent_488 0.218753 0.562382 0.966570 0.738070 -0.121277 0.695651 -0.584108 -0.301642 0.283523 0.056753
sent_489 0.360536 -0.436509 0.546225 -0.095843 0.252842 0.340468 0.261496 -0.647884 0.461018 -0.254058
sent_490 0.185839 -0.031058 0.353131 0.313426 -0.128690 -0.168150 0.499877 -0.333490 0.319811 0.227290
sent_491 -0.259733 0.692774 0.426477 0.462944 0.636057 0.882192 -0.232247 -0.849710 -0.044695 -0.011022
sent_492 -0.491735 -0.028809 1.285662 0.268326 -0.099525 0.898805 -0.282633 -0.391500 0.436909 0.499239
sent_493 -0.421130 0.498008 0.967674 0.137175 0.483354 0.820416 -0.534795 -0.253268 -0.187983 0.037555
sent_494 0.086507 0.090230 0.405852 0.356492 0.446737 0.916839 -0.012768 -0.245555 -0.429383 0.075145
sent_495 -0.125429 0.467300 0.214534 0.077932 0.255004 0.229535 -0.025719 -0.261192 0.417472 -0.044366
sent_496 0.027128 -0.391540 -0.496694 -0.443828 -0.466899 -0.364309 0.094961 -0.127131 0.336467 -0.178455
sent_497 -0.015763 -0.394552 0.907932 0.188888 0.233630 0.392846 0.157365 -0.248867 0.358824 0.079953
sent_498 0.140091 -0.004756 0.308220 0.091339 0.050751 0.223140 0.110446 -0.216987 -0.023016 -0.144575
sent_499 0.024054 0.251657 -0.074037 0.056685 0.242428 -0.046099 -0.298094 -0.251020 -0.369860 0.406230
sent_500 0.289311 0.034115 -0.193584 -0.034846 0.046937 -0.020176 -0.004921 -0.253735 -0.192367 -0.014849
sent_501 0.229706 -0.138489 0.080557 -0.032171 0.138270 -0.025709 0.116509 0.043059 -0.111116 -0.234363
sent_502 -0.012186 -0.020200 -0.039535 0.052421 0.022160 0.005215 0.012173 -0.060563 0.003931 0.007856
sent_503 -0.084458 0.085775 0.165199 -0.069550 0.217304 0.222146 -0.221239 -0.249782 0.235796 0.295527
sent_504 -0.129598 -0.764116 0.739426 -0.089109 -0.132278 0.225583 0.207901 -0.111027 0.196818 0.227836
sent_505 0.261589 0.179622 -0.101414 0.070795 0.312779 -0.250359 0.064436 -0.023233 -0.507001 -0.288461
sent_506 0.589123 0.315690 -0.219943 0.014703 0.311985 0.086838 -0.119620 -0.019928 -0.296504 -0.292429
sent_507 0.060330 0.516573 0.165780 0.498781 -0.129393 0.042040 -0.090313 -0.121998 -0.113535 -0.141503
sent_508 0.554085 0.000466 0.380738 0.023742 0.136517 -0.362226 0.301086 -0.412018 0.018951 -0.443180
sent_509 0.437503 0.348768 -0.494309 0.105490 0.059734 -0.122281 -0.390237 -0.588142 -0.344213 0.352991
sent_510 0.187447 0.431665 0.495957 0.638542 0.484247 0.487301 0.117047 -0.469679 -0.310496 0.032233
sent_511 0.001882 -0.238294 0.004701 -0.208641 -0.001739 -0.194984 0.146026 0.107923 0.169594 0.031762
sent_512 0.632590 0.285557 -0.173544 0.487466 0.299733 0.448180 0.401958 -0.173168 -0.387700 -0.351177
sent_513 -0.025517 0.283066 -0.181279 0.378236 -0.033588 -0.105083 -0.423679 -0.372661 0.388582 0.180730
sent_514 0.039824 0.094756 0.856869 0.127007 0.625578 0.697048 -0.483025 -0.446105 -0.115653 0.196216
sent_515 0.408054 0.597794 -0.901997 0.280230 -0.290969 -0.234721 -0.186858 -0.340281 0.059233 -0.468620
sent_516 -0.399246 -0.456397 0.281908 -0.097255 -0.505228 -0.153305 -0.242447 -0.437583 0.594570 0.896542
sent_517 -0.247356 0.272013 0.208885 0.118318 0.241393 0.261924 -0.141776 -0.370049 0.191018 0.223472
sent_518 -0.176312 0.304249 0.109897 0.138544 -0.172842 0.096187 -0.002754 -0.038687 0.060932 0.151058
sent_519 -0.115348 -0.265688 0.020243 0.062453 -0.733543 -0.149961 -0.437879 0.021661 0.500240 0.188627
sent_520 0.405800 0.530426 -0.544488 0.229555 0.681552 -0.445843 -0.157693 0.098482 -0.537678 -0.165332
sent_521 0.640299 0.296532 -0.553436 0.030481 0.357148 -0.535974 0.192678 -0.640413 -0.273385 -0.507152
sent_522 0.114106 -0.386123 -0.290314 0.087662 0.346081 -0.652770 0.263495 -0.379598 -0.062861 -0.198163
sent_523 -0.039427 0.069529 -0.251533 0.328632 -0.010977 -0.139571 0.076444 -0.395666 -0.150033 0.247935
sent_524 -0.051622 0.601211 0.363194 0.433506 0.031360 0.067789 -0.399176 -0.035188 -0.211925 0.141148
sent_525 0.668460 0.205205 -0.658088 0.083444 0.239763 -0.463252 0.219397 -0.452381 -0.419367 -0.556980
sent_526 0.063664 0.677942 0.056610 0.492419 0.222089 0.482512 0.111756 -0.523882 -0.159378 -0.311499
sent_527 0.179637 0.254510 -0.247453 0.295217 0.036065 0.068505 -0.140525 -0.293218 0.079987 -0.346004
sent_528 -0.039543 -0.001821 -0.034254 -0.154389 0.164334 -0.378634 -0.029388 0.217789 0.226788 -0.147493
sent_529 0.019261 0.474956 0.380252 0.360045 -0.192234 0.277968 -0.581271 0.351678 0.050603 0.339565
sent_530 0.343366 -0.370981 0.000440 -0.363595 -0.169287 -0.358233 0.916927 -0.206127 0.437829 -0.351458
sent_531 -0.127727 0.252673 0.191612 0.037453 0.042325 0.137330 -0.124295 -0.159269 0.119715 0.174096
sent_532 0.370960 -0.072178 -0.584607 -0.197221 0.742420 -0.145870 0.237805 -0.148765 -0.109183 -0.266912
sent_533 0.411663 0.536674 0.468827 0.721029 0.075825 0.233664 -0.652257 0.016747 0.018021 0.178165
sent_534 0.270404 0.082321 0.277679 -0.108578 0.260801 0.312312 0.109345 -0.361764 -0.157294 0.213333
sent_535 0.423575 0.122684 -0.632413 0.250105 -0.163714 0.315408 -0.330018 -0.098264 0.834346 0.309433
sent_536 0.386238 0.135480 -0.173251 0.043154 -0.008755 -0.031783 -0.309173 -0.168340 -0.049897 -0.292062
sent_537 0.342396 -0.314520 0.318656 -0.087888 -1.060412 -0.687560 0.004946 -0.514015 1.008055 -0.168348
sent_538 0.228940 0.568860 -0.561494 -0.195393 0.085247 -0.885026 0.364607 0.163832 -0.220634 -0.175174
sent_539 0.773947 0.406179 -0.427526 0.748401 0.038354 0.238863 -0.638434 -0.571933 0.005920 -0.041664
sent_540 0.158052 0.016045 -0.447954 0.137172 -0.007812 -0.412723 0.253524 -0.436636 0.026856 -0.045298
sent_541 0.957252 0.372247 -1.028016 -0.084267 -0.610426 -1.067048 0.294519 -0.181300 0.629865 -0.249073
sent_542 0.530880 -0.275389 -0.693739 0.200839 -0.211787 -0.412349 0.300958 -0.131396 0.688754 -0.128222
sent_543 -0.325364 0.084125 -0.035212 0.549172 0.366797 0.054358 -0.267047 -0.292878 0.216299 -0.147961
sent_544 -0.009540 0.164077 0.020766 0.091837 0.191170 0.075394 0.002132 -0.113695 0.146001 0.075634
sent_545 -0.330963 0.250534 0.352602 -0.218480 -0.233152 -0.211623 0.181916 0.035139 -0.078351 0.102156
sent_546 -0.079797 0.388216 0.179896 0.422648 -0.446852 0.229499 -0.221064 0.035167 0.620932 -0.044641
sent_547 -0.401926 0.083255 0.910270 0.220529 -0.013596 0.712286 -0.131812 0.119862 -0.355877 0.369366
sent_548 0.281249 0.537427 0.395713 0.261151 0.125093 0.256972 0.080330 -0.248383 0.139543 -0.094429
sent_549 -0.106193 0.215858 -0.042561 0.660794 -0.157789 0.460750 -0.719002 -0.196851 -0.169550 0.476771
sent_550 0.127578 0.182241 0.160166 -0.215459 -0.112273 0.293337 0.106031 -0.017244 -0.048207 0.102634
sent_551 -0.018483 0.147223 0.252357 -0.291066 0.240879 -0.118387 0.040084 -0.085542 0.248732 0.253935
sent_552 -0.102446 0.154089 -0.518725 0.558022 0.369536 1.714259 -0.552723 -0.406561 0.144872 -0.325099
sent_553 0.385996 -0.039885 0.087971 0.070990 0.359137 0.154749 0.164215 -0.321400 -0.102117 -0.217012
sent_554 0.455601 0.404829 -0.472173 0.066370 -0.348143 -0.940121 -0.020777 0.049544 -0.053293 -0.119842
sent_555 -0.169322 0.217391 0.150996 0.379753 0.362856 0.333727 -0.533819 -0.226150 0.208276 0.355028
sent_556 0.034691 0.127217 0.561264 0.363358 -0.059299 0.621393 -0.533695 -0.088361 -0.013593 0.316765
sent_557 0.774722 0.080469 -1.229788 -0.171835 -0.000890 -0.881058 0.648716 -0.179471 0.468623 -0.092392
sent_558 -0.199161 -0.066930 0.252199 0.313223 -0.128530 -0.488479 -0.886306 -0.141997 0.963531 0.702771
sent_559 0.383671 0.376494 0.860003 0.443900 0.306046 0.824973 -0.473392 -0.553491 -0.075709 0.638996
sent_560 0.778384 -0.468488 -0.959769 0.050405 0.511403 -0.274855 0.247695 -0.488737 -0.239518 -0.358909
sent_561 0.352204 0.005912 0.012690 0.005661 -0.172316 -0.512931 0.364713 -0.450025 0.544211 -0.055799
sent_562 0.043547 1.094652 0.188684 0.449200 -0.068774 0.108325 -0.716516 -0.372340 -0.000528 0.410235
sent_563 1.002857 -0.007924 -0.982493 0.664396 0.091650 -0.120143 -0.065238 -0.425733 -0.005577 -0.469801
sent_564 0.120900 0.724724 0.169686 0.948502 0.169584 1.843026 -0.336127 -0.446986 -0.002292 0.218629
sent_565 0.552976 -0.294575 -0.450271 0.115259 -0.668810 0.083515 -0.015129 -0.468483 0.835063 -0.063567
sent_566 0.374534 0.127078 -0.019478 0.399309 0.608977 0.899192 -0.163842 -0.553451 -0.124328 -0.328072
sent_567 0.185726 0.137398 0.200267 0.677766 0.085726 0.889369 -0.352873 -0.066718 -0.059056 0.339570
sent_568 0.464478 0.457648 0.129120 0.658781 -0.313919 0.199529 -0.699440 -0.033945 0.254336 0.310372
sent_569 -0.437965 0.244488 -0.052385 0.542337 -0.471999 0.561530 -0.682195 -0.177500 -0.106626 0.218047
sent_570 0.134069 -0.634922 -0.256156 -0.354534 -0.239148 -1.435530 0.653279 -0.274841 0.478845 0.256757
sent_571 -0.448320 0.032999 0.685306 -0.155482 0.324898 0.380459 -0.038383 -0.424204 0.440595 0.119115
sent_572 0.092817 0.170540 -0.034012 0.613165 -0.083400 1.277248 -0.338553 0.035959 0.040743 -0.306558
sent_573 0.341913 0.741581 -0.796684 -0.038836 0.226007 -0.448001 0.011150 -0.171470 -0.309037 -0.293893
sent_574 0.513282 -0.135780 -0.594565 0.203086 0.001358 -0.044503 0.083112 -0.588743 0.319467 -0.444978
sent_575 0.438602 0.417831 -0.184911 0.031149 0.687871 0.127762 0.295974 -0.319133 -0.514841 -0.206643
sent_576 0.005486 -0.039264 0.014035 0.017053 -0.024989 0.044828 -0.004735 0.036672 0.015308 0.011654
sent_577 0.021259 -0.055690 0.213704 0.270107 0.070602 0.213890 0.034418 -0.246498 0.186630 0.233508
sent_578 0.493502 0.643285 -0.088785 0.997042 0.011675 0.685373 -0.837747 -0.315776 -0.186055 -0.041619
sent_579 0.314174 0.332088 -0.135863 0.081477 -0.166649 -0.510081 -0.060926 -0.323942 -0.182505 -0.104491
sent_580 -0.006622 0.310109 -0.182281 0.310577 -0.272678 0.092266 -0.281346 -0.398813 0.277697 0.147049
sent_581 0.287344 0.369398 -0.363970 -0.061227 0.206412 -0.454055 0.455188 -0.605332 0.056142 -0.339766
sent_582 -0.044219 0.305226 -0.154514 0.103256 0.099715 -0.153524 0.076358 -0.007893 0.101303 0.025962
sent_583 0.335711 0.483340 -0.244221 -0.073299 0.231885 -0.485448 0.442671 -0.081404 -0.263625 -0.281727
sent_584 0.097533 -0.484571 0.679662 -0.290339 0.204512 -0.100018 0.446610 -0.175413 -0.041280 0.028287
sent_585 0.185796 -0.186906 -0.074331 0.135525 0.349117 -0.041691 -0.354231 -0.270182 -0.017286 -0.037333
sent_586 0.329478 0.373238 0.241027 -0.116065 0.197711 -0.246511 0.315041 -0.485581 -0.334718 -0.422548
sent_587 -0.029076 -0.022943 -0.089725 0.165023 0.014928 0.011458 0.084925 -0.267933 -0.059995 -0.009400
sent_588 -0.664679 -0.187917 1.473601 -0.145782 -0.172321 0.772218 -0.136613 -0.240065 0.721768 0.593203
sent_589 -0.393081 0.146113 -0.970528 -0.268929 -0.497078 -0.564887 0.122263 0.328806 0.065280 0.276998
sent_590 -0.113376 0.345354 0.507875 0.468468 0.473612 0.656670 -0.436716 -0.201210 -0.024426 0.197373
sent_591 0.174298 0.174924 0.118932 0.543342 0.339689 0.506521 -0.196733 -0.097274 0.060410 -0.088454
sent_592 -0.132112 0.281755 0.048359 0.107361 0.390030 0.045024 -0.121222 -0.129373 -0.094604 -0.004754
sent_593 0.620045 -0.037736 -1.236572 -0.212420 0.142644 -1.098265 0.191003 -0.055286 -0.090079 -0.076929
sent_594 0.128438 -0.326962 -0.053862 0.077992 -0.346280 -0.583672 0.222613 -0.155053 0.107372 0.236700
sent_595 0.722993 -0.145902 -0.597568 0.115880 0.059693 -0.503810 -0.390809 -0.557987 0.177553 0.161196
sent_596 0.009444 -0.011438 0.009479 -0.073063 -0.030693 -0.011225 0.076678 -0.008076 -0.011645 0.010512
sent_597 0.568538 0.354907 -0.756437 0.111990 0.080282 -0.072732 -0.068783 -0.147436 -0.016046 -0.534100
sent_598 0.197998 -0.280971 0.245589 0.107801 -0.042608 0.409975 0.274148 -0.104336 0.285454 -0.336321
sent_599 0.569629 0.388058 -0.291561 0.329475 0.527909 0.250420 -0.127479 -0.496244 0.227811 -0.049733
sent_600 0.066119 0.484877 0.268039 0.091504 0.676511 0.600945 -0.116707 -0.325964 -0.337575 -0.096841
sent_601 -0.140013 -0.350058 1.198274 -0.197925 0.052219 -0.021083 -0.002662 -0.460389 0.404583 0.640676
sent_602 -0.532568 -0.064964 0.643962 0.314444 0.116535 0.740557 -0.253706 -0.077369 0.253629 0.402387
sent_603 0.066062 0.515014 0.937502 0.471631 0.323309 0.620062 -0.393893 -0.289255 -0.105807 0.122142
sent_604 0.786315 0.170995 -0.069109 0.501687 -0.419616 0.084833 -0.439141 0.016541 0.286775 -0.022646
sent_605 1.178349 -0.162816 -0.643987 0.596939 0.610817 -0.010681 0.203151 -0.622307 0.049461 -0.702023
sent_606 0.155593 -0.031231 0.190665 -0.172259 0.352988 -0.054378 0.206076 -0.344393 0.165585 0.054844
sent_607 0.043962 0.727157 0.240932 0.304273 0.274722 0.965807 -0.187819 -0.410194 -0.533460 0.310338
sent_608 0.532299 -0.153502 -0.059420 0.310356 0.374632 0.042632 0.414025 -0.526444 -0.107712 -0.465243
sent_609 0.092082 -0.061003 0.138407 -0.048488 0.137275 0.241575 0.199680 -0.163271 -0.085119 -0.069659
sent_610 -0.239834 -0.221672 -0.132449 -0.314004 0.624978 -0.703391 0.054411 0.114006 -0.248746 -0.050238
sent_611 0.376701 0.483102 -0.814275 0.159860 -0.069612 -0.309932 0.253880 -0.501410 0.058473 0.335107
sent_612 0.004689 0.051862 -0.006238 0.010048 0.019722 -0.016854 -0.045627 0.023499 0.027158 0.064024
sent_613 0.094887 0.019052 0.102512 -0.041274 -0.018779 0.112590 -0.162426 -0.177725 -0.097216 -0.077961
sent_614 0.153673 0.102188 -0.287093 -0.166164 -0.101385 -0.926417 0.222919 0.008092 0.087580 0.255124
sent_615 0.221146 0.410215 0.093145 0.585288 0.052189 0.481825 -0.258697 -0.785714 -0.181235 0.303554
sent_616 0.588401 -0.626391 -0.077175 0.081600 -0.289760 0.350757 0.401330 -0.303263 0.513740 -0.140067
sent_617 0.382849 0.204547 -0.467986 0.452761 0.015116 -0.033849 0.147792 -0.300737 0.207377 -0.450623
sent_618 0.080801 -0.202932 0.303076 -0.020158 -0.330321 -0.379895 0.272977 -0.635525 0.267552 0.209903
sent_619 0.090731 -0.056730 0.238592 -0.149856 -0.507029 -0.227931 0.128762 0.222803 0.272356 -0.230850
sent_620 0.299610 -0.045974 -0.388628 0.254645 0.072405 -0.242661 0.263621 -0.426813 0.224992 -0.073014
sent_621 0.630338 0.049491 -0.333360 0.182126 -0.060642 0.081524 0.280078 -0.683514 0.105233 -0.085078
sent_622 0.217276 0.507585 -0.253919 0.434123 0.402679 -0.081911 -0.006311 -0.272698 0.101175 -0.077350
sent_623 0.982713 0.120836 -0.110151 0.751995 0.434261 1.034742 0.118440 -0.274549 -0.048114 -0.593233
sent_624 0.101236 -0.363131 0.549037 -0.144448 0.162414 0.524318 0.174857 -0.526602 0.001830 -0.058903
sent_625 0.074281 -0.123475 -0.214447 0.060847 -0.498711 -0.592504 0.215642 -0.088655 0.724173 0.269135
sent_626 0.739669 0.099454 -0.216362 0.280160 0.046645 -0.334584 -0.001329 -0.983592 0.088154 -0.195940
sent_627 0.171053 0.146245 0.464815 0.066107 0.320495 0.403296 -0.243902 -0.117782 -0.284677 -0.315720
sent_628 -0.116241 0.685879 -0.051495 0.054763 0.460869 0.351047 -0.261542 -0.228680 -0.512947 0.310285
sent_629 0.471058 0.057649 -0.743455 -0.303242 -0.118305 -1.119429 0.399528 -0.169043 -0.053520 -0.101602
sent_630 -0.324758 0.891732 0.271726 0.330353 0.183912 0.948526 -1.314826 -0.642748 0.078567 0.298518
sent_631 -0.000850 -0.124693 0.207101 -0.404128 -0.089686 -0.556956 0.335841 -0.287784 0.283518 -0.201553
sent_632 0.010353 -0.036805 0.115437 0.049811 -0.015246 0.083993 0.105973 -0.288008 0.025418 0.008083
sent_633 -0.046489 0.508860 -0.414268 0.253274 -0.030256 0.627202 -1.044615 -0.278959 -0.259362 0.357320
sent_634 0.250467 -0.196383 0.344206 0.250567 0.447345 0.824169 -0.064873 -0.587165 0.398463 0.022309
sent_635 0.236308 0.348422 -0.843298 -0.213873 0.034155 -1.050385 0.774959 -0.405767 -0.285374 -0.021735
sent_636 -0.025701 -0.022343 0.340245 0.012039 0.205791 0.162701 0.117623 -0.233598 0.010523 0.028028
sent_637 -0.790048 -0.267107 1.132942 -0.397037 -0.738219 0.136287 -0.349270 0.355337 1.116979 0.294075
sent_638 -0.098887 -0.032264 0.036065 0.050229 -0.074457 0.755841 -0.422454 0.042221 -0.204447 0.079455
sent_639 1.267714 0.304385 -1.535661 0.312143 0.005497 -0.610306 0.104489 -0.370619 -0.080374 -0.465154
sent_640 0.152729 0.301778 0.165763 -0.103892 0.595880 0.519484 0.031289 -0.335794 0.056358 -0.051582
sent_641 0.509091 0.237688 0.170512 0.296074 0.441606 -0.446182 -0.199194 -0.631787 -0.457612 -0.017547
sent_642 0.320601 0.925219 -0.069253 0.436368 -0.328897 0.412726 -0.455210 -0.350163 -0.162324 0.088067
sent_643 -0.349819 0.198052 0.196124 0.129760 0.400229 0.233794 -0.459210 -0.171591 -0.341353 0.121520
sent_644 -0.046778 -0.426603 -0.001273 -0.031287 0.131661 -0.257989 0.153590 -0.119401 -0.106404 0.018557
sent_645 1.223464 -0.155655 -1.158611 0.045988 -0.021058 -0.487891 0.140443 -0.333914 0.079017 -0.221667
sent_646 0.401090 0.142762 0.099512 0.602360 0.286827 0.998250 -0.271441 -0.184456 -0.454165 -0.138723
sent_647 -0.513444 0.071138 0.478738 -0.353041 -0.172302 -0.534551 -0.487443 0.051578 0.396938 0.182322
sent_648 0.834509 0.395206 -0.945169 -0.338224 -0.263179 -0.737685 0.092006 -0.264051 0.134517 -0.083833
sent_649 -0.257807 -0.130485 0.352978 0.105345 -0.748835 0.117161 -0.079769 -0.054127 0.919283 -0.004807
sent_650 0.383123 0.100555 0.096683 0.657963 0.247007 0.528258 -0.026777 -0.303717 0.113590 -0.205354
sent_651 0.359481 0.619685 -0.861133 -0.226572 0.027022 -1.025677 0.246124 0.469264 -0.513300 -0.109378
sent_652 0.357309 0.177613 -0.562383 0.501490 -0.006301 0.056447 -0.322943 -0.237815 0.200931 -0.261573
sent_653 0.458372 0.569106 -0.678522 0.305641 -0.248963 -0.036499 -0.544352 0.155336 -0.177745 -0.105239
sent_654 0.268801 0.008064 0.279055 0.685908 -0.169635 1.025805 -0.582965 -0.003431 0.312338 0.322420
sent_655 0.096974 -0.030848 -0.073505 -0.051532 0.101826 -0.168158 -0.079264 -0.024701 -0.028918 -0.033857
sent_656 0.019553 0.110993 -0.324713 0.043486 -0.410412 -0.600851 0.025991 -0.257050 0.326413 0.019709
sent_657 0.051887 0.142694 -0.153974 0.360074 0.097546 -0.592793 -0.381972 0.035822 0.063136 0.038006
sent_658 -0.112869 0.122816 0.449862 -0.139206 0.365775 -0.375114 0.345235 -0.402929 -0.093706 -0.000136
sent_659 -0.074626 0.405746 0.300891 0.435549 0.446966 0.304252 -0.062937 -0.119513 -0.638721 0.158077
sent_660 -0.045460 0.262081 0.488861 0.127416 -0.009132 0.210477 -0.288956 -0.393509 0.099786 0.342869
sent_661 0.773305 0.156639 -1.388558 0.189380 0.106728 -0.274059 0.097490 -0.300658 -0.150970 -0.389102
sent_662 -0.085531 0.345708 0.071646 0.008833 0.024389 0.054237 0.013104 -0.245146 0.004652 0.033197
sent_663 0.117303 0.413912 0.531126 0.146075 0.011597 0.049797 -0.084523 -0.378757 -0.136725 0.382178
sent_664 0.297839 -0.106037 -0.305235 -0.223489 0.372158 -0.156645 0.052294 -0.158776 -0.158252 -0.359482
sent_665 0.094490 0.205484 -0.187546 -0.451492 0.224105 -1.515634 0.908743 0.149020 -0.531939 -0.080531
sent_666 0.060341 0.413164 0.421342 0.517960 0.218064 0.645230 -0.510641 -0.386861 0.022724 0.212153
sent_667 -0.178893 0.333186 -0.068689 -0.101547 0.040768 -0.152225 -0.317094 0.332726 0.141711 0.253085
sent_668 -0.538845 -0.106139 0.720102 0.101528 0.074380 0.311069 0.067367 -0.120330 0.216411 0.247131
sent_669 0.272723 0.391586 -0.153720 0.101254 -0.285376 -0.053190 -0.424492 0.036202 0.455175 -0.287840
sent_670 0.007836 0.880937 0.646810 0.778613 0.514064 0.747517 -0.551694 -0.228284 -0.238524 0.562619
sent_671 0.058348 -0.000121 0.051129 -0.144506 -0.075435 0.066305 0.169469 -0.155752 0.053408 -0.050170
sent_672 0.174281 0.095271 -0.518628 -0.209252 -0.265402 -0.694857 0.027823 -0.108635 0.212333 0.002789
sent_673 0.557966 -0.243978 -0.466526 0.200836 0.372244 0.192643 -0.063051 -0.443432 -0.251938 -0.337705
sent_674 0.571298 0.366156 -0.308513 -0.038071 0.656802 -0.431279 0.086221 -0.179987 -0.391189 0.182603
sent_675 0.083057 -0.108679 0.102795 0.183509 0.064920 -0.063476 0.127918 0.019081 0.074809 -0.220197
sent_676 -0.057035 0.227810 -0.004239 -0.111195 0.092367 -0.108407 -0.499555 -0.097349 -0.138096 -0.250803
sent_677 0.103893 -0.099964 -0.156710 0.084320 -0.378846 -0.341772 0.357561 -0.010911 0.166572 -0.115245
sent_678 0.194968 -0.757832 -0.005775 -0.754593 -0.182301 -0.732883 0.783691 -0.204590 0.395600 0.050868
sent_679 0.834632 0.415351 -0.242962 0.294511 0.104608 -0.273312 0.478574 -0.586746 -0.419905 -0.529358
sent_680 0.239780 0.417547 -0.009348 1.014710 0.375466 1.128675 -0.381097 -0.113960 0.067221 0.071257
sent_681 0.231483 0.508243 -0.384667 0.050067 0.022477 0.608426 -0.322494 -0.482201 -0.729288 0.279616
sent_682 0.829043 -0.394685 -1.239448 0.117374 0.066821 -0.770327 0.278178 -0.267148 -0.434714 -0.194645
sent_683 -0.073765 0.772576 0.812903 -0.099950 0.761030 0.129677 -0.234893 -0.512811 -0.396298 -0.086249
sent_684 -0.453487 0.585372 0.110752 0.430343 -0.050160 0.166933 -0.423484 -0.011156 0.393225 0.429568
sent_685 -0.429148 -0.337158 -0.054353 -0.263508 -0.458967 -0.104576 0.519005 -0.471702 0.913839 0.264875
sent_686 0.404085 0.158139 -0.297659 0.355965 0.008196 0.529364 -0.369035 -0.274418 0.104317 0.013582
sent_687 -0.132528 0.577461 0.561520 0.283361 0.503938 0.868736 -0.038822 -0.313015 -0.296999 0.157688
sent_688 0.254918 -0.495156 0.233367 0.522087 0.077654 0.363255 -0.576383 -0.178575 0.613000 0.237052
sent_689 -0.170688 -1.114891 0.882239 -0.555776 -0.814016 -0.254841 0.632256 -0.225896 1.286965 -0.137526
sent_690 0.204921 0.582171 -0.348486 -0.310730 0.274990 -0.168050 0.208110 -0.369629 -0.486184 0.262399
sent_691 -0.040858 0.844593 -0.315380 0.091197 0.055617 -0.178624 -0.757818 0.026595 -0.140313 0.102191
sent_692 0.227235 0.356708 0.354858 0.301376 0.107626 0.397870 -0.166984 -0.232271 -0.213205 0.320848
sent_693 0.428144 -0.001720 -0.081212 0.190195 0.359787 -0.071300 -0.073339 -0.210347 -0.020270 0.023338
sent_694 0.274190 -0.203670 -0.635741 -0.348941 -0.223009 -0.933536 0.342110 -0.447657 0.224107 -0.350073
sent_695 -0.138511 0.003393 0.028574 -0.097120 0.013791 0.033907 -0.187541 -0.038705 -0.207286 0.084624
sent_696 0.454066 -0.223483 0.414724 0.174374 0.003083 0.283848 -0.351590 -0.100134 0.062273 -0.311672
sent_697 0.285584 0.592527 -0.195276 0.211852 -0.121667 0.492736 -0.429950 0.039763 0.027862 -0.066667
sent_698 -0.069522 0.585791 0.608600 0.425147 0.028233 0.171904 -0.663158 -0.161014 0.268557 0.218644
sent_699 1.102331 0.037538 -0.387229 -0.201190 0.202957 -0.618576 0.394143 -0.601985 -0.366877 -0.586988
sent_700 0.114213 -0.341018 0.535066 -0.144449 0.917055 0.364010 0.320529 -0.226192 0.047412 -0.383902
sent_701 0.376270 0.121640 -0.622126 0.273600 -0.228317 0.559118 -0.124414 -0.195672 0.017656 -0.295697
sent_702 -0.240805 0.729352 0.375279 0.001245 0.415037 0.106060 -0.016373 -0.139498 -0.133394 -0.192275
sent_703 0.108946 0.527200 -0.305935 -0.168063 0.284190 -0.570275 -0.079879 -0.120679 0.060096 -0.129042
sent_704 0.474788 0.271565 0.181285 0.365593 -0.020646 0.437464 -0.481888 -0.652124 -0.248246 0.468464
sent_705 -0.287677 -0.186059 0.539423 -0.056925 -0.528777 0.003187 0.167510 -0.385650 0.591236 0.380693
sent_706 0.589161 0.154490 0.039206 0.621652 0.239080 0.629724 -0.387726 -0.461240 -0.268127 -0.136783
sent_707 0.621955 0.492337 -0.722600 0.479360 -0.409882 -0.658554 -0.215329 -0.304800 0.218152 -0.484886
sent_708 0.137495 -0.010836 0.325207 0.102063 0.300148 0.357880 -0.168711 -0.251253 -0.002348 0.029931
sent_709 0.052167 -0.613883 0.551015 -0.095448 -0.149146 0.188650 0.330160 -0.246613 0.405721 -0.421339
sent_710 -0.283119 0.730302 0.481606 0.162481 0.395625 -0.000788 -0.196141 0.188802 -0.384823 0.405413
sent_711 0.501279 0.158027 0.084273 0.532408 0.278758 0.063301 -0.080465 -0.598091 0.210731 0.189695
sent_712 0.577096 0.317715 -0.305709 0.146236 0.237389 0.227814 0.073547 -0.394337 -0.475472 -0.365688
sent_713 0.360087 0.747500 0.122550 0.611139 0.442774 0.410111 -0.285315 -0.448598 0.022752 -0.419611
sent_714 -0.203782 0.397250 0.529346 0.408836 -0.238023 0.411682 0.145001 -0.128260 -0.072516 0.001144
sent_715 0.018730 -0.205818 -0.130758 -0.032944 -0.258777 -0.359900 0.017883 0.006897 0.505966 -0.325464
sent_716 0.559576 0.060408 -0.327018 0.551382 -0.344491 -0.394231 -0.219458 -0.388351 0.405544 -0.400647
sent_717 0.464478 0.607437 -0.365641 0.129161 0.004786 -0.044991 -0.500357 0.004527 0.177234 -0.106271
sent_718 -0.052521 0.728978 -0.040172 0.335429 0.295194 -0.043436 -0.557994 -0.301519 -0.110948 0.199476
sent_719 -0.242390 0.507594 0.677715 0.061037 -0.020777 0.516470 -0.553122 -0.261685 0.046736 0.516304
sent_720 0.170260 -0.154690 -0.206772 0.216084 -0.235033 -0.141952 -0.115672 -0.113674 0.013744 -0.019448
sent_721 -0.074348 0.164682 0.231397 -0.070603 0.295667 0.156951 0.061296 -0.249573 -0.009193 0.245054
sent_722 0.134586 -0.248368 0.362335 0.160522 0.540631 -0.142050 0.015493 -0.317158 0.677266 -0.298570
sent_723 0.374303 0.617271 0.322815 0.386752 0.357920 0.535490 0.112407 -0.490096 -0.112233 -0.432479
sent_724 0.418275 0.672710 -0.353385 0.163494 0.139804 0.319871 -0.124548 -0.028040 -0.230610 -0.254546
sent_725 0.004259 0.474777 -0.031183 0.331112 0.214140 -0.295240 0.064674 -0.657705 0.020050 -0.143689
sent_726 0.463631 0.406397 0.393638 0.569521 0.675077 0.865129 -0.150574 -0.526413 -0.142563 -0.238204
sent_727 -0.071794 0.286444 -0.318858 -0.100736 -0.310485 -0.312975 -0.193712 0.168270 -0.058400 0.088324
sent_728 -0.117143 0.017382 0.049338 0.029897 -0.057595 0.006344 -0.093975 0.044195 0.099745 0.026158
sent_729 -0.170154 -0.056570 0.071371 -0.079872 -0.225238 -0.448521 0.365952 -0.096138 0.524082 -0.115270
sent_730 0.100906 0.198075 0.105452 0.160607 0.287084 0.405097 -0.092873 -0.339468 0.127853 -0.249663
sent_731 0.048796 0.824013 0.091256 0.628915 0.195296 0.174495 -0.877549 0.077546 -0.047033 0.607418
sent_732 0.230271 -0.003778 -0.078530 -0.167404 0.228108 -0.181270 0.388942 -0.561026 0.211540 -0.068220
sent_733 0.305073 0.016100 -0.509755 0.161350 0.116123 -0.193465 -0.031643 -0.516246 0.260906 0.139054
sent_734 0.655963 0.005824 -0.396757 0.286558 0.098014 0.482116 0.354011 -0.304069 -0.358706 -0.501902
sent_735 0.036080 0.118140 -0.067837 -0.073463 0.253420 -0.251096 -0.151905 0.044793 0.002472 -0.075707
sent_736 -0.097286 -0.467886 0.534288 -0.266249 -0.654214 -0.495642 0.356639 -0.082360 0.762062 0.137339
sent_737 0.250297 0.143711 -0.327656 0.223168 -0.242422 0.002836 0.090777 -0.197355 0.108662 0.026280
sent_738 0.012723 0.357981 -0.223365 0.019883 0.096473 0.048881 -0.237428 0.136011 0.032209 -0.070110
sent_739 0.524690 -0.129158 -0.107805 0.105948 -0.439663 0.166489 -0.083545 -0.226072 0.567385 -0.124623
sent_740 0.067310 0.166904 0.587009 0.085276 -0.157823 -0.009786 -0.197417 -0.428688 0.066643 0.019506
sent_741 0.688060 0.128846 -0.391916 0.155107 -0.590726 -0.243926 0.128772 -0.245021 0.401957 -0.531962
sent_742 0.241175 0.753771 -0.139645 0.876865 0.240765 0.516014 -0.514531 -0.045738 0.459153 0.097420
sent_743 0.675255 0.161365 -0.806587 0.358475 0.178818 -0.654769 0.063848 -0.347036 0.214754 -0.153636
sent_744 0.090515 -0.169335 0.524623 0.183520 0.274198 0.158128 -0.048519 -0.112741 -0.090205 -0.056756
sent_745 -0.092083 0.182449 0.354812 -0.084894 0.038003 -0.292628 0.003471 0.115780 0.315727 0.131470
sent_746 0.796438 0.609969 -0.680539 0.543652 -0.393228 -0.783319 -0.955687 0.161229 0.284497 -0.041079
sent_747 0.161001 0.203311 0.279128 -0.070167 0.214793 -0.083789 -0.257299 -0.211708 0.125025 -0.091038
sent_748 0.077446 0.568132 -0.013528 0.135567 0.300961 0.644184 -0.305283 -0.033084 0.034953 0.114893
sent_749 -0.512604 -0.485328 0.824777 -0.042559 -0.875405 0.208713 0.388526 -0.256137 1.166525 -0.736954
sent_750 0.228425 0.494730 0.409369 -0.084637 0.500699 0.368763 0.151934 -0.201904 -0.014593 -0.314118
sent_751 0.190122 0.668840 0.283901 0.625388 0.166613 0.937124 -0.113680 -0.208442 -0.055611 0.072002
sent_752 0.525682 0.003250 -0.397310 0.314426 0.091004 0.208697 0.382073 -0.545255 -0.334683 -0.139045
sent_753 0.218060 0.085722 -0.092120 0.188551 -0.161174 0.038070 0.277222 -0.159848 -0.026883 -0.797883
sent_754 0.103531 -0.217733 0.322345 0.364510 0.181999 0.679152 -0.442952 -0.333277 -0.330449 0.215017
sent_755 -0.391599 0.139504 0.563837 0.223310 -0.137999 0.189266 -0.247336 -0.181844 0.389005 0.027534
sent_756 -0.105202 0.298871 0.406801 0.158220 0.357213 -0.199511 0.149741 -0.595243 0.021980 -0.066308
sent_757 0.860975 -0.043317 -0.933361 0.346123 0.124584 -0.213500 0.437809 -0.716030 0.079492 -0.639660
sent_758 0.123217 -0.144071 -0.035799 0.228596 -0.185445 0.069166 -0.091656 -0.399849 0.276543 -0.111586
sent_759 -0.145354 0.149989 -0.151318 0.332490 0.161907 0.010569 -0.163164 0.144544 0.040027 -0.112177
sent_760 0.077989 -0.123097 0.854133 0.080809 0.034097 0.424107 -0.059945 -0.058139 0.411600 -0.264184
sent_761 -0.687609 0.297977 0.318046 -0.087120 -0.556640 -0.697663 -0.415957 0.250618 0.776677 0.406120
sent_762 0.001893 0.394362 0.186908 0.825564 -0.078362 1.185559 -0.348941 -0.109820 0.267936 0.444039
sent_763 0.038720 -0.317652 0.001988 0.054954 -0.594514 -0.076308 -0.035534 -0.170010 0.237873 -0.066266
sent_764 -0.174895 -0.100633 0.508258 -0.129639 0.059928 0.089181 -0.051235 -0.029278 -0.035890 0.252568
sent_765 0.549113 -0.150899 -0.207626 0.323478 0.127619 0.350452 0.515985 -0.162043 -0.614973 -0.275481
sent_766 0.677259 0.342182 -1.195113 -0.091945 0.008963 -0.012991 0.383972 -0.218420 0.208834 -0.326574
sent_767 0.322569 0.111671 0.466748 0.076823 0.621376 0.043073 0.057517 -0.313838 -0.035019 -0.069379
sent_768 -0.132496 -0.135717 0.004791 -0.065559 0.171514 0.013153 -0.068096 -0.030473 0.187544 0.175899
sent_769 0.164786 -0.510692 0.121928 0.001700 -0.170381 0.256771 0.333572 -0.178631 0.424572 -0.201716
sent_770 0.055016 0.138556 0.340344 0.112973 0.273087 0.365659 0.057167 0.157272 -0.111910 0.030856
sent_771 0.638349 -0.259317 -0.656813 0.364495 -0.133976 -0.270274 0.372330 -0.564318 0.534975 -0.838719
sent_772 0.062742 -0.061883 -0.609446 0.096993 0.047459 -0.483632 0.044355 0.255894 0.065132 0.008440
sent_773 0.190880 0.349648 -0.220952 0.340186 0.001107 0.179468 -0.605652 -0.029278 0.291954 -0.186622
sent_774 -0.146049 -0.110503 0.714216 -0.083933 0.246407 0.122413 0.255449 -0.264143 -0.012466 0.180017
sent_775 0.465901 -0.044105 -0.261652 0.322022 -0.039449 0.135734 0.084413 -0.256298 -0.105049 -0.415775
sent_776 0.555129 -0.080524 -0.752160 0.139733 0.275344 -0.485382 0.328810 -0.355949 0.061181 -0.306576
sent_777 0.087484 -0.011054 -0.258717 0.134713 -0.315406 -0.038091 0.120542 -0.211104 0.160244 -0.058021
sent_778 0.322860 0.294009 0.198052 0.031220 -0.415173 0.330879 -0.685659 0.102183 0.377831 0.167636
sent_779 -0.335936 0.401980 0.376903 0.423287 0.327873 1.025166 -0.169075 -0.391153 0.165026 -0.313924
sent_780 -0.198614 0.524761 -0.021825 0.158369 0.264065 0.357991 -0.495224 -0.270347 -0.115335 0.054727
sent_781 0.105581 0.041055 0.041798 0.069170 0.157103 -0.232287 0.242793 -0.520263 0.025169 -0.004327
sent_782 0.327868 -0.529290 0.442036 0.303078 0.155376 0.576204 -0.063441 -0.155454 0.168787 -0.272406
sent_783 0.324521 0.333920 0.441975 0.404799 0.085330 0.394217 -0.292583 -0.264276 -0.046544 0.329926
sent_784 -0.127899 0.238407 -0.137191 0.240366 0.220482 0.328771 -0.458755 -0.749534 0.371744 0.181461
sent_785 -0.013847 0.089555 0.119058 0.074082 -0.060131 0.100028 -0.221330 -0.053550 -0.085054 0.204356
sent_786 0.191317 -0.037983 -0.253702 0.178633 0.052202 -0.177142 -0.293494 -0.516628 -0.424979 0.073726
sent_787 0.608413 0.244909 -1.158662 -0.163757 -0.504646 -0.572522 0.023242 -0.180830 0.558426 -0.275003
sent_788 -0.542431 -0.310563 0.427566 -0.646260 -0.710302 -0.568229 0.382799 0.159959 1.040572 0.228373
sent_789 0.157461 0.217890 0.046558 0.058483 0.549977 -0.293130 0.020901 -0.494622 -0.419150 0.033914
sent_790 0.066211 0.146582 -0.333330 0.583377 0.119654 0.106543 -0.137506 -0.729505 0.228375 0.177833
sent_791 0.428575 0.392720 -0.239120 0.111720 0.569339 0.060264 0.167634 -0.060622 -0.318174 -0.564965
sent_792 0.300639 0.583172 -0.060623 0.784882 0.075331 0.487070 -0.837048 -0.795373 0.298842 0.836820
sent_793 0.723872 -0.189619 -0.686110 0.089741 0.024915 -0.196501 0.159979 -0.210161 0.146909 -0.856297
sent_794 0.145381 0.499413 0.264084 0.143518 0.408841 0.665250 -0.861541 -0.143416 -0.100881 0.402710
sent_795 -0.324944 -0.163866 -0.037680 0.009236 -0.136591 -0.224044 0.177192 -0.331212 0.866157 0.053015
sent_796 0.528457 0.139478 -0.170251 -0.148025 0.300692 -0.653516 0.482134 -0.246688 -0.273526 -0.486627
sent_797 0.346143 0.287205 0.071030 0.454556 0.036873 0.579882 -0.106522 -0.102744 -0.176403 -0.094322
sent_798 -0.244455 0.350611 0.588993 0.020243 0.438789 0.393874 -0.161288 -0.044196 -0.139930 -0.017687
sent_799 0.277430 0.399459 -0.112152 0.182973 0.007246 0.261660 -0.090582 -0.158950 0.111315 -0.238475
sent_800 -0.003173 0.036933 0.008572 -0.022389 0.007137 -0.047534 -0.023223 0.032601 -0.022127 -0.014709
sent_801 0.498980 0.359785 -0.263960 -0.042231 0.412309 -0.054561 -0.065254 -0.293131 -0.460067 0.080748
sent_802 -0.033776 0.189314 0.312897 0.461190 0.096918 0.457767 -0.063264 -0.233659 0.158930 0.012996
sent_803 0.001721 -0.070555 0.513257 0.170077 0.197486 0.473925 0.165520 -0.412836 0.529038 -0.344063
sent_804 0.064467 0.327377 0.121020 0.031921 0.495516 0.521656 0.194010 -0.196729 -0.398434 -0.046416
sent_805 -0.223262 -0.364313 0.518319 0.067398 -0.642866 -0.661584 -0.185931 0.045140 0.654875 0.520345
sent_806 -0.057751 0.116280 0.414702 0.324081 0.128179 0.311550 0.084159 -0.169070 0.427639 -0.182442
sent_807 -0.097001 0.529291 0.485466 0.045779 0.205668 -0.002095 -0.697670 0.229829 0.320372 -0.030102
sent_808 -0.049308 0.146166 0.012226 0.316702 -0.581987 0.721514 -0.144298 0.314952 0.053153 -0.187700
sent_809 0.206527 0.228745 0.263001 0.271745 0.007278 -0.007589 -0.279793 -0.255725 -0.115943 0.317016
sent_810 0.455233 -0.140010 0.099218 0.131118 0.182897 0.015376 0.398305 -0.367299 0.214418 0.134955
sent_811 0.158918 -0.120513 -0.201235 0.013098 -0.409926 -0.006802 -0.092040 -0.291761 0.418306 -0.047687
sent_812 0.071682 -0.055230 0.021441 -0.010918 0.104137 -0.266575 0.068701 -0.161389 -0.285947 0.200137
sent_813 0.551104 0.107975 -0.528692 -0.075095 -0.134400 -0.087648 0.266488 0.029143 0.215181 -0.482969
sent_814 0.000979 -0.238733 -0.240797 0.300430 -0.353079 -0.025990 -0.285512 0.225555 0.174612 0.168932
sent_815 0.227238 -0.265541 0.163903 0.124038 0.250651 0.256467 -0.073962 -0.277535 -0.225727 -0.019684
sent_816 0.469070 0.015046 -0.191954 0.330747 -0.486088 0.179438 -0.297214 -0.163347 0.423413 0.102549
sent_817 0.060146 0.566082 -0.304037 0.382077 0.019772 0.948691 -0.346202 -0.287397 -0.023600 0.064554
sent_818 -0.030207 0.294466 -0.069782 0.205934 0.393362 0.371561 0.140496 -0.262836 -0.298947 -0.001706
sent_819 0.381064 0.236187 0.292950 0.359421 0.132616 0.449008 -0.231051 -0.061571 -0.204446 -0.107049
sent_820 0.298771 0.047110 0.455042 0.445316 0.246162 0.533001 0.219020 -0.129583 -0.121359 -0.217767
sent_821 0.251317 0.537378 -0.420180 0.077056 0.117818 -0.040741 0.114033 -0.099353 -0.356649 0.002286
sent_822 0.074479 0.466569 0.666125 0.083787 1.133289 0.729826 0.309161 -0.918213 -0.637251 0.048879
sent_823 0.406315 0.174926 -0.483342 0.270143 0.230046 0.166182 -0.056281 -0.372739 0.218798 -0.149642
sent_824 0.304044 0.256540 0.278684 0.807512 0.214115 0.953316 -0.255592 -0.294096 -0.102124 -0.225364
sent_825 0.099787 -0.132165 0.218057 -0.198079 0.300069 -0.023228 0.135845 -0.019495 -0.057932 -0.150190
sent_826 0.089820 0.222668 0.182418 0.085718 0.055803 0.191018 0.105404 -0.396996 -0.001315 0.200108
sent_827 -0.145887 0.521745 -0.001626 0.295835 0.072901 0.368745 -0.181691 -0.205229 0.019389 -0.202427
sent_828 -0.525183 0.585548 0.288555 -0.085538 0.425306 0.575717 -1.034542 -0.215622 -0.103095 0.257300
sent_829 1.001007 0.416247 -0.934116 0.503441 -0.504219 -0.458365 -0.452775 -0.370925 0.339394 -0.073027
sent_830 0.001684 -0.098018 0.446357 -0.138915 0.163564 0.224303 0.296385 -0.121743 -0.158961 0.101943
sent_831 0.710717 0.122191 -0.537607 0.577051 0.231175 0.229540 0.000512 0.219219 -0.319943 -0.518880
sent_832 0.438115 0.529579 -0.775341 0.434555 0.362114 0.428312 -0.253941 -0.561149 -0.494133 0.067812
sent_833 0.168603 0.108117 -0.093998 0.060585 0.021786 0.241983 -0.281944 -0.117525 -0.092556 -0.030119
sent_834 0.393050 0.528131 -0.419920 0.402034 0.180748 -0.718409 -0.278447 0.021060 -0.244114 -0.098209
sent_835 -0.139000 0.668962 -0.460655 0.048840 0.252636 -0.746288 -0.900685 -0.007332 0.464594 0.604036
sent_836 0.211718 0.568670 0.299677 0.437293 0.193209 0.679386 -0.650330 -0.337622 0.007891 0.043688
sent_837 0.052403 0.248639 0.135642 0.082939 -0.000624 -0.072817 -0.090274 0.015118 0.163929 0.286756
sent_838 0.049499 -0.000087 -0.148366 -0.005260 0.093181 -0.057005 0.121149 -0.040220 0.086449 -0.011368
sent_839 -0.116605 0.208776 0.282190 -0.108555 0.287081 -0.124448 0.354335 0.021499 -0.200255 -0.478186
sent_840 -0.073460 0.088735 0.594135 -0.004686 0.013897 0.300787 -0.053199 -0.111731 0.317577 0.171764
sent_841 1.142608 -0.202244 -0.742726 -0.309848 0.319158 -1.042989 0.808091 -0.685317 0.098741 -0.539963
sent_842 -0.262499 0.789344 0.580527 0.484802 0.211623 0.536102 -0.331425 0.243692 0.054271 0.431385
sent_843 -0.079323 0.466777 0.201948 0.341580 0.144649 0.601879 -0.438889 -0.142053 -0.168566 0.162006
sent_844 0.135389 -0.009006 0.048854 -0.121880 -0.011684 -0.016698 0.132307 -0.059817 0.296730 -0.144679
sent_845 0.077112 0.184072 0.590880 0.209537 0.219605 0.256022 -0.044264 -0.460373 0.111223 -0.044569
sent_846 0.568881 0.275192 -0.211444 0.420098 0.046153 0.365893 0.159210 -0.451599 -0.079040 -0.303887
sent_847 -0.206362 0.696361 0.510043 0.446905 0.252525 0.228710 -0.652910 -0.064656 0.059905 0.602410
sent_848 0.153975 0.009547 0.100360 0.135318 0.320937 -0.205327 0.228992 -0.073967 -0.325953 -0.304682
sent_849 -0.374451 0.225411 0.971182 0.342973 -0.413308 0.036537 -0.707333 0.122978 0.791318 0.921245
sent_850 0.186417 0.000417 0.163909 -0.065829 0.233885 -0.019941 0.050078 -0.182221 -0.126590 -0.019045
sent_851 0.009879 -0.268402 0.435268 0.158966 0.267268 0.314925 0.009730 -0.472134 0.090601 -0.264102
sent_852 0.283913 0.503990 -0.000184 0.052304 0.006713 -0.176815 -0.105910 -0.478589 -0.334014 0.170531
sent_853 0.224636 0.278568 -0.058803 0.689858 -0.428816 0.790124 -0.370125 0.032892 0.137494 -0.325010
sent_854 0.231665 -0.223854 0.152891 0.377049 -0.025591 0.303414 0.127294 -0.135970 0.400581 0.117086
sent_855 0.503732 -0.228064 -0.790171 0.349030 -0.080645 -0.614813 0.553616 -0.313937 0.113646 -0.171167
sent_856 -0.170982 0.208458 0.602917 0.216409 0.450700 0.468421 -0.119982 -0.256968 0.046780 0.181480
sent_857 0.450992 0.206124 0.275283 0.135184 0.213627 0.264274 -0.299308 -0.377135 -0.112532 0.150947
sent_858 0.502011 0.397579 -0.608940 0.413700 -0.185588 0.318565 -0.215928 -0.426356 0.055820 -0.037374
sent_859 0.853789 0.350027 -0.561329 0.373934 -0.038527 0.198583 -0.365943 -0.116209 0.158254 -0.212328
sent_860 -0.118874 -0.158892 0.421154 0.267044 -0.420377 0.189507 -0.019737 -0.269416 0.768769 0.000411
sent_861 0.273520 0.119039 -0.586876 0.650562 -0.066395 0.304143 0.145298 -0.232016 0.352516 -0.051294
sent_862 0.063446 -0.113772 0.248788 0.468748 0.338568 -0.007982 0.051495 -0.093643 0.136033 -0.277813
sent_863 -0.008857 -0.535791 0.508636 -0.039283 -0.193349 0.415971 -0.098738 0.008025 0.435933 0.483762
sent_864 -0.433493 -0.525550 1.272080 -0.041303 0.019190 0.373848 -0.086887 0.016976 0.581103 0.343185
sent_865 0.047512 1.315507 0.055766 0.806306 0.074611 0.577003 -0.713756 -0.314384 -0.025122 0.161836
sent_866 0.103734 -0.295455 -0.430551 -0.180474 -0.643762 -0.900632 0.110336 -0.119752 0.152361 -0.060848
sent_867 -0.383479 -0.346046 1.454795 0.084808 0.053796 0.583938 0.072787 -0.114735 0.454030 0.371840
sent_868 0.284901 0.185160 -0.121278 0.289510 0.231872 -0.176126 0.115752 0.127639 0.000070 -0.238584
sent_869 0.956771 0.099242 -0.655136 0.288816 -0.058077 -0.426298 0.911164 -0.207475 0.468602 -0.634068
sent_870 0.391614 0.029720 0.191424 -0.240792 0.199095 -0.988242 0.388175 -0.111706 0.232108 -0.182182
sent_871 0.073316 0.496476 -0.005089 0.257374 0.070288 -0.083576 -0.540330 0.044302 -0.060914 0.191744
sent_872 -0.507452 0.281833 0.332533 0.374593 0.291721 0.831780 -0.271137 -0.496346 0.268175 0.231730
sent_873 -0.296912 0.081058 0.633231 -0.080289 -0.399975 -0.539189 0.061186 -0.322162 0.687230 0.270225
sent_874 -0.012359 0.076956 0.036027 -0.067681 0.144159 0.254938 -0.059288 -0.273899 0.255042 0.123650
sent_875 0.320365 0.265260 -0.253299 -0.130069 0.061838 -0.885376 0.458375 0.037724 -0.160470 -0.585085
sent_876 0.486972 0.372776 -0.851211 0.763698 -0.114781 0.580919 -0.170929 -0.639193 -0.210694 -0.251741
sent_877 0.045415 -0.087242 0.008041 1.012814 -0.289089 0.347924 -0.541729 0.064089 0.768039 0.199411
sent_878 0.337245 0.067049 -0.350840 0.168429 0.196237 -0.148386 0.001892 0.262544 0.015351 0.260297
sent_879 0.508642 0.140350 -0.536471 0.676461 -0.104644 0.292206 -0.147129 -0.124980 0.292594 -0.360848
sent_880 0.173384 0.219075 0.297975 0.768453 -0.087546 0.981748 -0.318901 -0.344107 0.328892 0.080309
sent_881 -0.071542 0.304153 0.142480 0.297811 0.364409 0.736218 -0.771166 0.163884 -0.169102 0.237053
sent_882 0.725124 -0.279882 -0.667393 0.370688 0.328035 -0.168679 0.174218 -0.380843 -0.275117 -0.238279
sent_883 -0.601182 0.097864 0.228331 0.148530 -0.520848 -0.434521 -0.411967 0.147806 0.541282 0.634175
sent_884 0.079982 0.289453 -0.167554 -0.190507 -0.045936 0.016270 -0.312939 -0.084356 0.172601 0.361995
sent_885 0.832730 -0.112285 -0.660491 0.174104 0.024375 -0.642863 0.379251 -0.422446 0.253233 -0.654469
sent_886 0.025366 0.249976 0.342865 0.579840 -0.352386 0.078285 -0.090496 0.017312 0.438770 0.130959
sent_887 0.297921 0.256721 -0.171396 -0.266654 0.236931 -0.173375 0.077231 -0.153503 -0.091190 -0.481062
sent_888 -0.081691 0.188029 -0.150277 0.319937 -0.057046 0.561993 -0.378411 -0.492812 0.221299 -0.075320
sent_889 -0.349950 0.261452 0.191309 0.231053 -0.583362 -0.258265 -0.161084 0.057680 0.548832 -0.025108
sent_890 0.082689 0.165098 -0.371227 0.272907 0.122147 0.123576 -0.232532 -0.202066 -0.116854 -0.443577
sent_891 0.110039 0.154996 0.619469 -0.041675 0.346351 -0.115960 -0.051149 0.006400 -0.101033 -0.002597
sent_892 -0.007290 -0.035694 0.744617 0.301959 0.448188 0.650298 -0.323476 0.012356 0.075650 0.094878
sent_893 -0.130592 0.443257 0.300284 0.332290 -0.198235 0.593684 -0.432948 0.153609 0.639239 0.096562
sent_894 0.167786 -0.051460 0.108474 -0.080920 0.123067 -0.467798 0.343743 -0.310423 0.098471 -0.039776
sent_895 0.253525 0.861389 0.312776 0.283332 0.926123 0.881233 -0.120328 -0.549803 -0.174686 0.087143
sent_896 0.112034 0.285526 0.295695 0.132465 0.354094 -0.218035 -0.518969 -0.042840 -0.518209 0.267742
sent_897 -0.114996 -0.072679 0.528709 -0.061183 0.360420 0.143949 0.105106 -0.122128 0.112722 -0.134835
sent_898 0.034027 0.079613 0.180239 -0.119976 0.216423 0.037209 0.231391 -0.223639 0.010605 0.112106
sent_899 0.450710 0.053352 -0.060934 0.451102 0.289588 0.290565 0.206588 -0.634527 0.390911 -0.548378
sent_900 -0.028271 0.039894 -0.066733 -0.536463 0.157452 -0.321722 0.085931 0.122643 -0.232105 -0.217434
sent_901 0.299223 0.572175 -0.067713 0.509532 0.378112 0.036528 -0.222469 -0.432222 -0.053437 0.070898
sent_902 0.028564 0.049290 0.133755 0.237163 -0.130904 0.567401 -0.559568 0.001288 0.175533 0.500100
sent_903 -0.304403 -0.263495 1.108198 -0.232162 -0.100192 0.683724 -0.037852 0.026520 0.336385 0.842715
sent_904 0.047587 -0.133557 0.106289 -0.171270 0.186997 -0.228637 -0.255569 -0.369137 0.197627 0.217389
sent_905 0.598517 -0.465433 -0.267143 0.049135 -0.051947 -0.222240 0.423019 -0.426630 0.579151 -0.337064
sent_906 0.125522 0.900543 0.325851 0.152036 0.576609 0.000144 -0.526259 -0.510790 -0.405322 0.369803
sent_907 0.172701 0.041020 0.137248 0.429309 -0.079928 0.503418 -0.090446 -0.317648 -0.212315 -0.034115
sent_908 1.064853 -0.189407 -1.026825 0.117720 -0.034741 -0.747556 0.506216 -0.620515 -0.131159 -0.647660
sent_909 -0.016563 -0.385570 0.156286 -0.312106 -0.748198 -0.627895 0.090101 -0.501683 0.987286 0.299113
sent_910 -0.021125 0.089741 0.063473 0.015798 0.041681 -0.060163 -0.092666 0.001035 -0.052833 0.039309
sent_911 0.269272 -0.016338 -0.283149 -0.036862 0.145365 -0.287792 0.116700 -0.129540 -0.101725 -0.286826
sent_912 -0.363367 -0.322222 0.270787 -0.029650 -0.139999 -0.980765 0.013976 -0.287216 0.861356 0.628166
sent_913 -0.142833 0.029224 -0.053108 0.033441 -0.019021 0.041542 0.118822 -0.298318 0.046949 0.196277
sent_914 0.054965 0.316981 0.095235 0.454814 -0.016437 0.352581 -0.027368 -0.672070 0.282073 -0.132554
sent_915 0.841967 -0.223759 -0.271299 0.167384 0.334645 -0.655148 0.205736 -0.090257 0.096378 -0.693090
sent_916 0.423921 0.308108 -0.655119 0.467506 -0.191802 -0.211031 -0.046323 -0.083354 0.215698 0.006039
sent_917 0.006583 -0.321338 0.115206 0.319546 -0.347123 -0.256237 -0.047557 0.233373 0.527666 0.254167
sent_918 0.115023 0.468046 0.420515 0.178012 0.299504 0.221246 -0.175091 -0.364957 -0.274166 0.124098
sent_919 0.476432 0.442042 -0.707656 0.350161 -0.021079 -0.289398 -0.135966 -0.586010 0.155530 -0.573609
sent_920 -0.203353 0.253057 0.692110 0.306991 0.188264 0.149971 -0.254763 -0.113058 -0.167032 0.570892
sent_921 -0.048008 0.077262 -0.063661 -0.089465 0.152836 -0.805530 0.006409 -0.034570 0.006103 0.184568
sent_922 0.426817 0.051867 -0.291970 0.049349 0.261542 -0.382763 0.172304 -0.494526 -0.120742 -0.134901
sent_923 0.307247 0.164670 -0.276492 -0.052604 -0.135630 -0.927341 0.139065 0.191865 -0.069344 -0.338190
sent_924 -0.047763 -0.339285 0.354237 -0.281002 -0.274057 -0.554966 0.420461 -0.125609 0.230709 0.289787
sent_925 -0.047710 0.698138 -0.175710 0.453377 -0.127948 0.189584 -0.430059 0.355711 0.279166 -0.351247
sent_926 0.164453 -0.169574 -0.083678 0.444489 0.123100 1.003128 0.300363 -0.873441 0.460966 -0.090013
sent_927 -0.263085 0.001077 0.643603 -0.115141 0.047996 0.172118 -0.103761 -0.648455 0.559867 -0.023525
sent_928 0.881476 0.002829 -0.953803 0.221524 0.038997 -0.027267 0.086242 -0.100388 -0.039329 -0.156385
sent_929 0.334001 0.431250 0.211367 0.356176 0.347454 0.650762 0.385036 -0.745468 0.001690 -0.139246
sent_930 -0.106326 0.245438 0.344490 0.134865 0.419616 0.303002 0.170416 -0.126577 0.116933 -0.167863
sent_931 0.680035 0.293145 -0.525546 0.022022 -0.030070 -0.569515 0.178060 0.013146 -0.098081 -0.513312
sent_932 -0.301328 -0.308383 0.513083 -0.330170 -0.523399 -0.074972 -0.174411 0.038057 0.318238 0.245392
sent_933 0.080653 0.363090 -0.143239 -0.081703 0.399040 -0.299901 -0.115629 -0.199414 0.216042 0.039343
sent_934 -0.053133 0.711812 0.344973 0.511378 0.396045 0.692243 -0.277726 -0.162656 -0.274215 0.073885
sent_935 -0.208891 0.555466 0.714393 0.199777 0.258857 0.566124 -0.184227 -0.013846 -0.453335 0.216176
sent_936 -0.288688 0.166843 0.831080 -0.478562 -0.387806 0.203027 -0.527407 0.456687 0.627052 0.255469
sent_937 0.644024 0.290751 -0.935753 0.205532 -0.119915 -0.724382 0.147543 0.148297 -0.083312 -0.284080
sent_938 0.934970 0.163040 -0.984641 0.071659 0.058456 -0.358062 0.069795 -0.317655 0.191156 -0.221589
sent_939 -0.101518 -0.051666 -0.084510 -0.163822 0.026572 -0.280659 -0.083121 -0.092648 0.123356 0.407727
sent_940 0.323684 0.567160 0.285107 0.038811 0.308460 0.239272 -0.410940 -0.344021 0.206443 -0.145549
sent_941 0.123961 -0.253904 -0.118601 -0.020722 0.327037 -0.280779 0.332198 -0.445437 -0.051948 -0.245901
sent_942 -0.018574 -0.100873 -0.242149 0.152680 -0.054643 -0.137315 0.065497 -0.177015 -0.122500 0.166507
sent_943 -0.068788 -0.020290 -0.053688 0.025895 -0.040537 -0.192785 0.107473 0.068268 -0.009378 -0.067990
sent_944 0.332342 -0.287292 -0.424855 0.642074 -0.115001 0.100336 0.567989 -0.691028 0.439047 -0.493222
sent_945 0.053364 -0.232732 -0.222057 0.143044 -0.257387 0.595935 0.060562 -0.118243 0.037283 -0.089034
sent_946 0.770483 0.097657 -0.881032 0.548724 -0.231926 0.139729 0.002350 0.036290 -0.186308 -0.346521
sent_947 0.376511 -0.183170 -0.258754 -0.250912 -0.136298 -0.470422 0.595687 -0.158924 -0.270160 -0.211199
sent_948 0.512807 0.439257 -0.647499 0.268703 0.206816 0.041451 0.233710 -0.635281 -0.146953 -0.186917
sent_949 -0.066846 0.351126 0.665455 0.555602 0.253779 0.608814 -0.130527 -0.196466 0.257313 -0.445620
sent_950 0.051458 0.555536 0.246072 0.365857 0.278449 0.427085 -0.231908 -0.180457 -0.036016 -0.030830
sent_951 -0.000576 0.276182 0.186620 -0.046106 0.045138 0.074831 -0.180660 0.076447 0.059857 -0.019199
sent_952 0.038979 0.093935 0.025553 -0.032070 -0.049220 -0.142722 0.066765 0.024323 -0.067310 0.058050
sent_953 0.225810 0.289889 -0.496009 -0.130851 0.105846 -0.177119 -0.075022 0.049838 -0.089369 -0.194067
sent_954 0.608983 0.400479 -0.232973 0.222369 0.196214 -0.568538 0.009326 -0.423111 0.104302 0.084107
sent_955 0.357229 0.174167 -0.489475 0.165053 0.145994 0.031813 -0.046055 -0.182009 0.014942 0.100692
sent_956 0.309711 -0.427029 0.296910 -0.327843 -0.285694 -0.232615 0.651833 -0.224532 0.325428 -0.358379
sent_957 0.231762 -0.438508 0.087441 0.170016 0.095585 -0.161850 0.154053 -0.432312 0.066828 -0.105048
sent_958 -0.114115 0.062095 0.101450 0.193491 0.161191 0.255631 0.106814 -0.347944 -0.279609 0.055919
sent_959 0.522925 -0.176369 0.393457 0.068465 0.092963 0.259846 -0.142947 -0.431624 0.017927 0.180525
sent_960 -0.091372 0.148122 0.606802 0.153644 0.455135 0.349710 0.284024 -0.281230 -0.385424 0.275812
sent_961 -0.045108 0.253260 0.040034 -0.013837 0.007319 -0.087123 0.002136 0.045675 0.128945 0.386889
sent_962 -0.808103 0.264298 1.131325 -0.287971 0.273041 0.638576 -0.427905 -0.104869 0.158636 0.523026
sent_963 0.102213 0.139252 -0.452757 0.609908 0.170957 0.587248 -0.381876 -0.166212 -0.027664 -0.220312
sent_964 -0.083459 0.151465 -0.255854 0.149526 0.161164 0.333997 0.026712 -0.191944 0.235994 -0.056211
sent_965 0.369032 0.045535 -0.152571 0.007838 0.084624 0.434239 -0.230840 -0.101269 -0.146317 -0.338701
